[
   {
      "config": {
         "name": "conv2d",
         "trainable": true,
         "batch_input_shape": [
            null,
            96,
            96,
            1
         ],
         "dtype": "float32",
         "filters": 5,
         "kernel_size": [
            2,
            2
         ],
         "strides": [
            1,
            1
         ],
         "padding": "same",
         "data_format": "channels_last",
         "dilation_rate": [
            1,
            1
         ],
         "groups": 1,
         "activation": "relu",
         "use_bias": true,
         "kernel_initializer": {
            "class_name": "HeUniform",
            "config": {
               "seed": null
            }
         },
         "bias_initializer": {
            "class_name": "Zeros",
            "config": {}
         },
         "kernel_regularizer": null,
         "bias_regularizer": null,
         "activity_regularizer": null,
         "kernel_constraint": null,
         "bias_constraint": null
      },
      "weights_biases": [
         [
            [
               [
                  [
                     -1.142181158065796,
                     -0.9098944067955017,
                     0.08350171148777008,
                     -1.2159550189971924,
                     -1.1009876728057861
                  ]
               ],
               [
                  [
                     -0.022282492369413376,
                     0.8781769275665283,
                     -1.695482850074768,
                     1.248317837715149,
                     1.2520787715911865
                  ]
               ]
            ],
            [
               [
                  [
                     -1.1508270502090454,
                     -0.8124563097953796,
                     -0.13955210149288177,
                     1.2367792129516602,
                     -1.212329626083374
                  ]
               ],
               [
                  [
                     0.7313885688781738,
                     0.7996158599853516,
                     1.645715355873108,
                     -1.6489534378051758,
                     -0.44905027747154236
                  ]
               ]
            ]
         ],
         [
            0.4036067724227905,
            -0.04245560243725777,
            0.05018642544746399,
            -0.014717808924615383,
            0.12321174144744873
         ]
      ]
   },
   {
      "config": {
         "name": "max_pooling2d",
         "trainable": true,
         "dtype": "float32",
         "pool_size": [
            2,
            2
         ],
         "padding": "valid",
         "strides": [
            2,
            2
         ],
         "data_format": "channels_last"
      },
      "weights_biases": []
   },
   {
      "config": {
         "name": "flatten",
         "trainable": true,
         "dtype": "float32",
         "data_format": "channels_last"
      },
      "weights_biases": []
   },
   {
      "config": {
         "name": "dense",
         "trainable": true,
         "dtype": "float32",
         "units": 8,
         "activation": "relu",
         "use_bias": true,
         "kernel_initializer": {
            "class_name": "HeUniform",
            "config": {
               "seed": null
            }
         },
         "bias_initializer": {
            "class_name": "Zeros",
            "config": {}
         },
         "kernel_regularizer": null,
         "bias_regularizer": null,
         "activity_regularizer": null,
         "kernel_constraint": null,
         "bias_constraint": null
      },
      "weights_biases": [
         [
            [
               -0.01948000118136406,
               0.012530189007520676,
               -0.01971018873155117,
               -0.015117969363927841,
               0.002716861665248871,
               -0.007779783569276333,
               -0.007042896002531052,
               0.022383738309144974
            ],
            [
               -0.062260061502456665,
               0.04582352191209793,
               -0.01155352033674717,
               -0.027873333543539047,
               -0.03055723011493683,
               0.0199017021805048,
               -0.037962399423122406,
               -0.05007926747202873
            ],
            [
               -0.01863584853708744,
               0.0063946433365345,
               0.027699874714016914,
               -0.05332592874765396,
               0.01690850593149662,
               0.03163103386759758,
               0.009642953053116798,
               -0.006579387933015823
            ],
            [
               -0.002075532451272011,
               -0.021289914846420288,
               0.005177587270736694,
               0.016319043934345245,
               -0.021720753982663155,
               0.01353830099105835,
               -0.004361819475889206,
               -0.00995698757469654
            ],
            [
               0.006487855687737465,
               0.022821512073278427,
               -0.0045676641166210175,
               -0.010633043944835663,
               0.014810919761657715,
               -0.017646001651883125,
               -0.017324088141322136,
               -0.0005136486142873764
            ],
            [
               -0.006488639861345291,
               0.012163154780864716,
               -0.005088804289698601,
               -0.014590228907763958,
               0.003910934552550316,
               -0.004690801724791527,
               -0.02088119275867939,
               -0.021651428192853928
            ],
            [
               -0.05192559212446213,
               0.022888200357556343,
               -0.019476333633065224,
               -0.01288006640970707,
               -0.03169713914394379,
               -0.009118083864450455,
               -0.046297308057546616,
               -0.017702793702483177
            ],
            [
               -0.014733554795384407,
               0.02557104267179966,
               0.03340740501880646,
               -0.055893443524837494,
               0.022946355864405632,
               0.011394526809453964,
               0.000915638986043632,
               -0.038318388164043427
            ],
            [
               -0.011628026142716408,
               0.0030712150037288666,
               0.002083703875541687,
               -0.017310986295342445,
               0.0027206987142562866,
               -0.003086734563112259,
               -0.0127944964915514,
               -0.02201339416205883
            ],
            [
               0.01820572093129158,
               0.00625871866941452,
               0.009080488234758377,
               -0.002806607633829117,
               0.01383330300450325,
               0.0038042720407247543,
               0.01845524087548256,
               -0.007057353854179382
            ],
            [
               -0.0021087341010570526,
               -0.014853551983833313,
               -0.006606690585613251,
               0.005706721916794777,
               -0.004376240074634552,
               -0.011058365926146507,
               0.0004357472062110901,
               -0.004117937758564949
            ],
            [
               -0.06206420063972473,
               0.016971701756119728,
               -0.00883433036506176,
               -0.03236699104309082,
               -0.013521444983780384,
               -0.004328408278524876,
               -0.03530653566122055,
               -0.03484774008393288
            ],
            [
               -0.013039663434028625,
               -0.004713117145001888,
               0.04056914895772934,
               -0.0321890152990818,
               0.012486803345382214,
               0.01744048297405243,
               0.0211752038449049,
               -0.007067949045449495
            ],
            [
               -0.0015206877142190933,
               -0.02157018706202507,
               -0.0037318505346775055,
               -0.0010610204190015793,
               -0.011010897345840931,
               0.017593197524547577,
               -0.018907686695456505,
               -0.012599355541169643
            ],
            [
               -0.008693104609847069,
               -0.002043716609477997,
               -0.012260470539331436,
               0.0014230906963348389,
               0.016646679490804672,
               -0.00954487081617117,
               -0.0033246632665395737,
               0.02252209186553955
            ],
            [
               -0.01366876158863306,
               -0.010621573776006699,
               -0.008800556883215904,
               0.0024434998631477356,
               -0.006213519722223282,
               0.01028718426823616,
               0.007967263460159302,
               -0.01811216026544571
            ],
            [
               -0.028726033866405487,
               0.04546542465686798,
               -0.031575728207826614,
               -0.041856974363327026,
               -0.0346110463142395,
               -0.011977038346230984,
               -0.07240185141563416,
               -0.024175157770514488
            ],
            [
               -0.00014977360842749476,
               -0.0013859800528734922,
               0.0420825257897377,
               -0.04444018006324768,
               -0.00678907660767436,
               0.05272342264652252,
               -0.0028344332240521908,
               -0.03831688314676285
            ],
            [
               -0.006726935505867004,
               -0.008297094143927097,
               0.0012717843055725098,
               0.0024496912956237793,
               0.006737157702445984,
               -0.0033360961824655533,
               -0.017164353281259537,
               -0.01385259535163641
            ],
            [
               -0.022545913234353065,
               -0.002109026536345482,
               0.010414216667413712,
               0.002912437543272972,
               0.020006023347377777,
               0.0005084741860628128,
               0.011717770248651505,
               -0.022810956463217735
            ],
            [
               0.01769479736685753,
               0.013608243316411972,
               -0.0014319755136966705,
               -0.0027976352721452713,
               -0.008155668154358864,
               -0.003188787028193474,
               0.006833139806985855,
               0.013659670948982239
            ],
            [
               -0.0682811513543129,
               0.03343500941991806,
               -0.033903829753398895,
               -0.0090574836358428,
               -0.02031204290688038,
               0.015257232822477818,
               -0.03468047454953194,
               -0.02913336269557476
            ],
            [
               -0.02457716502249241,
               0.025485841557383537,
               0.0024686164688318968,
               -0.06557214260101318,
               0.031328264623880386,
               0.040251098573207855,
               -0.0011790302814915776,
               -0.023524170741438866
            ],
            [
               0.008983336389064789,
               0.021028511226177216,
               0.0035822633653879166,
               0.0008228514343500137,
               -0.0028974469751119614,
               -0.01864209957420826,
               0.010784383863210678,
               0.002387329936027527
            ],
            [
               -0.014830285683274269,
               -0.014238834381103516,
               -0.007889661937952042,
               0.0021350421011447906,
               -0.008668815717101097,
               -0.016485679894685745,
               -0.00485689751803875,
               0.016050901263952255
            ],
            [
               0.01647729054093361,
               0.014212500303983688,
               0.009458895772695541,
               -0.01928727701306343,
               0.019585352391004562,
               -0.019477587193250656,
               -0.0017551258206367493,
               0.011455878615379333
            ],
            [
               -0.038622330874204636,
               0.026309071108698845,
               0.0009809528710320592,
               -0.0023967004381120205,
               -0.03463590517640114,
               -0.011406922712922096,
               -0.04123423993587494,
               -0.04571644589304924
            ],
            [
               -0.0263430904597044,
               -0.019007589668035507,
               0.015500024892389774,
               -0.061457760632038116,
               0.035784345120191574,
               0.042980823665857315,
               0.018356915563344955,
               -0.015622980892658234
            ],
            [
               -0.0029364004731178284,
               0.0038242898881435394,
               -0.015125386416912079,
               0.01225874200463295,
               0.007935639470815659,
               0.015180554240942001,
               0.001807691529393196,
               -0.01931900531053543
            ],
            [
               -0.018581904470920563,
               0.015936747193336487,
               -0.017875971272587776,
               0.020720336586236954,
               -0.022320959717035294,
               -0.0024252068251371384,
               -0.015869013965129852,
               0.00846538320183754
            ],
            [
               0.005367439240217209,
               0.006493357941508293,
               0.01932511106133461,
               0.01043611392378807,
               0.015405584126710892,
               0.02199748530983925,
               0.0035781599581241608,
               -0.0027609076350927353
            ],
            [
               -0.05654306709766388,
               0.015370672568678856,
               -0.020548786967992783,
               -0.019498731940984726,
               -0.0025384698528796434,
               0.013052953407168388,
               -0.04614950716495514,
               -0.017231546342372894
            ],
            [
               0.0086741354316473,
               0.012382972985506058,
               0.04283967241644859,
               -0.06011156737804413,
               0.033796753734350204,
               0.017572589218616486,
               -0.013884704560041428,
               -0.0007054383167997003
            ],
            [
               0.017246708273887634,
               0.016801849007606506,
               -0.0016898103058338165,
               -0.014097174629569054,
               0.0034724511206150055,
               0.00788038969039917,
               -0.008943391963839531,
               -0.014907713048160076
            ],
            [
               -0.0012340974062681198,
               -0.013554013334214687,
               -0.012325242161750793,
               0.0015602726489305496,
               -0.01650463230907917,
               0.012614209204912186,
               0.017605513334274292,
               -0.01839422434568405
            ],
            [
               -0.00342407263815403,
               0.006925296038389206,
               -0.0002004466950893402,
               0.010558884590864182,
               -0.010748662054538727,
               -0.01973096840083599,
               0.0012043565511703491,
               0.018706437200307846
            ],
            [
               -0.0510818287730217,
               0.04732143133878708,
               0.004497835412621498,
               -0.046364232897758484,
               -0.031982846558094025,
               -0.006166380830109119,
               -0.0428888313472271,
               -0.006246216595172882
            ],
            [
               0.011581366881728172,
               0.024670584127306938,
               0.04219874367117882,
               -0.053204990923404694,
               0.0075002568773925304,
               0.008534381166100502,
               -0.01674334704875946,
               -0.032831497490406036
            ],
            [
               0.013268928974866867,
               -0.007462581619620323,
               -0.01732640154659748,
               0.007304036989808083,
               0.018789086490869522,
               -0.017876282334327698,
               0.020375508815050125,
               0.018868621438741684
            ],
            [
               -0.013590539805591106,
               -0.017209328711032867,
               -0.005617721006274223,
               0.0133771151304245,
               -0.007595600560307503,
               -0.014842147938907146,
               -0.018211739137768745,
               -0.007057646289467812
            ],
            [
               0.0013983175158500671,
               0.020093578845262527,
               0.005246592685580254,
               0.0067064594477415085,
               -0.020816616714000702,
               0.015717048197984695,
               0.02163558453321457,
               0.012015216052532196
            ],
            [
               -0.06443165242671967,
               0.022205406799912453,
               -0.020884661003947258,
               -0.037170082330703735,
               -0.035428259521722794,
               0.004221229813992977,
               -0.04539768025279045,
               -0.013195488601922989
            ],
            [
               0.0007054114830680192,
               0.0013404707424342632,
               0.039999302476644516,
               -0.06563218683004379,
               -0.004563052672892809,
               0.051016174256801605,
               0.00044935644837096334,
               -0.026098087430000305
            ],
            [
               0.02049154043197632,
               -0.0002724975347518921,
               -0.02106180600821972,
               0.01694340631365776,
               0.011574316769838333,
               -0.01819036528468132,
               -0.0003644246608018875,
               0.019546162337064743
            ],
            [
               0.003195175901055336,
               -0.004026863723993301,
               -0.005493374541401863,
               0.02101694419980049,
               -0.01427213940769434,
               0.006861276924610138,
               -0.022620555013418198,
               0.019258584827184677
            ],
            [
               0.02000397816300392,
               -0.01734747923910618,
               -0.0021479204297065735,
               -0.003527803346514702,
               0.015454988926649094,
               0.002073686569929123,
               0.002245752140879631,
               -0.02080279029905796
            ],
            [
               -0.04901096224784851,
               0.008214803412556648,
               -0.02215905673801899,
               -0.012583723291754723,
               -0.02610000967979431,
               0.003062283154577017,
               -0.03911837190389633,
               -0.007950223051011562
            ],
            [
               -0.01099051721394062,
               -0.015944307669997215,
               0.009986849501729012,
               -0.052568547427654266,
               0.03292492777109146,
               0.009778234176337719,
               0.0158656295388937,
               -0.005828238092362881
            ],
            [
               0.02177383378148079,
               0.010882694274187088,
               0.014331817626953125,
               0.02151544764637947,
               -0.022268349304795265,
               -0.00994415208697319,
               -0.007067980244755745,
               0.014652810990810394
            ],
            [
               -0.019373714923858643,
               -0.009973453357815742,
               0.01673278585076332,
               0.011118065565824509,
               -0.013438552618026733,
               -0.013547717593610287,
               0.0029013436287641525,
               0.006360223516821861
            ],
            [
               -0.011076794937252998,
               -0.007266809232532978,
               -0.0013144798576831818,
               3.8914382457733154e-05,
               -0.008842365816235542,
               0.010095831006765366,
               0.022773530334234238,
               -0.002553144469857216
            ],
            [
               -0.028365114703774452,
               0.01267936360090971,
               0.005527029745280743,
               -0.014242170378565788,
               -0.020621709525585175,
               -0.012277916073799133,
               -0.0626542866230011,
               -0.021118126809597015
            ],
            [
               0.007837081328034401,
               -0.014829961583018303,
               0.027098188176751137,
               -0.05161865055561066,
               0.01999884657561779,
               0.025162504985928535,
               -0.008056273683905602,
               -0.024458222091197968
            ],
            [
               0.022246018052101135,
               -0.005452653393149376,
               -0.010482117533683777,
               0.01956288143992424,
               -0.016059748828411102,
               0.00466260127723217,
               0.010853402316570282,
               0.022079069167375565
            ],
            [
               -0.018661100417375565,
               -0.005776232108473778,
               0.0015466101467609406,
               0.022582586854696274,
               0.004227021709084511,
               -0.020610610023140907,
               0.01646886020898819,
               0.019602809101343155
            ],
            [
               0.010952722281217575,
               -0.015397192910313606,
               -0.020338144153356552,
               0.007769107818603516,
               0.009988825768232346,
               0.009562581777572632,
               -0.021993888542056084,
               0.011174511164426804
            ],
            [
               -0.038537949323654175,
               0.05149993300437927,
               0.002986332168802619,
               -0.01041239034384489,
               0.0014734223950654268,
               0.011913950555026531,
               -0.06721614301204681,
               -0.01432227622717619
            ],
            [
               -0.031417116522789,
               0.013161388225853443,
               0.03898811340332031,
               -0.06057515740394592,
               0.031571660190820694,
               0.02481633797287941,
               -0.006896513979882002,
               -0.0402560830116272
            ],
            [
               -0.015880946069955826,
               -0.010522888042032719,
               0.0006563812494277954,
               0.0004081074148416519,
               0.015636999160051346,
               0.004539724439382553,
               -0.015650972723960876,
               -0.0045036431401968
            ],
            [
               0.015162341296672821,
               -0.01856061816215515,
               0.01426175981760025,
               -0.014495971612632275,
               -0.015156297013163567,
               -0.021987680345773697,
               -0.0023413803428411484,
               -0.020395494997501373
            ],
            [
               -0.005118547007441521,
               0.022605959326028824,
               -0.02045004814863205,
               -0.012431181035935879,
               0.011476472020149231,
               0.0101710744202137,
               0.016351163387298584,
               -0.02084142342209816
            ],
            [
               -0.0365145318210125,
               0.04946329444646835,
               -0.01649514026939869,
               -0.03167341277003288,
               -0.02098170295357704,
               0.0026310940738767385,
               -0.0692639946937561,
               -0.021695058792829514
            ],
            [
               -0.010846773162484169,
               0.01860213093459606,
               0.03754005208611488,
               -0.03136192634701729,
               0.033808451145887375,
               0.008485427126288414,
               0.012002650648355484,
               -0.03195852041244507
            ],
            [
               0.01275394856929779,
               -0.013046099804341793,
               -0.016046009957790375,
               -0.01264694333076477,
               0.016591381281614304,
               0.0017420779913663864,
               -0.016120683401823044,
               -0.017718669027090073
            ],
            [
               -0.0020093247294425964,
               0.005111444741487503,
               0.019943837076425552,
               0.01358814537525177,
               -0.013971162959933281,
               -0.010583088733255863,
               0.020604461431503296,
               0.020063303411006927
            ],
            [
               -0.009926920756697655,
               0.011661101132631302,
               0.0221056267619133,
               0.02098976820707321,
               -0.0013975612819194794,
               -0.0011581666767597198,
               -0.009576037526130676,
               -0.0036707092076539993
            ],
            [
               -0.037924423813819885,
               0.0370197668671608,
               -0.026113763451576233,
               -0.01635790802538395,
               -0.020383374765515327,
               -6.654609751421958e-05,
               -0.07434776425361633,
               -0.02244027704000473
            ],
            [
               -0.026667773723602295,
               -0.0010712002404034138,
               0.016055403277277946,
               -0.030869221314787865,
               0.033695776015520096,
               0.03696201369166374,
               0.02217506431043148,
               -0.04560120403766632
            ],
            [
               0.020555857568979263,
               0.005996501073241234,
               -0.020269103348255157,
               0.015444841235876083,
               -0.00056455098092556,
               -0.0009450539946556091,
               0.010577689856290817,
               0.009995251893997192
            ],
            [
               -0.01840250939130783,
               0.00850263237953186,
               -0.005373148247599602,
               0.01440507173538208,
               0.015541620552539825,
               -0.013650495558977127,
               -0.006237661466002464,
               0.009091634303331375
            ],
            [
               0.011658255010843277,
               -0.005052398890256882,
               0.020239662379026413,
               -0.0075336480513215065,
               -0.011084244586527348,
               -0.0047989170998334885,
               0.016497347503900528,
               0.013133756816387177
            ],
            [
               -0.026406003162264824,
               0.014849558472633362,
               -0.0015944051556289196,
               -0.03439705818891525,
               -0.02018841728568077,
               0.015109069645404816,
               -0.053456246852874756,
               -0.03146157041192055
            ],
            [
               -0.029989242553710938,
               0.014457372017204762,
               0.026602724567055702,
               -0.04744119197130203,
               -0.0011956160888075829,
               0.04958214983344078,
               0.007195459678769112,
               -0.033556751906871796
            ],
            [
               -0.004788057878613472,
               -0.004187513142824173,
               0.008350932970643044,
               -0.01988193765282631,
               0.016521967947483063,
               -0.007229853421449661,
               -0.01143879909068346,
               0.006412366405129433
            ],
            [
               -0.013661138713359833,
               0.021094072610139847,
               -0.01946074143052101,
               -0.008246616460382938,
               0.002654142677783966,
               -0.011057255789637566,
               -0.014822477474808693,
               -0.005940984934568405
            ],
            [
               0.000552373006939888,
               -0.017987340688705444,
               0.00873544067144394,
               0.004903964698314667,
               0.0008917413651943207,
               -0.0128779960796237,
               0.0103493332862854,
               -0.02170501835644245
            ],
            [
               -0.06155848875641823,
               0.04767663776874542,
               -0.018099121749401093,
               -0.029050327837467194,
               -0.0016513390000909567,
               0.011622169986367226,
               -0.03519856929779053,
               -0.026437465101480484
            ],
            [
               -0.030691955238580704,
               -0.018731441348791122,
               0.012137501500546932,
               -0.04456590116024017,
               0.03552290424704552,
               0.03193416818976402,
               -0.0035250941291451454,
               -0.014696121215820312
            ],
            [
               -0.017847411334514618,
               -0.0040379539132118225,
               -0.009044401347637177,
               -0.004948500543832779,
               0.012544352561235428,
               0.012268349528312683,
               -0.018335655331611633,
               -0.021872669458389282
            ],
            [
               -0.0019378811120986938,
               0.005918104201555252,
               0.0219867005944252,
               0.009835727512836456,
               0.004858372732996941,
               0.015798427164554596,
               0.006516743451356888,
               -0.005616301670670509
            ],
            [
               0.0150911845266819,
               0.0030578896403312683,
               -0.019320271909236908,
               0.009366005659103394,
               0.012265417724847794,
               0.010418221354484558,
               -0.001349184662103653,
               -0.0008269269019365311
            ],
            [
               -0.03062610700726509,
               0.04529096186161041,
               -0.006767513230443001,
               -0.0387255921959877,
               -0.013085839338600636,
               0.003733696648851037,
               -0.06797516345977783,
               -0.04662386700510979
            ],
            [
               -0.022605959326028824,
               0.004420022014528513,
               0.003182165091857314,
               -0.03246483951807022,
               0.03700098767876625,
               0.01851896196603775,
               0.011405356228351593,
               -0.011583168059587479
            ],
            [
               -0.012210401706397533,
               -0.013081217184662819,
               0.0033431313931941986,
               0.015544846653938293,
               0.017476826906204224,
               -0.0004871003329753876,
               0.019998766481876373,
               0.02116783708333969
            ],
            [
               0.007420973852276802,
               0.01683754101395607,
               -0.015677154064178467,
               0.017028864473104477,
               0.01101156696677208,
               -0.011740428395569324,
               0.008264180272817612,
               0.011090938001871109
            ],
            [
               -0.00678534060716629,
               0.004968028515577316,
               -0.008741955272853374,
               0.004549507051706314,
               -0.01180247962474823,
               -0.00696643628180027,
               0.0058641936630010605,
               -0.007645131088793278
            ],
            [
               -0.03932709991931915,
               0.03894608095288277,
               -0.030356906354427338,
               -0.016445940360426903,
               -0.007458918262273073,
               0.014724189415574074,
               -0.05956437438726425,
               -0.006897781044244766
            ],
            [
               -0.01376844011247158,
               -0.0003652819141279906,
               0.02481325902044773,
               -0.04262659698724747,
               0.01916722021996975,
               0.024287791922688484,
               0.003829013789072633,
               -0.028680797666311264
            ],
            [
               0.016621652990579605,
               -0.009516560472548008,
               0.019667379558086395,
               -0.008041322231292725,
               0.017668724060058594,
               0.016737282276153564,
               0.0018441900610923767,
               -0.0005349442362785339
            ],
            [
               0.020542055368423462,
               -0.005489712581038475,
               0.006957655772566795,
               0.00627615861594677,
               0.0201282761991024,
               0.00840207003057003,
               0.02246852219104767,
               -0.00118173286318779
            ],
            [
               0.0051057059317827225,
               0.012639831751585007,
               0.019723113626241684,
               0.008346281945705414,
               -0.006847810000181198,
               -0.02221292071044445,
               -0.02233186922967434,
               0.021264661103487015
            ],
            [
               -0.047162555158138275,
               0.018102088943123817,
               -0.03698708489537239,
               -0.04185730218887329,
               -0.03867286816239357,
               0.01710321567952633,
               -0.0657692551612854,
               -0.03641343489289284
            ],
            [
               0.00033884699223563075,
               0.007991844788193703,
               -0.00026972973137162626,
               -0.03040369413793087,
               0.023214174434542656,
               0.040527746081352234,
               0.004817139822989702,
               -0.03273899853229523
            ],
            [
               0.002835778519511223,
               0.006539978086948395,
               -0.014293311163783073,
               0.005479233339428902,
               -0.01372016966342926,
               0.022703342139720917,
               5.099363625049591e-05,
               -0.0016304142773151398
            ],
            [
               -0.00804872252047062,
               0.008321698755025864,
               0.019710134714841843,
               -0.006641171872615814,
               0.0074503012001514435,
               -0.008548839017748833,
               0.020714905112981796,
               0.0103713758289814
            ],
            [
               0.008889447897672653,
               0.0012484844774007797,
               0.010939933359622955,
               0.001080462709069252,
               0.01802964136004448,
               0.02248159795999527,
               -0.0020016636699438095,
               0.0004661045968532562
            ],
            [
               -0.047145914286375046,
               0.03317798674106598,
               -0.020454945042729378,
               -0.00896391924470663,
               -0.03345739468932152,
               0.019669407978653908,
               -0.05952628701925278,
               -0.01598537340760231
            ],
            [
               -0.0166760440915823,
               -0.0028121029026806355,
               0.02865356206893921,
               -0.07187791913747787,
               0.03508906066417694,
               0.022822383791208267,
               0.01664501614868641,
               -0.02241486683487892
            ],
            [
               -0.021399900317192078,
               -0.007608632557094097,
               -0.012121215462684631,
               -0.007407533936202526,
               -0.0176310446113348,
               0.018796104937791824,
               -0.0011279955506324768,
               -0.008592776022851467
            ],
            [
               -0.007937232963740826,
               -0.010184841230511665,
               0.0019436441361904144,
               0.007107552140951157,
               -0.009977963753044605,
               -0.00792709644883871,
               -0.008041050285100937,
               0.01489226147532463
            ],
            [
               0.018982350826263428,
               0.01684993878006935,
               0.004089469090104103,
               0.0008359644562005997,
               -0.013718330301344395,
               -0.019339006394147873,
               -0.018477875739336014,
               0.01580166071653366
            ],
            [
               -0.03945225104689598,
               0.04996679723262787,
               -0.007851619273424149,
               -0.020490873605012894,
               -0.018581148236989975,
               0.0077439285814762115,
               -0.03257403150200844,
               -0.013022311963140965
            ],
            [
               -0.022916113957762718,
               0.013799597509205341,
               0.030458446592092514,
               -0.03241495043039322,
               0.00816419068723917,
               0.03604845702648163,
               -0.0015362302074208856,
               -0.009722643531858921
            ],
            [
               -0.020996157079935074,
               -0.022520681843161583,
               -0.008057733066380024,
               0.008576218038797379,
               -0.004841146990656853,
               -0.0053994059562683105,
               0.0022751186043024063,
               -0.015555023215711117
            ],
            [
               0.019787952303886414,
               0.008683200925588608,
               -0.02168096788227558,
               -0.006933050230145454,
               0.007883567363023758,
               -0.020495153963565826,
               0.00247042253613472,
               0.005578495562076569
            ],
            [
               0.013139106333255768,
               -0.013632327318191528,
               0.002143317833542824,
               -0.012597369030117989,
               0.012271113693714142,
               -0.0007010418921709061,
               0.0037910565733909607,
               0.019459962844848633
            ],
            [
               -0.034970030188560486,
               0.03503990173339844,
               -0.014526532962918282,
               -0.008675405755639076,
               -0.03328784182667732,
               -0.023257238790392876,
               -0.029098505154252052,
               -0.03683825954794884
            ],
            [
               -0.02194381132721901,
               -0.01720455102622509,
               0.02651047520339489,
               -0.05381891876459122,
               -0.005481444764882326,
               0.02286691963672638,
               0.017734702676534653,
               -0.0027854652144014835
            ],
            [
               -0.009942905977368355,
               -0.020029550418257713,
               0.014134559780359268,
               0.02083437517285347,
               0.0030336007475852966,
               -0.011756502091884613,
               0.019179902970790863,
               -0.013557403348386288
            ],
            [
               0.00744984857738018,
               0.01582248881459236,
               0.009554143995046616,
               0.006883470341563225,
               -0.015503245405852795,
               0.003567170351743698,
               0.00931917130947113,
               0.017247695475816727
            ],
            [
               -0.010104709304869175,
               -0.02085934579372406,
               -0.011887464672327042,
               0.017546549439430237,
               0.02058727666735649,
               -0.0047602578997612,
               0.010095823556184769,
               0.003323739394545555
            ],
            [
               -0.028728019446134567,
               0.03064824268221855,
               -0.023702770471572876,
               -0.02941051684319973,
               -0.020053183659911156,
               0.015801602974534035,
               -0.04951702058315277,
               -0.028296595439314842
            ],
            [
               -0.02462868019938469,
               0.025456061586737633,
               0.0032964942511171103,
               -0.03417583554983139,
               -0.004330274183303118,
               0.03391028568148613,
               -0.007284059654921293,
               -0.023464040830731392
            ],
            [
               0.0103926882147789,
               0.011087529361248016,
               0.0035573597997426987,
               0.013990011066198349,
               -0.000735526904463768,
               -0.022535210475325584,
               -0.0015676934272050858,
               -0.014844878576695919
            ],
            [
               -0.0036376919597387314,
               -0.0057100579142570496,
               -0.015161155723035336,
               0.01870187744498253,
               0.018647056072950363,
               -0.012276571244001389,
               -0.012547980062663555,
               0.0011263694614171982
            ],
            [
               -0.002409890294075012,
               -0.02230101265013218,
               -0.015753939747810364,
               -0.01230256911367178,
               0.004226667806506157,
               -0.02254272997379303,
               0.010270249098539352,
               -0.008577954024076462
            ],
            [
               -0.02643168903887272,
               0.04089279845356941,
               0.0013169368030503392,
               -0.021825194358825684,
               0.002176647773012519,
               -0.006322174333035946,
               -0.03399725258350372,
               -0.030579157173633575
            ],
            [
               0.0020627600606530905,
               0.023321717977523804,
               0.022929729893803596,
               -0.041276708245277405,
               0.007067370694130659,
               0.0460079051554203,
               0.015357512049376965,
               -0.03947828710079193
            ],
            [
               0.01993652805685997,
               0.017029359936714172,
               -0.017915839329361916,
               0.0048528555780649185,
               0.01587119698524475,
               0.0012417640537023544,
               -0.013465306721627712,
               0.0071237944066524506
            ],
            [
               0.01540476456284523,
               0.012737847864627838,
               0.012866780161857605,
               0.00881819799542427,
               -0.02074228599667549,
               -0.01768619567155838,
               0.011408809572458267,
               0.009483076632022858
            ],
            [
               0.014760501682758331,
               -0.009720043279230595,
               -0.007523739710450172,
               -0.020549630746245384,
               0.022630080580711365,
               -0.009396007284522057,
               -0.012458457611501217,
               -0.0011733751744031906
            ],
            [
               -0.02484017424285412,
               0.02251669205725193,
               -0.018156878650188446,
               -0.03800426423549652,
               -0.02142702229321003,
               -0.013772950507700443,
               -0.04344601929187775,
               -0.042023736983537674
            ],
            [
               -0.003313725348562002,
               -0.017865944653749466,
               0.020794644951820374,
               -0.031574711203575134,
               0.0025645603891462088,
               0.042513784021139145,
               0.008031513541936874,
               -0.03149973973631859
            ],
            [
               0.002104576677083969,
               0.006513413041830063,
               0.019726108759641647,
               0.012711770832538605,
               -0.009591033682227135,
               -0.007536205463111401,
               0.019865676760673523,
               -0.014940229244530201
            ],
            [
               0.014494583010673523,
               -0.008339224383234978,
               -0.021627623587846756,
               0.018131650984287262,
               -0.008130263537168503,
               -0.011433178558945656,
               -0.003359917551279068,
               0.00962740182876587
            ],
            [
               0.011971551924943924,
               -0.022445235401391983,
               -0.01755679026246071,
               -0.007833709940314293,
               -0.01081173587590456,
               -0.009577654302120209,
               0.008181404322385788,
               0.017076991498470306
            ],
            [
               -0.06927623599767685,
               0.012317933142185211,
               -0.010288037359714508,
               -0.030459454283118248,
               -0.0050526754930615425,
               -0.017607364803552628,
               -0.04938562959432602,
               -0.007241503335535526
            ],
            [
               0.0060409801080822945,
               -0.004374477546662092,
               0.014819533564150333,
               -0.06740517169237137,
               -0.004275590647011995,
               0.05215319246053696,
               0.021027108654379845,
               -0.010591313242912292
            ],
            [
               -0.0010821223258972168,
               -0.004233544692397118,
               -0.022465785965323448,
               -0.01512109860777855,
               0.01758924499154091,
               -9.459443390369415e-05,
               0.014107361435890198,
               -0.0008844789117574692
            ],
            [
               0.012479063123464584,
               0.019520580768585205,
               0.011349696666002274,
               0.011232521384954453,
               -0.013818517327308655,
               0.021584365516901016,
               0.021861102432012558,
               0.015299063175916672
            ],
            [
               -0.013039091601967812,
               0.018521476536989212,
               0.0007248017936944962,
               -0.008954796008765697,
               -0.009846054017543793,
               0.012941308319568634,
               -0.0012580342590808868,
               0.01080024242401123
            ],
            [
               -0.042491354048252106,
               0.05065181851387024,
               -0.021670429036021233,
               -0.031149614602327347,
               -0.023269617930054665,
               -0.015795160084962845,
               -0.04606460779905319,
               -0.027570320293307304
            ],
            [
               -0.030302146449685097,
               -0.00615063589066267,
               0.039724864065647125,
               -0.07330559939146042,
               -0.004768822807818651,
               0.041651830077171326,
               0.010532118380069733,
               -0.03671376407146454
            ],
            [
               0.00629311241209507,
               -0.019444357603788376,
               0.02115430310368538,
               -0.013218535110354424,
               0.016163863241672516,
               -0.00010995939373970032,
               -0.003036990761756897,
               0.017971187829971313
            ],
            [
               -0.005369845777750015,
               -0.004303980618715286,
               -0.009267307817935944,
               -0.013142048381268978,
               -0.00039108656346797943,
               0.021447215229272842,
               -0.017683394253253937,
               -0.00552728958427906
            ],
            [
               0.022325530648231506,
               0.010681293904781342,
               0.004004359245300293,
               0.00790281780064106,
               0.014838192611932755,
               0.022025983780622482,
               -0.019112497568130493,
               -0.0025478545576334
            ],
            [
               -0.04386046156287193,
               0.014927685260772705,
               0.0012473888928070664,
               -0.020664945244789124,
               -0.023499125614762306,
               0.018515363335609436,
               -0.04636911675333977,
               -0.029219290241599083
            ],
            [
               -0.01542452909052372,
               -0.005729669705033302,
               0.018013745546340942,
               -0.06498891115188599,
               0.034817859530448914,
               0.03761790692806244,
               -0.011277150362730026,
               -0.014797572046518326
            ],
            [
               -0.00836373120546341,
               -0.021539835259318352,
               -0.001472359523177147,
               -0.0026886165142059326,
               -0.0035914257168769836,
               0.013246767222881317,
               -0.0019039679318666458,
               0.0015773791819810867
            ],
            [
               -0.0019736401736736298,
               -0.01716795563697815,
               0.01681424304842949,
               -0.009553984738886356,
               -0.004337623715400696,
               0.014836229383945465,
               0.020226407796144485,
               0.018445581197738647
            ],
            [
               -0.020254084840416908,
               -0.017343176528811455,
               -0.01737186685204506,
               -0.011447564698755741,
               -0.009693670086562634,
               0.006049579009413719,
               0.00046091899275779724,
               0.0009152088314294815
            ],
            [
               -0.06160636618733406,
               0.044564999639987946,
               -0.03345097228884697,
               -0.011163584887981415,
               -0.015681523829698563,
               -0.0023789710830897093,
               -0.06810243427753448,
               -0.038293514400720596
            ],
            [
               -0.027380457147955894,
               0.017449133098125458,
               0.03414348512887955,
               -0.02927335910499096,
               0.021927161142230034,
               0.04214578866958618,
               -0.00032014635507948697,
               -0.027476191520690918
            ],
            [
               -0.0036357343196868896,
               -0.01581336185336113,
               -0.015574839897453785,
               -0.02173100970685482,
               -0.006313741207122803,
               0.01776125654578209,
               0.019630324095487595,
               -0.02053166925907135
            ],
            [
               3.308802843093872e-05,
               0.01395980641245842,
               -0.0008355788886547089,
               -0.003810938447713852,
               0.008616521954536438,
               -0.008561505936086178,
               -0.00015722215175628662,
               -0.014576565474271774
            ],
            [
               -0.014907381497323513,
               0.009126871824264526,
               -0.01134417299181223,
               0.0016168393194675446,
               0.017311498522758484,
               0.004623435437679291,
               0.012862946838140488,
               -0.0023220088332891464
            ],
            [
               -0.06861286610364914,
               0.03302966058254242,
               -0.011613791808485985,
               -0.041533634066581726,
               -0.039083607494831085,
               -0.016431085765361786,
               -0.03660639002919197,
               -0.03948703780770302
            ],
            [
               0.0007950269500724971,
               0.007281594444066286,
               0.02341693639755249,
               -0.052664488554000854,
               0.01076015830039978,
               0.047922421246767044,
               0.024450795724987984,
               -0.020571019500494003
            ],
            [
               0.008060099557042122,
               0.010995734483003616,
               0.0071257371455430984,
               -0.004783518612384796,
               0.0017344914376735687,
               0.012482713907957077,
               0.009190589189529419,
               0.006019521504640579
            ],
            [
               -0.008093350566923618,
               0.015142425894737244,
               0.010064255446195602,
               0.010909143835306168,
               -0.016739901155233383,
               0.007497731596231461,
               -0.012745770625770092,
               -0.007852802984416485
            ],
            [
               -0.005174262449145317,
               -0.011649235151708126,
               -0.005533743649721146,
               -0.010392948053777218,
               -0.0041051339358091354,
               -0.008767099119722843,
               0.0032823532819747925,
               0.0070601776242256165
            ],
            [
               -0.03250447288155556,
               0.04048195853829384,
               -0.01595867983996868,
               -0.030087316408753395,
               0.0029788867104798555,
               0.015520225279033184,
               -0.05593028664588928,
               -0.016413548961281776
            ],
            [
               -0.027519358322024345,
               0.025299107655882835,
               0.001644757343456149,
               -0.04488416761159897,
               0.020582664757966995,
               0.021079016849398613,
               0.008618667721748352,
               -0.024142947047948837
            ],
            [
               0.010929461568593979,
               0.015548694878816605,
               0.007865175604820251,
               -0.0011580586433410645,
               0.0072695352137088776,
               -0.01502944715321064,
               -0.013107165694236755,
               -0.002712791785597801
            ],
            [
               -0.014400011859834194,
               -0.017735237255692482,
               -0.008898355066776276,
               -0.0019961409270763397,
               -0.018425384536385536,
               -0.015353025868535042,
               0.0025355853140354156,
               0.005330631509423256
            ],
            [
               -0.0031983312219381332,
               0.00215722993016243,
               0.0005885511636734009,
               -0.010946812108159065,
               0.02054179087281227,
               0.022789016366004944,
               0.00960492342710495,
               0.004109486937522888
            ],
            [
               -0.03459896892309189,
               0.03991321846842766,
               -0.0018040757859125733,
               -0.012966908514499664,
               -0.023022130131721497,
               0.014118170365691185,
               -0.04626212269067764,
               -0.02284420281648636
            ],
            [
               -0.01569214276969433,
               -0.008342067711055279,
               0.026167726144194603,
               -0.06909563392400742,
               0.001868701190687716,
               0.0415077768266201,
               -0.016718097031116486,
               -0.03051731362938881
            ],
            [
               0.01203223317861557,
               0.004015209153294563,
               -0.011298853904008865,
               0.008813418447971344,
               -0.01962846890091896,
               -0.002962164580821991,
               -0.002808190882205963,
               -0.011571981944143772
            ],
            [
               0.0050001852214336395,
               -0.013557451777160168,
               0.0022038333117961884,
               0.020569786429405212,
               -0.0010011475533246994,
               0.0023697931319475174,
               0.00385221466422081,
               0.011707581579685211
            ],
            [
               -0.019315864890813828,
               0.01312827318906784,
               -0.016748208552598953,
               -0.020134929567575455,
               0.005105502903461456,
               0.010958231985569,
               -0.016848647966980934,
               0.011645257472991943
            ],
            [
               -0.06390639394521713,
               0.041793931275606155,
               -0.02558676339685917,
               -0.04517444223165512,
               -0.015535305254161358,
               0.006260002963244915,
               -0.062487147748470306,
               -0.04736332222819328
            ],
            [
               -0.03169883042573929,
               0.019807107746601105,
               0.018110739067196846,
               -0.05741599202156067,
               0.0344754122197628,
               0.029799601063132286,
               0.024433517828583717,
               -0.03334881365299225
            ],
            [
               0.008183455094695091,
               -0.018933957442641258,
               -0.012855899520218372,
               0.005486061796545982,
               0.009330164641141891,
               -0.014354643411934376,
               -0.005869243294000626,
               -0.008309581317007542
            ],
            [
               -0.005042755976319313,
               -0.0072410134598612785,
               0.0033646393567323685,
               0.014859389513731003,
               0.01052909716963768,
               -0.019568925723433495,
               0.02217881754040718,
               0.017507918179035187
            ],
            [
               0.009452681988477707,
               -0.020139679312705994,
               -0.02008628100156784,
               -0.016181912273168564,
               -0.006092313677072525,
               -0.004430362954735756,
               -0.008898790925741196,
               -0.0006506554782390594
            ],
            [
               -0.0685582086443901,
               0.03300400450825691,
               -0.01962653361260891,
               -0.02234497107565403,
               -0.005547110456973314,
               -0.023237966001033783,
               -0.0657084584236145,
               -0.022565819323062897
            ],
            [
               -0.021353883668780327,
               -0.015972090885043144,
               0.03923128545284271,
               -0.04921083152294159,
               0.03220423683524132,
               0.05240154266357422,
               -0.017229782417416573,
               -0.03479351848363876
            ],
            [
               -0.021002648398280144,
               0.013337463140487671,
               0.0005395654588937759,
               0.01982809230685234,
               0.010116316378116608,
               -0.014226439408957958,
               0.02266128733754158,
               0.01762574538588524
            ],
            [
               -0.011752399615943432,
               0.010017972439527512,
               -0.022802097722887993,
               -0.018664784729480743,
               0.01425931602716446,
               0.012097306549549103,
               0.0053140632808208466,
               0.018121305853128433
            ],
            [
               0.017644882202148438,
               -0.01694968342781067,
               -0.005137214437127113,
               0.022185683250427246,
               0.01895923539996147,
               -0.018626559525728226,
               0.006455166265368462,
               0.0029416028410196304
            ],
            [
               -0.0558934360742569,
               0.0191792082041502,
               -0.031040392816066742,
               -0.026469416916370392,
               -0.026178058236837387,
               0.015860840678215027,
               -0.07341240346431732,
               -0.01693793199956417
            ],
            [
               -0.013477785512804985,
               -0.010889050550758839,
               0.012230864726006985,
               -0.03944872319698334,
               0.019668864086270332,
               0.039745818823575974,
               -0.010111171752214432,
               -0.018872594460844994
            ],
            [
               0.001762937754392624,
               0.006281550973653793,
               0.003302900120615959,
               0.0019504409283399582,
               -0.017328571528196335,
               0.011407416313886642,
               0.006942549720406532,
               0.022081445902585983
            ],
            [
               -0.01667603850364685,
               0.012726444751024246,
               -0.019962308928370476,
               0.019455060362815857,
               -0.01344121340662241,
               -0.009812787175178528,
               -0.004891030490398407,
               -0.0031191296875476837
            ],
            [
               0.016544047743082047,
               0.014894623309373856,
               0.014983121305704117,
               -0.018102824687957764,
               0.003077838569879532,
               -0.017433907836675644,
               -0.002998223528265953,
               0.015560563653707504
            ],
            [
               -0.027618704363703728,
               0.04410646855831146,
               -0.021914517506957054,
               -0.01656828634440899,
               -0.021268844604492188,
               0.005558039993047714,
               -0.05353819578886032,
               -0.04491109773516655
            ],
            [
               -0.02323702722787857,
               0.021208466961979866,
               -0.00041254606912843883,
               -0.07208539545536041,
               -0.007250215392559767,
               0.04665717855095863,
               -0.008044591173529625,
               -0.014754489064216614
            ],
            [
               0.019456833600997925,
               -0.010374976322054863,
               -0.0034312941133975983,
               0.010198846459388733,
               0.0019150562584400177,
               0.0169772170484066,
               -0.01663236692547798,
               0.0056874435395002365
            ],
            [
               0.0025759097188711166,
               -0.00745069794356823,
               0.020927969366312027,
               0.008816879242658615,
               -0.013327542692422867,
               -0.0045234933495521545,
               -0.02094857022166252,
               0.011887166649103165
            ],
            [
               0.006754614412784576,
               -0.0009404625743627548,
               -0.011526994407176971,
               -0.014658579602837563,
               -0.002578064799308777,
               -0.011912134476006031,
               -0.009099764749407768,
               -0.006311269477009773
            ],
            [
               -0.02881041169166565,
               0.029060866683721542,
               -0.027664732187986374,
               -0.004641602747142315,
               -0.013616190291941166,
               0.004855111241340637,
               -0.06577116250991821,
               -0.012737051583826542
            ],
            [
               -0.028032371774315834,
               -0.0170807596296072,
               0.028688255697488785,
               -0.04643881320953369,
               0.036987803876399994,
               0.0288392324000597,
               -0.016441084444522858,
               -0.018458174541592598
            ],
            [
               0.00866994634270668,
               -0.005360115319490433,
               -0.009222946129739285,
               -0.00951650645583868,
               0.003491384908556938,
               -0.01971309445798397,
               0.012476149946451187,
               -0.020543048158288002
            ],
            [
               -0.020361095666885376,
               0.019502729177474976,
               -0.011874361895024776,
               -0.015200620517134666,
               0.002076543867588043,
               -0.01115079503506422,
               -0.020396888256072998,
               0.015245873481035233
            ],
            [
               -0.01372312381863594,
               -0.0051908306777477264,
               0.00930050015449524,
               0.008088970556855202,
               -0.011086806654930115,
               0.0017207972705364227,
               -0.0016584638506174088,
               0.0022961758077144623
            ],
            [
               -0.062006860971450806,
               0.01595776155591011,
               -0.030070826411247253,
               -0.006744891405105591,
               -0.013847221620380878,
               -0.023384252563118935,
               -0.07138203084468842,
               -0.038441289216279984
            ],
            [
               0.004590686876326799,
               0.008716759271919727,
               0.016778985038399696,
               -0.05569823831319809,
               0.03199179098010063,
               0.04721449688076973,
               -0.01783580891788006,
               -0.018467595800757408
            ],
            [
               -0.01166846975684166,
               0.014127194881439209,
               -0.01691550388932228,
               0.004415225237607956,
               0.006281457841396332,
               -0.01580018550157547,
               -0.0026804935187101364,
               -0.006434010341763496
            ],
            [
               -0.008488317020237446,
               0.022592391818761826,
               -0.016098054125905037,
               -0.007162351161241531,
               -0.015156999230384827,
               -0.010139924474060535,
               -0.0018954239785671234,
               -0.001675330102443695
            ],
            [
               0.005264014005661011,
               0.010338906198740005,
               -0.011086431331932545,
               0.0013615675270557404,
               0.009906336665153503,
               -0.005386060103774071,
               0.007149906828999519,
               0.004549125209450722
            ],
            [
               -0.031102893874049187,
               0.050678037106990814,
               -0.01074276864528656,
               -0.016507253050804138,
               -0.021968789398670197,
               0.014962286688387394,
               -0.057634688913822174,
               -0.05072997137904167
            ],
            [
               -0.02871631272137165,
               -0.017953921109437943,
               0.004066688474267721,
               -0.046468161046504974,
               0.01343261357396841,
               0.03315570205450058,
               0.007536531891673803,
               -0.03124702349305153
            ],
            [
               -0.004811018705368042,
               0.004576109349727631,
               0.014735184609889984,
               -0.007125796750187874,
               -0.021620387211441994,
               0.015201114118099213,
               0.014735572040081024,
               0.019550912082195282
            ],
            [
               0.017892345786094666,
               -0.007736951112747192,
               -0.0015727002173662186,
               0.003828665241599083,
               0.010238859802484512,
               0.0021973755210638046,
               0.00023868680000305176,
               0.0069708451628685
            ],
            [
               -0.017644140869379044,
               -0.004878787323832512,
               -0.00044857338070869446,
               -0.018068958073854446,
               0.011206872761249542,
               0.009828578680753708,
               0.013794586062431335,
               -0.022328756749629974
            ],
            [
               -0.04590452089905739,
               0.03504498675465584,
               -0.020343318581581116,
               -0.04206955432891846,
               -0.03312130272388458,
               -0.013262756168842316,
               -0.030687887221574783,
               -0.0069841258227825165
            ],
            [
               -0.01162773184478283,
               0.02167609892785549,
               0.03849419206380844,
               -0.031089773401618004,
               0.004663839470595121,
               0.03694393113255501,
               -0.0005343838129192591,
               -0.029149819165468216
            ],
            [
               -0.0033583231270313263,
               -0.005097700282931328,
               0.014496542513370514,
               -0.0024615805596113205,
               0.009054254740476608,
               0.015417035669088364,
               -0.0018267463892698288,
               -0.004295350983738899
            ],
            [
               0.0027951225638389587,
               -0.008679872378706932,
               0.00888826698064804,
               -0.00028383173048496246,
               -0.004608189687132835,
               -0.005885262042284012,
               -0.019060827791690826,
               0.001179257407784462
            ],
            [
               -0.007713129743933678,
               0.01750970631837845,
               0.0013414472341537476,
               0.018001824617385864,
               0.00403960794210434,
               -0.0008897781372070312,
               -0.01679270714521408,
               0.01886840909719467
            ],
            [
               -0.054451774805784225,
               0.01331830583512783,
               -0.02094065025448799,
               -0.011927219107747078,
               -0.013825035654008389,
               0.016511814668774605,
               -0.07105205953121185,
               -0.04750129207968712
            ],
            [
               0.004655302036553621,
               0.013156228698790073,
               -0.0010221487609669566,
               -0.06089511513710022,
               0.019174054265022278,
               0.014108937233686447,
               -0.01014537364244461,
               -0.014891751110553741
            ],
            [
               -0.011042810045182705,
               -0.019798031076788902,
               -0.00863388366997242,
               0.02105221152305603,
               0.012434989213943481,
               -0.017421795055270195,
               0.01970602571964264,
               -0.012848123908042908
            ],
            [
               -0.01734156534075737,
               -0.02089504525065422,
               0.0063165705651044846,
               -0.019595125690102577,
               -0.017310431227087975,
               -0.007261144928634167,
               0.010656755417585373,
               0.010296378284692764
            ],
            [
               0.005561541765928268,
               0.018628284335136414,
               -0.008465638384222984,
               -0.006799366325139999,
               -0.01758938655257225,
               -0.015360116958618164,
               -0.02192717418074608,
               -0.014635732397437096
            ],
            [
               -0.043131109327077866,
               0.009467829018831253,
               0.0015415266389027238,
               -0.03623732924461365,
               -0.037579938769340515,
               0.019553733989596367,
               -0.06688988208770752,
               -0.010040844790637493
            ],
            [
               -0.01674358919262886,
               -0.0046267202123999596,
               0.018807552754878998,
               -0.03591196984052658,
               0.012355073355138302,
               0.04332483932375908,
               0.013998470269143581,
               -0.03039158508181572
            ],
            [
               0.013488464057445526,
               0.008214736357331276,
               -0.020581679418683052,
               0.016668304800987244,
               -0.02105453610420227,
               -0.0158170685172081,
               0.01905391365289688,
               -0.007125992327928543
            ],
            [
               -0.011553057469427586,
               -0.004627717658877373,
               -0.017306862398982048,
               0.019907642155885696,
               -0.009200360625982285,
               -0.01556534506380558,
               -0.013463260605931282,
               0.004122273996472359
            ],
            [
               0.006090262904763222,
               0.019669048488140106,
               -0.014906363561749458,
               -0.0015724766999483109,
               0.020543869584798813,
               -0.01212509535253048,
               -0.005520489066839218,
               -0.0022568143904209137
            ],
            [
               -0.03704999387264252,
               0.026168597862124443,
               -0.0033096412662416697,
               -0.04661343991756439,
               -0.024326201528310776,
               -0.016396643593907356,
               -0.042071450501680374,
               -0.05125717446208
            ],
            [
               -0.023115292191505432,
               0.0034965751692652702,
               0.03311728313565254,
               -0.036231204867362976,
               0.012303142808377743,
               0.03378539904952049,
               0.013030046597123146,
               -0.009385643526911736
            ],
            [
               0.018591605126857758,
               0.011836841702461243,
               0.007954388856887817,
               0.021039992570877075,
               0.009484753012657166,
               -0.008218512870371342,
               0.0009959228336811066,
               0.009960677474737167
            ],
            [
               -0.012381943874061108,
               0.020697597414255142,
               -0.01415308192372322,
               0.0011877715587615967,
               0.015150975435972214,
               0.01039852574467659,
               -0.012101475149393082,
               0.009147733449935913
            ],
            [
               0.0016165617853403091,
               -0.005377886816859245,
               -0.003868548199534416,
               -0.00034661032259464264,
               0.017239898443222046,
               0.007340798154473305,
               -0.002459397539496422,
               0.011871080845594406
            ],
            [
               -0.036045294255018234,
               0.00966151338070631,
               -0.024396097287535667,
               -0.02691592089831829,
               -0.032836589962244034,
               -0.01890612579882145,
               -0.05773376300930977,
               -0.017027728259563446
            ],
            [
               0.007615253794938326,
               0.010961300693452358,
               0.0191638246178627,
               -0.0647478923201561,
               0.025672439485788345,
               0.022697417065501213,
               0.013778077438473701,
               -0.023993762210011482
            ],
            [
               -0.011370404623448849,
               -0.016999155282974243,
               0.0003128480166196823,
               0.020134925842285156,
               -0.002152279019355774,
               -0.009609169326722622,
               -0.003121720626950264,
               -0.017135323956608772
            ],
            [
               0.007071070373058319,
               0.01705063506960869,
               0.01561952754855156,
               0.008964180946350098,
               -0.004837777465581894,
               -0.0025369394570589066,
               -0.0003460776060819626,
               0.011595934629440308
            ],
            [
               -0.007443477399647236,
               -0.020143678411841393,
               0.021704550832509995,
               0.009676642715930939,
               -0.0014962684363126755,
               -0.00825007725507021,
               0.016280926764011383,
               0.010542131960391998
            ],
            [
               -0.024714717641472816,
               0.0287854615598917,
               0.00550184678286314,
               -0.026233451440930367,
               -0.03774157166481018,
               0.002920901868492365,
               -0.06306508183479309,
               -0.022028077393770218
            ],
            [
               -0.007772346492856741,
               0.009755161590874195,
               0.01880643703043461,
               -0.05035315454006195,
               0.026430506259202957,
               0.04220232740044594,
               -0.014717340469360352,
               -0.03852654993534088
            ],
            [
               0.02221588045358658,
               -0.008946808986365795,
               0.010864842683076859,
               0.005295703187584877,
               0.02226622775197029,
               0.013237878680229187,
               -0.022554492577910423,
               -0.011217236518859863
            ],
            [
               0.012975804507732391,
               0.00399823859333992,
               0.0015992317348718643,
               -0.0009620189666748047,
               0.020336639136075974,
               0.020989518612623215,
               0.010200455784797668,
               0.007764939218759537
            ],
            [
               -0.010960904881358147,
               -0.012653457000851631,
               -0.01785324513912201,
               -0.00920187309384346,
               -0.004080083221197128,
               0.00714515708386898,
               -0.005595091730356216,
               -0.01020306907594204
            ],
            [
               -0.06451373547315598,
               0.013471713289618492,
               -0.027866456657648087,
               -0.02143879607319832,
               -0.01780804619193077,
               -0.020740319043397903,
               -0.04591665044426918,
               -0.027471551671624184
            ],
            [
               -0.016631921753287315,
               -0.016493158414959908,
               -0.0018107142532244325,
               -0.0331261083483696,
               0.02190576121211052,
               0.019772188737988472,
               0.011298060417175293,
               -0.011886097490787506
            ],
            [
               0.018022410571575165,
               0.005984382703900337,
               0.016663555055856705,
               0.02222169190645218,
               0.0196002796292305,
               -0.012569923885166645,
               0.02017882838845253,
               -0.01308573316782713
            ],
            [
               -0.014280655421316624,
               0.02244744822382927,
               0.01860673725605011,
               0.008424699306488037,
               -0.016420157626271248,
               -0.0012766644358634949,
               -0.012124747037887573,
               0.01233966276049614
            ],
            [
               0.008164145052433014,
               -0.019476689398288727,
               0.017264988273382187,
               -0.002028394490480423,
               0.020658284425735474,
               0.012891501188278198,
               0.021924849599599838,
               -0.0025846529752016068
            ],
            [
               -0.0375775583088398,
               0.008842457085847855,
               -0.03157173469662666,
               -0.01106610894203186,
               -0.021923327818512917,
               0.010969837196171284,
               -0.03481100872159004,
               -0.012454516254365444
            ],
            [
               -0.025371113792061806,
               -0.009996513836085796,
               0.02502765692770481,
               -0.05976537615060806,
               0.017019368708133698,
               0.02185770310461521,
               0.00404440937563777,
               -0.01212599128484726
            ],
            [
               -0.01981789618730545,
               0.006863294169306755,
               -0.0047890860587358475,
               0.01639220118522644,
               0.016001001000404358,
               -0.0037375856190919876,
               0.0162496455013752,
               0.018870964646339417
            ],
            [
               -0.0039992555975914,
               -0.01669245958328247,
               0.013822749257087708,
               -0.0034997165203094482,
               -0.008369439281523228,
               0.008563127368688583,
               0.012479253113269806,
               0.013382725417613983
            ],
            [
               -0.014426760375499725,
               -0.02222668193280697,
               -0.010457430966198444,
               -0.017516672611236572,
               -0.020026983693242073,
               0.01745438575744629,
               0.018132057040929794,
               -0.016148988157510757
            ],
            [
               -0.03554466739296913,
               0.033025093376636505,
               -0.016075575724244118,
               -0.026498526334762573,
               -0.01684611104428768,
               4.567824362311512e-05,
               -0.04525033384561539,
               -0.04059061035513878
            ],
            [
               0.02221648022532463,
               0.008228794671595097,
               0.03836533799767494,
               -0.01373243611305952,
               0.021067442372441292,
               0.003021324286237359,
               0.002031873445957899,
               0.03070390224456787
            ],
            [
               0.005961536895483732,
               -0.007025224156677723,
               -0.00723879411816597,
               0.0024135431740432978,
               0.011778960935771465,
               -0.011032828129827976,
               -0.007469302974641323,
               -0.01661481335759163
            ],
            [
               -0.014473461546003819,
               -0.0022456813603639603,
               0.0005118902772665024,
               0.0195491760969162,
               0.013305425643920898,
               0.011070679873228073,
               0.016303952783346176,
               -0.006017971783876419
            ],
            [
               0.013583794236183167,
               -0.006982097402215004,
               0.0020557865500450134,
               -0.008108912035822868,
               0.0013932082802057266,
               0.004790717735886574,
               0.012310158461332321,
               0.008492540568113327
            ],
            [
               -0.04573056474328041,
               0.028714943677186966,
               -0.006517261732369661,
               -0.045273683965206146,
               -0.0315597765147686,
               -0.024699276313185692,
               -0.06351040303707123,
               -0.04456966742873192
            ],
            [
               -0.011148493736982346,
               0.01660662144422531,
               0.01555702555924654,
               -0.06759566068649292,
               0.00894790980964899,
               0.012363390997052193,
               -0.017171725630760193,
               -0.035388246178627014
            ],
            [
               -0.007272561080753803,
               -0.0016777906566858292,
               -0.004580749198794365,
               -0.012253043241798878,
               0.009719129651784897,
               -0.013525828719139099,
               0.008718807250261307,
               -0.007146837189793587
            ],
            [
               -0.007201776839792728,
               -0.011534362100064754,
               -0.014294122345745564,
               0.004709688946604729,
               0.006557399407029152,
               0.005005206912755966,
               0.015882648527622223,
               0.008540540933609009
            ],
            [
               0.008770082145929337,
               0.00788254477083683,
               -0.0032001491636037827,
               -0.009378671646118164,
               0.013988014310598373,
               3.386102616786957e-05,
               0.02238732948899269,
               -0.021528806537389755
            ],
            [
               -0.05724181979894638,
               0.03754102438688278,
               -0.008609490469098091,
               -0.0053742085583508015,
               -0.013202383182942867,
               -0.01720435731112957,
               -0.0700257271528244,
               -0.03655180707573891
            ],
            [
               -0.02135096676647663,
               0.008669541217386723,
               0.004627896472811699,
               -0.048693858087062836,
               0.02838199958205223,
               0.03390321880578995,
               0.008962824940681458,
               -0.042233847081661224
            ],
            [
               -0.01583842933177948,
               0.0002533774822950363,
               0.017789941281080246,
               -0.002643335610628128,
               -0.019724836573004723,
               -0.01930856890976429,
               -0.0007039029151201248,
               -0.018701164051890373
            ],
            [
               0.0008957255631685257,
               0.011218678206205368,
               -0.004189373925328255,
               -0.015909496694803238,
               -0.01196582242846489,
               0.015189927071332932,
               0.00509115494787693,
               -0.00593307800590992
            ],
            [
               -0.005123594775795937,
               0.000978739932179451,
               0.0005790069699287415,
               -0.0026243403553962708,
               -0.014906608499586582,
               -0.0032882578670978546,
               0.022348038852214813,
               0.016905561089515686
            ],
            [
               -0.04954002425074577,
               0.019374990835785866,
               -0.009223628789186478,
               -0.03859146684408188,
               -0.004462861455976963,
               0.014209902845323086,
               -0.06011752039194107,
               -0.027219021692872047
            ],
            [
               0.0024021684657782316,
               -0.0007248711190186441,
               0.029106058180332184,
               -0.06760474294424057,
               0.0128075135871768,
               0.026747921481728554,
               0.025600198656320572,
               -0.023203782737255096
            ],
            [
               -0.00753179844468832,
               -0.013867493718862534,
               0.017539236694574356,
               -0.019973676651716232,
               0.01376202329993248,
               0.002902703359723091,
               -0.00932835228741169,
               -0.019244177266955376
            ],
            [
               0.0050543081015348434,
               -0.0020345766097307205,
               -0.013688377104699612,
               -0.013754927553236485,
               0.013728119432926178,
               -0.01001996360719204,
               -0.02002806030213833,
               -0.01882535219192505
            ],
            [
               0.01699398085474968,
               0.0006854087114334106,
               0.014949094504117966,
               -0.002906953915953636,
               -0.022633416578173637,
               -0.003439541906118393,
               -0.004392318427562714,
               0.004403792321681976
            ],
            [
               -0.05564916506409645,
               0.03832424804568291,
               -0.013763409107923508,
               -0.036842383444309235,
               -0.03803550451993942,
               -0.012548291124403477,
               -0.06302493810653687,
               -0.025020970031619072
            ],
            [
               -0.0327020026743412,
               0.02311231940984726,
               0.030745871365070343,
               -0.0356413908302784,
               0.000573971017729491,
               0.030810890719294548,
               -0.0173483919352293,
               -0.0060487533919513226
            ],
            [
               0.0046393293887376785,
               -0.01062481664121151,
               0.0020909514278173447,
               -0.010685180313885212,
               0.0190725214779377,
               0.001996999606490135,
               -0.022171661257743835,
               0.014223054051399231
            ],
            [
               -0.01184142753481865,
               0.014461223036050797,
               0.011945966631174088,
               -0.003617396578192711,
               -0.009955181740224361,
               0.014346055686473846,
               -0.020874347537755966,
               0.0033162031322717667
            ],
            [
               0.015281077474355698,
               -0.017459377646446228,
               0.0195065476000309,
               -1.4217570424079895e-05,
               0.008470963686704636,
               0.004268532618880272,
               -0.014602689072489738,
               0.017650634050369263
            ],
            [
               -0.05911390483379364,
               0.05146808177232742,
               -0.02360527031123638,
               -0.015506037510931492,
               -0.012614189647138119,
               0.006559377536177635,
               -0.0695435106754303,
               -0.03505002334713936
            ],
            [
               -0.030145054683089256,
               -0.017175210639834404,
               0.024066224694252014,
               -0.04898965358734131,
               0.007472697179764509,
               0.04863792657852173,
               0.01623312197625637,
               -0.03136809170246124
            ],
            [
               -0.021973395720124245,
               0.010082617402076721,
               -0.015832439064979553,
               -0.009577212855219841,
               -0.009251664392650127,
               0.01915864273905754,
               -0.02064518816769123,
               -0.012330003082752228
            ],
            [
               -0.020786462351679802,
               -0.009538553655147552,
               0.01525907963514328,
               0.02090902253985405,
               -0.005438055843114853,
               0.016117658466100693,
               0.02019130066037178,
               0.00768103264272213
            ],
            [
               -0.007056450471282005,
               -0.0075580403208732605,
               -0.01691034995019436,
               -0.018162420019507408,
               -0.0014669839292764664,
               0.013481516391038895,
               0.005985405296087265,
               -0.0008791778236627579
            ],
            [
               -0.062189120799303055,
               0.034663740545511246,
               -0.03358054533600807,
               -0.015443035401403904,
               -0.0262888353317976,
               -0.012706199660897255,
               -0.032731324434280396,
               -0.008897989057004452
            ],
            [
               -0.009044080041348934,
               -0.015202519483864307,
               -0.0006927700596861541,
               -0.07280726730823517,
               0.007919082418084145,
               0.02605322375893593,
               0.019943062216043472,
               -0.027840930968523026
            ],
            [
               -0.012086822651326656,
               0.004353730008006096,
               0.020439013838768005,
               0.003570200875401497,
               -0.022357100620865822,
               0.02032705768942833,
               0.021864965558052063,
               0.017132598906755447
            ],
            [
               0.012943588197231293,
               0.018793433904647827,
               -0.01924387365579605,
               -0.014352140948176384,
               -0.0052340067923069,
               -0.01942353881895542,
               0.006577504798769951,
               0.020631976425647736
            ],
            [
               0.004109781235456467,
               0.004206400364637375,
               0.00472639873623848,
               -0.014498529024422169,
               -0.005809532478451729,
               0.004724396392703056,
               0.00716753676533699,
               0.018578965216875076
            ],
            [
               -0.030326994135975838,
               0.04545062780380249,
               -0.032974522560834885,
               -0.03449840098619461,
               -0.01648632250726223,
               0.011973443441092968,
               -0.054303161799907684,
               -0.020497126504778862
            ],
            [
               -0.028178520500659943,
               0.02285708487033844,
               0.007781417109072208,
               -0.05756174772977829,
               0.016577014699578285,
               0.05102582275867462,
               0.010293867439031601,
               -0.007764224428683519
            ],
            [
               0.011310912668704987,
               -0.0036773681640625,
               -0.022643810138106346,
               0.011918779462575912,
               -0.004596501588821411,
               0.010058682411909103,
               0.004866806790232658,
               -0.004064891487360001
            ],
            [
               0.0016229059547185898,
               -0.0141756571829319,
               -0.015168936923146248,
               0.01778355985879898,
               -0.0015089251101016998,
               0.006998501718044281,
               0.017329562455415726,
               -0.011359946802258492
            ],
            [
               0.005406562238931656,
               -0.016673818230628967,
               0.0054848697036504745,
               -0.0005453433841466904,
               0.00975136086344719,
               -0.002798657864332199,
               0.016704842448234558,
               0.017546482384204865
            ],
            [
               -0.047317083925008774,
               0.03625505790114403,
               -0.03323248028755188,
               -0.027542173862457275,
               -0.01613996922969818,
               0.013323521241545677,
               -0.032508473843336105,
               -0.013290207833051682
            ],
            [
               -0.004714929964393377,
               0.02538583241403103,
               0.00734721589833498,
               -0.02921157516539097,
               -0.00020423792011570185,
               0.007896475493907928,
               0.007508230395615101,
               -0.021528571844100952
            ],
            [
               0.013657819479703903,
               0.002660965546965599,
               0.005877213552594185,
               0.0019481927156448364,
               0.013956576585769653,
               0.0014253165572881699,
               -0.006849354133009911,
               0.0005581621080636978
            ],
            [
               -0.013634596951305866,
               0.004755284637212753,
               -0.0017713401466608047,
               -0.00035195983946323395,
               0.006157258525490761,
               0.011983506381511688,
               0.007986066862940788,
               0.016584105789661407
            ],
            [
               -0.011669585481286049,
               -0.009289387613534927,
               0.013476010411977768,
               -0.01741555891931057,
               0.017137844115495682,
               0.01653674989938736,
               -0.010236004367470741,
               0.010477971285581589
            ],
            [
               -0.04966876655817032,
               0.022648723796010017,
               0.00021312531316652894,
               -0.01548698265105486,
               -0.0009312743786722422,
               0.011748477816581726,
               -0.041449062526226044,
               -0.03316047415137291
            ],
            [
               -0.030248332768678665,
               -0.0023086785804480314,
               0.028648052364587784,
               -0.059864312410354614,
               -0.002839387161657214,
               0.0251755528151989,
               -0.0013994673499837518,
               -0.015038896352052689
            ],
            [
               0.02203051745891571,
               -0.0029287077486515045,
               0.013241160660982132,
               0.010273613035678864,
               0.006819222122430801,
               -0.0028005409985780716,
               -0.021411174908280373,
               0.018532928079366684
            ],
            [
               -0.0014081764966249466,
               0.018376916646957397,
               0.007830042392015457,
               0.021360017359256744,
               -0.022478122264146805,
               -0.017661215737462044,
               -0.018772277981042862,
               -0.011679297313094139
            ],
            [
               -0.020248372107744217,
               -0.018121851608157158,
               -0.008357664570212364,
               -0.014921256341040134,
               -0.020781874656677246,
               -0.010537165217101574,
               0.021314386278390884,
               -0.011575997807085514
            ],
            [
               -0.05258499085903168,
               0.011868283152580261,
               -0.03532509505748749,
               -0.004460367374122143,
               -0.018315071240067482,
               0.0149972103536129,
               -0.06363700330257416,
               -0.02001969888806343
            ],
            [
               -0.022273782640695572,
               0.0061112865805625916,
               0.02961815893650055,
               -0.03567022457718849,
               0.0020477504003793,
               0.04719671607017517,
               0.0258476622402668,
               -0.034486331045627594
            ],
            [
               -0.0045226383954286575,
               -0.011883731931447983,
               0.0018977262079715729,
               0.002408502623438835,
               -0.01311409194022417,
               0.009992387145757675,
               -0.011585650034248829,
               0.006821474060416222
            ],
            [
               0.019602205604314804,
               0.01067529246211052,
               0.0026492122560739517,
               0.00830063596367836,
               0.017036128789186478,
               0.007848918437957764,
               0.008457619696855545,
               -0.01481833215802908
            ],
            [
               -0.0002780091017484665,
               0.011717107146978378,
               0.006851976737380028,
               0.014407530426979065,
               -0.004875278100371361,
               0.010038871318101883,
               -0.007736574858427048,
               0.004661789163947105
            ],
            [
               -0.058310724794864655,
               0.03289223462343216,
               -0.03292333334684372,
               -0.007236761972308159,
               0.0035966443829238415,
               -0.00525946170091629,
               -0.04842443764209747,
               -0.04792789742350578
            ],
            [
               -0.008750624023377895,
               0.013437707908451557,
               0.025303222239017487,
               -0.06709888577461243,
               -0.0027180060278624296,
               0.016304658725857735,
               -0.01583566889166832,
               -0.034703321754932404
            ],
            [
               0.01141558587551117,
               -0.008138424716889858,
               -0.02233641780912876,
               0.021916449069976807,
               -0.019817184656858444,
               -0.008010519668459892,
               -0.019097909331321716,
               0.020166032016277313
            ],
            [
               -0.012506388127803802,
               -0.019940288737416267,
               -0.00034212134778499603,
               0.01762300729751587,
               0.004891863092780113,
