[
   {
      "config": {
         "name": "conv2d_5",
         "trainable": true,
         "batch_input_shape": [
            null,
            96,
            96,
            1
         ],
         "dtype": "float32",
         "filters": 5,
         "kernel_size": [
            2,
            2
         ],
         "strides": [
            1,
            1
         ],
         "padding": "same",
         "data_format": "channels_last",
         "dilation_rate": [
            1,
            1
         ],
         "groups": 1,
         "activation": "relu",
         "use_bias": true,
         "kernel_initializer": {
            "class_name": "HeUniform",
            "config": {
               "seed": null
            }
         },
         "bias_initializer": {
            "class_name": "Zeros",
            "config": {}
         },
         "kernel_regularizer": null,
         "bias_regularizer": null,
         "activity_regularizer": null,
         "kernel_constraint": null,
         "bias_constraint": null
      },
      "weights_biases": [
         [
            [
               [
                  [
                     -0.14452864229679108,
                     -0.0043962798081338406,
                     1.0533798933029175,
                     0.5065957903862,
                     0.6575727462768555
                  ]
               ],
               [
                  [
                     0.1328643262386322,
                     -0.5624947547912598,
                     -0.16741064190864563,
                     -1.092848777770996,
                     -0.7345394492149353
                  ]
               ]
            ],
            [
               [
                  [
                     -1.1212527751922607,
                     -0.10825908184051514,
                     0.1505221277475357,
                     -0.6357152462005615,
                     0.8654425740242004
                  ]
               ],
               [
                  [
                     1.1289091110229492,
                     -0.5823800563812256,
                     -1.184464931488037,
                     1.0484470129013062,
                     -0.6917467713356018
                  ]
               ]
            ]
         ],
         [
            -3.965012729167938e-05,
            -0.010043342597782612,
            0.12949712574481964,
            0.14854416251182556,
            -0.0777425467967987
         ]
      ]
   },
   {
      "config": {
         "name": "max_pooling2d_5",
         "trainable": true,
         "dtype": "float32",
         "pool_size": [
            2,
            2
         ],
         "padding": "valid",
         "strides": [
            2,
            2
         ],
         "data_format": "channels_last"
      },
      "weights_biases": []
   },
   {
      "config": {
         "name": "flatten_5",
         "trainable": true,
         "dtype": "float32",
         "data_format": "channels_last"
      },
      "weights_biases": []
   },
   {
      "config": {
         "name": "dense_10",
         "trainable": true,
         "dtype": "float32",
         "units": 8,
         "activation": "relu",
         "use_bias": true,
         "kernel_initializer": {
            "class_name": "HeUniform",
            "config": {
               "seed": null
            }
         },
         "bias_initializer": {
            "class_name": "Zeros",
            "config": {}
         },
         "kernel_regularizer": null,
         "bias_regularizer": null,
         "activity_regularizer": null,
         "kernel_constraint": null,
         "bias_constraint": null
      },
      "weights_biases": [
         [
            [
               0.016123738139867783,
               -0.023863330483436584,
               0.009180258959531784,
               -0.006232555489987135,
               -0.013878234662115574,
               -0.005836197175085545,
               -0.003912847023457289,
               -0.00764181325212121
            ],
            [
               -0.019071221351623535,
               0.013215336948633194,
               0.020801037549972534,
               0.018382616341114044,
               0.011704780161380768,
               -0.015978703275322914,
               -0.014241456985473633,
               -0.01915554702281952
            ],
            [
               -0.004018526989966631,
               -2.473592758178711e-05,
               -0.019032958894968033,
               0.014549054205417633,
               -0.018268674612045288,
               -0.01487052347511053,
               -0.01360080111771822,
               -0.0038865164387971163
            ],
            [
               0.0030446802265942097,
               -0.0032928604632616043,
               0.020283106714487076,
               0.011894945055246353,
               0.00012626685202121735,
               -0.022305181249976158,
               0.0198465958237648,
               -0.013699501752853394
            ],
            [
               9.278561628889292e-05,
               -0.010058254934847355,
               -0.02098693698644638,
               -0.0012530728708952665,
               0.008908282965421677,
               0.001000730786472559,
               0.0014403777895495296,
               0.004103703889995813
            ],
            [
               -0.00014525462756864727,
               0.011013992130756378,
               -0.022369718179106712,
               -0.02309286966919899,
               -0.01830456033349037,
               -0.003964641131460667,
               0.008054831065237522,
               0.003920028451830149
            ],
            [
               -0.001411212608218193,
               0.0174952931702137,
               0.007282741367816925,
               0.008809082210063934,
               0.019899465143680573,
               0.02160394936800003,
               -0.019503535702824593,
               0.018952615559101105
            ],
            [
               -0.011063097976148129,
               0.011851832270622253,
               0.00041439197957515717,
               0.00777086615562439,
               0.011358238756656647,
               0.012384403496980667,
               -0.028461504727602005,
               -0.001982258865609765
            ],
            [
               -0.016920235008001328,
               0.017292939126491547,
               0.0032533742487430573,
               0.010190449655056,
               -0.0138964569196105,
               -0.015479249879717827,
               0.010418993420898914,
               -0.008728685788810253
            ],
            [
               0.0006309037562459707,
               0.007101734634488821,
               -0.004591523669660091,
               -0.019578374922275543,
               -0.0024771529715508223,
               -0.008526889607310295,
               -0.013347656466066837,
               0.0161293875426054
            ],
            [
               0.0020496684592217207,
               -0.00033379936940036714,
               0.00697574345394969,
               0.01619957573711872,
               0.015655362978577614,
               -0.023250550031661987,
               -0.020713049918413162,
               -0.0142645463347435
            ],
            [
               0.011551521718502045,
               -0.0014102384448051453,
               -0.021662522107362747,
               0.012315638363361359,
               0.0061834026128053665,
               -0.014426222071051598,
               -0.008622696623206139,
               -0.00034797191619873047
            ],
            [
               0.02375674806535244,
               0.014378417283296585,
               -0.004004407674074173,
               0.00012429244816303253,
               0.0197397843003273,
               0.021957583725452423,
               -0.02197515033185482,
               -0.01706150732934475
            ],
            [
               0.007900229655206203,
               -0.016707971692085266,
               0.022017285227775574,
               -0.019620530307292938,
               0.00596962682902813,
               0.009132198989391327,
               -0.020948410034179688,
               0.010189692489802837
            ],
            [
               -0.0032577523961663246,
               -0.01642887108027935,
               -0.016411958262324333,
               0.001667739124968648,
               -0.008607350289821625,
               0.003468852024525404,
               0.014643152244389057,
               -0.010397447273135185
            ],
            [
               0.010505796410143375,
               -0.00864437036216259,
               -0.006217592861503363,
               0.013071325607597828,
               0.001848998130299151,
               -0.013435755856335163,
               -0.00573807954788208,
               0.016811810433864594
            ],
            [
               0.0026980414986610413,
               -0.017166420817375183,
               -0.020195603370666504,
               0.015353456139564514,
               -0.0019498895853757858,
               0.008865244686603546,
               -0.0026664994657039642,
               0.0110553577542305
            ],
            [
               -0.0010511204600334167,
               -0.011951539665460587,
               -0.015132644213736057,
               0.005687290802598,
               0.019869517534971237,
               0.012484319508075714,
               -0.013080700300633907,
               3.961595575674437e-05
            ],
            [
               0.02283928170800209,
               -0.01288337167352438,
               0.01571640372276306,
               0.006617316976189613,
               0.02180315926671028,
               0.010926980525255203,
               -0.015255826525390148,
               -0.010794922709465027
            ],
            [
               0.028103556483983994,
               -0.02494690753519535,
               0.013600936159491539,
               -0.00112016755156219,
               0.006672053597867489,
               -0.008431402035057545,
               0.01489765290170908,
               -0.0093263890594244
            ],
            [
               -0.012347322888672352,
               -0.017790567129850388,
               -0.01725224405527115,
               -0.014735017903149128,
               0.003012600354850292,
               -0.0003175953752361238,
               -0.016710471361875534,
               0.018955979496240616
            ],
            [
               0.0064074210822582245,
               0.021368708461523056,
               -0.012405782006680965,
               -0.02074749767780304,
               -0.008103840984404087,
               -0.006544014438986778,
               -0.0006551612168550491,
               -0.006544787436723709
            ],
            [
               0.005518713966012001,
               -0.0028858575969934464,
               0.00886116549372673,
               -0.01647089049220085,
               -0.009480154141783714,
               0.018194641917943954,
               -0.001600354677066207,
               -0.002317352918908
            ],
            [
               0.004949373658746481,
               0.02154073864221573,
               0.0007692668586969376,
               0.014629960060119629,
               -0.006186928600072861,
               -0.020866774022579193,
               0.022671125829219818,
               -0.022562861442565918
            ],
            [
               0.031393617391586304,
               -0.01009244192391634,
               -0.02569626085460186,
               0.016408303752541542,
               0.013997570611536503,
               -0.026254134252667427,
               0.02150367759168148,
               0.01578148454427719
            ],
            [
               0.003302581375464797,
               -0.02073255553841591,
               0.014151534996926785,
               -0.006375450175255537,
               0.008554094471037388,
               0.0026609639171510935,
               0.00013030284026172012,
               -0.011871455237269402
            ],
            [
               -0.0035609006881713867,
               -0.0029858164489269257,
               0.011485517024993896,
               0.02146873250603676,
               0.015041906386613846,
               0.020463235676288605,
               -0.018505902960896492,
               0.01887929067015648
            ],
            [
               0.02688857726752758,
               -0.005398714914917946,
               -0.01873372308909893,
               0.009560927748680115,
               -0.0023024436086416245,
               -0.02117203176021576,
               0.0016633864725008607,
               -0.006597563158720732
            ],
            [
               -0.0020439540967345238,
               -0.005702493712306023,
               0.017095793038606644,
               0.004219071939587593,
               0.019223354756832123,
               -0.021172037348151207,
               -0.0013621876714751124,
               -0.01249622367322445
            ],
            [
               -0.007427311968058348,
               -0.01402211282402277,
               -0.0033054067753255367,
               -0.00347453192807734,
               -0.01388544775545597,
               -0.025250347331166267,
               0.012553098611533642,
               0.023367540910840034
            ],
            [
               0.010552403517067432,
               -0.0014433262404054403,
               -0.011681731790304184,
               -0.023214658722281456,
               -0.0006031633238308132,
               -0.025384362787008286,
               -0.017548320814967155,
               0.0037332652136683464
            ],
            [
               0.00923212617635727,
               0.007467549294233322,
               0.014299154281616211,
               0.020555343478918076,
               0.020056940615177155,
               -0.00921736378222704,
               -0.01431877538561821,
               -0.001311013475060463
            ],
            [
               -0.009006642736494541,
               0.01058979332447052,
               -0.02270420640707016,
               0.006726352497935295,
               -0.019915685057640076,
               -0.014317301101982594,
               -0.0009315347415395081,
               -0.011576958000659943
            ],
            [
               -0.0013465528609231114,
               -0.005730645731091499,
               0.020443987101316452,
               0.018734369426965714,
               0.0022641271352767944,
               -0.014862899668514729,
               -0.00508836330845952,
               -0.013676349073648453
            ],
            [
               0.028714057058095932,
               -0.01721840910613537,
               -0.023098163306713104,
               -0.02336597628891468,
               -0.014614630490541458,
               -0.00158559693954885,
               0.008768103085458279,
               -0.0015434991801157594
            ],
            [
               -0.011639240197837353,
               0.011300783604383469,
               -0.004393985960632563,
               -0.010297044180333614,
               -0.0023360825143754482,
               0.005787148140370846,
               0.010772663168609142,
               0.014883874915540218
            ],
            [
               -0.007451791316270828,
               0.01108407974243164,
               0.01155904307961464,
               0.015122048556804657,
               0.0038154590874910355,
               -0.004700019955635071,
               0.01916695013642311,
               -0.020259873941540718
            ],
            [
               -0.012307531200349331,
               0.014297984540462494,
               0.005295280367136002,
               -0.014402906410396099,
               0.002890346571803093,
               -0.004884408786892891,
               -0.03349122777581215,
               -0.0034553809091448784
            ],
            [
               -0.010975159704685211,
               0.014131762087345123,
               -0.007796824909746647,
               -0.010296950116753578,
               -0.02088235691189766,
               0.015559878200292587,
               -0.009136298671364784,
               0.0013722850708290935
            ],
            [
               0.0045969136990606785,
               -0.0021976297721266747,
               -0.0011797136394307017,
               -0.013487325981259346,
               0.011285778135061264,
               -0.010817968286573887,
               0.0007115782354958355,
               0.008938107639551163
            ],
            [
               -0.022051144391298294,
               -0.024215426295995712,
               -0.0008183027966879308,
               -0.014327668584883213,
               0.004089628346264362,
               -0.01763381063938141,
               0.015169872902333736,
               0.009157383814454079
            ],
            [
               0.002433689311146736,
               0.002170175313949585,
               0.010605521500110626,
               0.013014443218708038,
               0.009127311408519745,
               -0.016911111772060394,
               0.02051962912082672,
               -0.011448152363300323
            ],
            [
               0.0032507290598005056,
               0.02257068082690239,
               -0.008001286536455154,
               0.003826521337032318,
               -0.01332353800535202,
               -0.012498857453465462,
               -0.021639013662934303,
               0.014449156820774078
            ],
            [
               0.021038861945271492,
               0.013880077749490738,
               0.00851314514875412,
               -0.014768741093575954,
               -0.0012771710753440857,
               -0.015512696467339993,
               -0.013102076016366482,
               -0.004272684920579195
            ],
            [
               0.003556131152436137,
               -0.022944260388612747,
               -0.01348397321999073,
               -0.02293952740728855,
               -0.02516109310090542,
               0.012812281958758831,
               0.013032308779656887,
               -0.01106654666364193
            ],
            [
               -0.002504809061065316,
               -0.017706604674458504,
               0.009570114314556122,
               0.010622474364936352,
               0.0044784885831177235,
               0.009020981378853321,
               -0.02175404131412506,
               -0.011576289311051369
            ],
            [
               -0.016478024423122406,
               -0.022447999566793442,
               0.015671011060476303,
               0.009191524237394333,
               -0.014482047408819199,
               0.004482211545109749,
               -0.0007637552917003632,
               -0.011568875052034855
            ],
            [
               0.008580378256738186,
               0.020883232355117798,
               -0.0014432929456233978,
               -0.021643294021487236,
               -0.00045426376163959503,
               -0.0010219328105449677,
               -0.0002887248119805008,
               0.00017697647854220122
            ],
            [
               -0.012025877833366394,
               -0.020448844879865646,
               0.0043367743492126465,
               -0.013435815460979939,
               0.02127285674214363,
               -0.01888239197432995,
               0.00441708555445075,
               0.013512684963643551
            ],
            [
               0.014503633603453636,
               -0.007893022149801254,
               -0.016840752214193344,
               -0.0057668741792440414,
               0.009352516382932663,
               0.0025839933659881353,
               -0.01912524737417698,
               0.011072086170315742
            ],
            [
               -0.012724165804684162,
               -0.0206456296145916,
               -0.02385833114385605,
               0.0064044832251966,
               0.005796487908810377,
               -0.001504371757619083,
               -0.007146412506699562,
               0.012253198772668839
            ],
            [
               0.007911654189229012,
               0.013940740376710892,
               0.004360640421509743,
               0.003795996308326721,
               -0.015216166153550148,
               0.02170519158244133,
               -0.008690123446285725,
               0.007858695462346077
            ],
            [
               -0.005045616067945957,
               0.020967494696378708,
               0.011838648468255997,
               -0.01866542547941208,
               0.008046802133321762,
               0.012250959873199463,
               -0.03212381526827812,
               -0.020726781338453293
            ],
            [
               0.004667888395488262,
               -0.007489047013223171,
               0.018462318927049637,
               0.016057707369327545,
               0.016501232981681824,
               0.012667801231145859,
               0.0015015748795121908,
               -0.028111718595027924
            ],
            [
               -0.009293541312217712,
               -0.005627510137856007,
               -0.011661818251013756,
               0.009556206874549389,
               -0.0008798659546300769,
               -0.016083482652902603,
               0.01662757806479931,
               0.01061154529452324
            ],
            [
               0.02278841659426689,
               0.01228789146989584,
               0.001936195301823318,
               0.0013983293902128935,
               0.013313558883965015,
               -0.027243606746196747,
               0.003070499049499631,
               -0.004881230648607016
            ],
            [
               -0.017793115228414536,
               -0.008518884889781475,
               -0.013843770138919353,
               -0.012799447402358055,
               0.022490501403808594,
               0.014030978083610535,
               -0.020393671467900276,
               0.0033944789320230484
            ],
            [
               -0.001953756669536233,
               -0.018260225653648376,
               0.019558247178792953,
               -0.012916519306600094,
               0.01839536800980568,
               0.007984766736626625,
               -0.022074593231081963,
               0.009918104857206345
            ],
            [
               -0.003248912049457431,
               -0.0062252189964056015,
               -0.006192060187458992,
               0.018619202077388763,
               0.005917435511946678,
               -0.018628530204296112,
               -0.0036397206131368876,
               -0.008327069692313671
            ],
            [
               0.003435984719544649,
               -0.022075282409787178,
               -0.0015000122366473079,
               -0.015155290253460407,
               0.0005084997392259538,
               0.004901051986962557,
               0.0006129901739768684,
               -0.004405882675200701
            ],
            [
               -0.013838586397469044,
               0.010844714939594269,
               0.008314628154039383,
               -0.013065085746347904,
               0.010760679841041565,
               0.006408988498151302,
               -0.021683983504772186,
               -0.002015270758420229
            ],
            [
               0.011257875710725784,
               0.011463921517133713,
               0.014753859490156174,
               -0.013498502783477306,
               -0.01888512261211872,
               -0.012585284188389778,
               -0.0008364114910364151,
               0.021936483681201935
            ],
            [
               0.01467911247164011,
               -0.0036006439477205276,
               -0.00011904723942279816,
               -0.011551142670214176,
               -0.0024250708520412445,
               3.541633486747742e-05,
               -0.00011435001215431839,
               0.0028870990499854088
            ],
            [
               0.006666022818535566,
               -0.0031685419380664825,
               -0.012372982688248158,
               0.00298864021897316,
               -0.007129643112421036,
               0.021040357649326324,
               -0.022919852286577225,
               -0.004549444653093815
            ],
            [
               0.02230890840291977,
               0.003303521778434515,
               -0.0086173415184021,
               -0.00817331112921238,
               0.006358220241963863,
               -0.01937760040163994,
               0.008297537453472614,
               0.01605588011443615
            ],
            [
               0.018221452832221985,
               0.008377958089113235,
               -0.0075579676777124405,
               -0.0002707777020987123,
               0.002324140165001154,
               -0.011156215332448483,
               -0.003140507498756051,
               -0.009782660752534866
            ],
            [
               -0.009679000824689865,
               0.012221720069646835,
               0.020573902875185013,
               0.011860955506563187,
               -0.008083670400083065,
               -1.0501593351364136e-05,
               0.00031488388776779175,
               0.018273551017045975
            ],
            [
               0.003253668313845992,
               -0.0157428290694952,
               0.016040317714214325,
               0.0019265860319137573,
               -0.009095101617276669,
               -0.014783469960093498,
               -0.021580956876277924,
               -0.0093454048037529
            ],
            [
               0.02343466877937317,
               -0.0014178231358528137,
               -0.011683410964906216,
               0.020082946866750717,
               -0.019507158547639847,
               0.004929086193442345,
               0.014810112304985523,
               -0.004372878931462765
            ],
            [
               0.01216808333992958,
               0.01925507001578808,
               -0.022373110055923462,
               -0.025038721039891243,
               -0.011586170643568039,
               -0.020009979605674744,
               -0.01740754209458828,
               0.0032093541231006384
            ],
            [
               -0.008112374693155289,
               -0.019882511347532272,
               -0.0005125103052705526,
               -0.01884957030415535,
               -0.018937118351459503,
               -0.015073762275278568,
               0.004613806493580341,
               -0.01852066069841385
            ],
            [
               0.007323490455746651,
               -0.015109214931726456,
               -0.009488609619438648,
               0.015873026102781296,
               0.020129580050706863,
               -0.0047410354018211365,
               0.019054073840379715,
               -0.021257832646369934
            ],
            [
               0.017349006608128548,
               -0.016757231205701828,
               0.014636572450399399,
               0.02062370255589485,
               -0.01967293955385685,
               -0.011789458803832531,
               -0.01044739130884409,
               0.0006607150426134467
            ],
            [
               -0.010960733518004417,
               0.001171128824353218,
               -0.020289070904254913,
               0.013163264840841293,
               0.016874823719263077,
               0.010008301585912704,
               -0.007254335563629866,
               0.003570684464648366
            ],
            [
               0.025881797075271606,
               -0.015695348381996155,
               -0.012749315239489079,
               0.01414560154080391,
               -0.01810048706829548,
               -0.026403144001960754,
               -0.0145787438377738,
               -0.010243242606520653
            ],
            [
               -0.0010282486910000443,
               -0.004302231594920158,
               -0.017268860712647438,
               -0.005613295827060938,
               -0.023515600711107254,
               -0.015062334947288036,
               0.0081118019297719,
               -0.012387324124574661
            ],
            [
               0.00955883413553238,
               -0.00866581778973341,
               0.02210954576730728,
               -0.009324053302407265,
               -0.006108202040195465,
               0.006754668429493904,
               0.012452144175767899,
               -0.011274346150457859
            ],
            [
               0.030964955687522888,
               -0.0001013297587633133,
               0.0025027040392160416,
               0.020884357392787933,
               0.01710326597094536,
               -0.011318876408040524,
               0.004469407722353935,
               -0.020713526755571365
            ],
            [
               0.0051275803707540035,
               -0.004179608076810837,
               -0.014642234891653061,
               0.019061025232076645,
               -0.01026496198028326,
               -0.020740142092108727,
               0.003977645188570023,
               0.0027662934735417366
            ],
            [
               0.00616783881559968,
               0.00619752099737525,
               -0.02114505134522915,
               -0.008836796507239342,
               -0.018535198643803596,
               0.0004458751354832202,
               -0.003988929092884064,
               0.02124498225748539
            ],
            [
               0.0058292243629693985,
               0.010696060955524445,
               -0.013227814808487892,
               -0.011908228509128094,
               -0.012124008499085903,
               -0.0027797201182693243,
               -0.01868395507335663,
               -0.01595163904130459
            ],
            [
               0.021718092262744904,
               -0.015546872280538082,
               -0.008554867468774319,
               -0.010008977726101875,
               -0.004236118867993355,
               0.013305995613336563,
               -0.010531745851039886,
               0.015134565532207489
            ],
            [
               0.03077074885368347,
               -0.0070861466228961945,
               0.004265528172254562,
               0.010828390717506409,
               0.005028875544667244,
               0.022362153977155685,
               -0.02440670132637024,
               -0.004878188017755747
            ],
            [
               0.02083474211394787,
               0.012053120881319046,
               -0.00932241603732109,
               0.0009591467678546906,
               0.005448790267109871,
               0.006261168047785759,
               0.020209774374961853,
               0.010312661528587341
            ],
            [
               -0.005940556060522795,
               -0.007331755943596363,
               -0.01659119501709938,
               -0.011831709183752537,
               0.0032677443232387304,
               -0.00825416762381792,
               -0.005435281433165073,
               0.008910657837986946
            ],
            [
               0.01744796708226204,
               0.018837526440620422,
               -0.008011125028133392,
               0.01613817922770977,
               0.00614580512046814,
               0.0022953508887439966,
               -0.005690275691449642,
               0.008287890814244747
            ],
            [
               -0.013967093080282211,
               0.01096268743276596,
               -0.022794578224420547,
               0.016487084329128265,
               0.018837105482816696,
               0.008470013737678528,
               0.010474130511283875,
               0.016273371875286102
            ],
            [
               0.005480431020259857,
               -0.0030679628252983093,
               0.011686451733112335,
               0.00058719702064991,
               0.01033797487616539,
               -0.003062281757593155,
               -0.014097682200372219,
               -0.018935630097985268
            ],
            [
               0.006482623051851988,
               0.0009398963302373886,
               -0.011475075036287308,
               -0.005744380876421928,
               -0.014857159927487373,
               -0.017195720225572586,
               0.011406627483665943,
               0.00953277200460434
            ],
            [
               0.009869661182165146,
               0.017089975997805595,
               -0.01943676918745041,
               0.002405947307124734,
               -0.0008713275892660022,
               0.0058128684759140015,
               -0.020162029191851616,
               0.02659616433084011
            ],
            [
               -0.01155700720846653,
               -0.015362233854830265,
               0.009794827550649643,
               0.0167947169393301,
               -0.020123818889260292,
               -0.023068822920322418,
               -0.0182710699737072,
               0.009491952136158943
            ],
            [
               0.0025984030216932297,
               0.010391686111688614,
               0.02201513573527336,
               -0.02112664096057415,
               -0.008636250160634518,
               0.013666100800037384,
               0.01913601905107498,
               -0.015925798565149307
            ],
            [
               0.017115769907832146,
               -0.014764828607439995,
               0.006366867572069168,
               -0.015977293252944946,
               0.015387218445539474,
               -0.021642325446009636,
               -0.010589529760181904,
               0.01241936907172203
            ],
            [
               0.00329296151176095,
               -0.011400662362575531,
               0.002829216420650482,
               -0.007608828134834766,
               0.002008643001317978,
               -0.02254144474864006,
               0.005512206349521875,
               0.006016854662448168
            ],
            [
               0.02850440889596939,
               -0.004086543805897236,
               -0.012617983855307102,
               -0.008612681180238724,
               -0.004422327037900686,
               -0.025804314762353897,
               -0.016716448590159416,
               0.024106385186314583
            ],
            [
               -0.014876564033329487,
               -0.005122106522321701,
               0.007561905775219202,
               -0.023120364174246788,
               0.010460478253662586,
               -0.008872478269040585,
               -0.010276303626596928,
               -0.004730840679258108
            ],
            [
               -0.02144918218255043,
               0.013590801507234573,
               -0.015694789588451385,
               0.0018714889883995056,
               -0.0007740277796983719,
               0.02000533789396286,
               -0.01659710891544819,
               0.009846966713666916
            ],
            [
               0.008564903400838375,
               0.015700586140155792,
               -0.012336814776062965,
               -0.02028355374932289,
               -0.004428094252943993,
               -0.018877075985074043,
               0.0061658346094191074,
               -0.0292067751288414
            ],
            [
               0.016108859330415726,
               -0.008963888511061668,
               0.004912735894322395,
               -0.016857609152793884,
               -0.0035740043967962265,
               0.016101069748401642,
               -0.01293615810573101,
               0.01061122678220272
            ],
            [
               -0.010619107633829117,
               -0.0014178582932800055,
               0.008478708565235138,
               -0.026410246267914772,
               -0.0005231768591329455,
               -0.006428195163607597,
               -0.009177143685519695,
               0.02128562517464161
            ],
            [
               -0.022441573441028595,
               -0.02394064888358116,
               -0.025557255372405052,
               -0.001880384050309658,
               -0.002949876245111227,
               -0.027525469660758972,
               -0.016078393906354904,
               0.020238831639289856
            ],
            [
               -0.00030920282006263733,
               -0.016538143157958984,
               0.01717309281229973,
               -0.015841705724596977,
               -0.021005205810070038,
               -0.009002928622066975,
               0.010752391070127487,
               -0.0027007944881916046
            ],
            [
               0.021689554676413536,
               0.01814994215965271,
               0.0019188374280929565,
               -0.001002773642539978,
               -0.020727459341287613,
               0.014478564262390137,
               -0.035332728177309036,
               -0.01722799986600876
            ],
            [
               0.021074360236525536,
               0.004994064569473267,
               -0.012410346418619156,
               0.013403322547674179,
               -0.012123876251280308,
               0.007878435775637627,
               -0.012610292062163353,
               -0.018252743408083916
            ],
            [
               -0.010949226096272469,
               0.00022219355741981417,
               0.01414210069924593,
               0.015232356265187263,
               -0.002300784457474947,
               -0.026634756475687027,
               0.0014216009294614196,
               0.03039243258535862
            ],
            [
               -0.01686091348528862,
               0.0162121020257473,
               -0.023615140467882156,
               0.015320897102355957,
               -0.014240119606256485,
               -0.008418445475399494,
               -0.00953302625566721,
               -0.004297303967177868
            ],
            [
               -0.019401056692004204,
               0.014533568173646927,
               -0.0015023835003376007,
               -0.00306861475110054,
               -0.019806426018476486,
               -0.021086610853672028,
               -0.01141386292874813,
               -0.019833246245980263
            ],
            [
               0.031547944992780685,
               0.018755372613668442,
               0.0015353579074144363,
               0.005331045016646385,
               -0.011058501899242401,
               0.01146218553185463,
               -0.0034527527168393135,
               0.010591212660074234
            ],
            [
               0.020279953256249428,
               -0.007695592939853668,
               0.0034412071108818054,
               0.007865497842431068,
               0.020214326679706573,
               -0.015316326171159744,
               -0.014073073863983154,
               0.005483137909322977
            ],
            [
               -0.0006372437928803265,
               0.00578773207962513,
               0.01143600419163704,
               -0.024344824254512787,
               -0.019627729430794716,
               -0.0012950240634381771,
               0.023616591468453407,
               -0.010441156104207039
            ],
            [
               0.002809239085763693,
               -0.008130221627652645,
               -0.0063197980634868145,
               0.0069328793324530125,
               -0.02574150823056698,
               0.013255265541374683,
               0.012196867726743221,
               -0.015873702242970467
            ],
            [
               -0.021308032795786858,
               0.01392338052392006,
               -0.020559506490826607,
               -0.012216267175972462,
               -0.013477766886353493,
               0.02110607549548149,
               0.02061435952782631,
               0.006354270502924919
            ],
            [
               0.02079887129366398,
               -0.02245888113975525,
               0.003094477578997612,
               -0.017978956922888756,
               0.0009688977152109146,
               0.008213186636567116,
               0.001530181267298758,
               -0.004890038166195154
            ],
            [
               0.011250732466578484,
               0.00125933438539505,
               -0.011853327043354511,
               0.0074508171528577805,
               -0.02009769156575203,
               -0.002801770344376564,
               -0.016184847801923752,
               -0.016528645530343056
            ],
            [
               -0.00825481116771698,
               0.011080441065132618,
               -0.02172308973968029,
               -0.01374601386487484,
               -0.016984956339001656,
               -0.026780307292938232,
               0.008354499004781246,
               0.02910514734685421
            ],
            [
               0.018575213849544525,
               0.012120000086724758,
               -0.009645388461649418,
               0.013412238098680973,
               -0.011324900202453136,
               0.014708777889609337,
               0.013276907615363598,
               -0.006438393611460924
            ],
            [
               0.012862738221883774,
               0.0003747846931219101,
               0.007791606709361076,
               -0.015978550538420677,
               -0.0001653134822845459,
               -0.012147839181125164,
               0.010500863194465637,
               -0.0010905228555202484
            ],
            [
               0.01395120844244957,
               -0.005467060953378677,
               0.007763007655739784,
               -0.018331818282604218,
               -0.0041323453187942505,
               0.017141640186309814,
               0.0016410198295488954,
               -0.019653625786304474
            ],
            [
               0.027197619900107384,
               -0.010769186541438103,
               -0.0026447605341672897,
               -0.013283409178256989,
               0.003940131515264511,
               -0.006328007206320763,
               0.01584392413496971,
               -0.00190854468382895
            ],
            [
               0.023259174078702927,
               -0.0028265221044421196,
               -0.002298308303579688,
               -0.005946572870016098,
               0.008560456335544586,
               0.007429453078657389,
               -0.00841508898884058,
               -0.0035019887145608664
            ],
            [
               0.0050728656351566315,
               0.005872869864106178,
               0.008169163018465042,
               -0.016342271119356155,
               0.016711605712771416,
               -0.026082534343004227,
               -0.015162785537540913,
               0.010809488594532013
            ],
            [
               -0.01632053032517433,
               -0.017686011269688606,
               -0.0019768793135881424,
               0.01306244358420372,
               -0.015327692031860352,
               0.004497570917010307,
               -0.021158995106816292,
               -0.020808449015021324
            ],
            [
               -0.008553393185138702,
               0.012386422604322433,
               -0.014632435515522957,
               -0.018408479169011116,
               -0.01146010123193264,
               -0.006521362811326981,
               0.0022901264019310474,
               0.0013996761990711093
            ],
            [
               0.023167356848716736,
               -0.008721437305212021,
               0.019481714814901352,
               0.015421602874994278,
               0.01341094821691513,
               0.016439490020275116,
               -0.0043694195337593555,
               -0.011654932051897049
            ],
            [
               -0.004617960657924414,
               0.016119061037898064,
               0.011546716094017029,
               -0.011810357682406902,
               -0.009037782438099384,
               -0.024935191497206688,
               0.011575433425605297,
               -0.0077234781347215176
            ],
            [
               -0.008555928245186806,
               -0.010613941587507725,
               -0.021067088469862938,
               0.015443140640854836,
               -0.02783099189400673,
               -0.024118024855852127,
               -0.019541077315807343,
               0.008202050812542439
            ],
            [
               0.018111437559127808,
               -0.016448326408863068,
               -0.021770566701889038,
               0.02196330949664116,
               -0.011442760936915874,
               -0.007959503680467606,
               0.004094323143362999,
               0.008698582649230957
            ],
            [
               0.004182118922472,
               0.022171612828969955,
               -0.003857225179672241,
               -0.020686322823166847,
               0.018257856369018555,
               -0.0028398744761943817,
               -0.009695501066744328,
               -0.029876573011279106
            ],
            [
               0.003993585240095854,
               -0.008086532354354858,
               0.013441070914268494,
               0.009456146508455276,
               -0.02259235829114914,
               -0.00472114235162735,
               -0.019826628267765045,
               0.004673470743000507
            ],
            [
               0.0016963320085778832,
               0.0167685654014349,
               -0.0031694448553025723,
               0.013275554403662682,
               0.006136323790997267,
               -0.020082581788301468,
               -0.012230361811816692,
               0.02319720946252346
            ],
            [
               0.0010066016111522913,
               -0.022546011954545975,
               -0.018667450174689293,
               0.009390111081302166,
               0.012309749610722065,
               -0.004968471825122833,
               -0.0188986174762249,
               -0.019746702164411545
            ],
            [
               0.0010854024440050125,
               0.022018209099769592,
               0.009740617126226425,
               -0.004074081778526306,
               0.002049805596470833,
               -0.004623087123036385,
               -0.008207587525248528,
               -0.013086135499179363
            ],
            [
               0.025063900277018547,
               0.02269640937447548,
               -0.013846724294126034,
               0.0006374455988407135,
               -0.005940860137343407,
               -0.0027946867048740387,
               0.001628372585400939,
               -0.029944924637675285
            ],
            [
               0.012723227962851524,
               -0.007944529876112938,
               0.005388926714658737,
               -0.006057729944586754,
               0.02199842408299446,
               0.01617284119129181,
               0.020481429994106293,
               -0.02743551880121231
            ],
            [
               0.0003434726095292717,
               0.005177984479814768,
               0.013977409340441227,
               -0.013197085820138454,
               -0.024147873744368553,
               0.011735132895410061,
               0.014976887963712215,
               -0.012127898633480072
            ],
            [
               0.0015536462888121605,
               0.008536644279956818,
               -0.016074087470769882,
               -0.018347064033150673,
               -0.008988525718450546,
               0.01505220029503107,
               0.004679366014897823,
               0.005354335997253656
            ],
            [
               0.014662835747003555,
               0.0026654209941625595,
               0.02021801471710205,
               0.010587330907583237,
               0.0023430995643138885,
               -0.014601916074752808,
               0.01703893020749092,
               0.016418520361185074
            ],
            [
               0.015368502587080002,
               0.0019175373017787933,
               -0.011735896579921246,
               0.015537850558757782,
               0.02003314718604088,
               0.007119469344615936,
               0.00770971504971385,
               -0.00887456163764
            ],
            [
               0.008351176977157593,
               0.010135501623153687,
               0.016895350068807602,
               -0.015176473185420036,
               -0.013073920272290707,
               0.019476111978292465,
               -0.014168847352266312,
               -0.018699264153838158
            ],
            [
               0.0013202429981902242,
               -0.01272598560899496,
               -0.010366600006818771,
               -0.01114161591976881,
               -0.028483619913458824,
               -0.023272130638360977,
               0.020925531163811684,
               0.0016882154159247875
            ],
            [
               0.00320430938154459,
               -0.02067079395055771,
               -0.01017009373754263,
               -0.012057614512741566,
               -0.010580242611467838,
               -0.007643307559192181,
               -0.013784228824079037,
               0.006794133689254522
            ],
            [
               0.007320992648601532,
               0.008358769118785858,
               0.019981134682893753,
               0.02089996263384819,
               0.006033260375261307,
               -0.002460470423102379,
               0.013028264045715332,
               0.017787542194128036
            ],
            [
               -0.0019107350381091237,
               0.017961766570806503,
               0.0166986882686615,
               0.00901072472333908,
               0.008275432512164116,
               0.005825290456414223,
               -0.002276646438986063,
               0.01535811647772789
            ],
            [
               0.001720232656225562,
               0.003965314477682114,
               -0.01419986505061388,
               -0.005752036347985268,
               0.01991201564669609,
               -0.016638265922665596,
               -0.012784397229552269,
               -0.019345752894878387
            ],
            [
               -0.004870423581451178,
               -0.0001496594923082739,
               0.014462866820394993,
               0.009556717239320278,
               0.014514550566673279,
               -0.013482256792485714,
               0.009596279822289944,
               0.005120437126606703
            ],
            [
               -0.005861976649612188,
               -0.0042906589806079865,
               0.001702227396890521,
               0.016150644049048424,
               0.01507950946688652,
               0.009793304838240147,
               0.008435814641416073,
               0.011935058981180191
            ],
            [
               0.008890099823474884,
               0.020537447184324265,
               -0.005830949172377586,
               -0.017594147473573685,
               0.010427631437778473,
               0.006391499191522598,
               -0.003454979509115219,
               -0.01773301139473915
            ],
            [
               0.007547179237008095,
               0.011736717075109482,
               -0.019948141649365425,
               -0.02050621621310711,
               0.019412033259868622,
               -0.014311190694570541,
               -0.02749321609735489,
               -0.016758739948272705
            ],
            [
               0.008077175356447697,
               0.003863248974084854,
               0.02097398042678833,
               -0.016235344111919403,
               -0.013255148194730282,
               -0.021539118140935898,
               0.02008659765124321,
               0.008130593225359917
            ],
            [
               0.006240557413548231,
               -0.004161234013736248,
               -0.0018155645811930299,
               -0.013336557894945145,
               -0.008423544466495514,
               0.01099140103906393,
               -0.0011826108675450087,
               0.02905258722603321
            ],
            [
               0.004776381887495518,
               0.005551276728510857,
               -0.010402793996036053,
               -0.012040284462273121,
               0.005370203405618668,
               -0.00313499360345304,
               -0.019675012677907944,
               -0.009105326607823372
            ],
            [
               -0.009254015050828457,
               0.004965372383594513,
               -0.014531420543789864,
               0.0008780527859926224,
               -0.0080408975481987,
               -0.021954983472824097,
               -0.016557123512029648,
               0.006850237026810646
            ],
            [
               -0.012776090763509274,
               -0.008325126022100449,
               0.0032011494040489197,
               -0.015887651592493057,
               0.01649334281682968,
               -0.012393223121762276,
               -0.0033367061987519264,
               -0.02051198109984398
            ],
            [
               -0.012815169990062714,
               0.00184684619307518,
               0.0013801492750644684,
               0.014553278684616089,
               0.011785648763179779,
               0.009002149105072021,
               0.015501025132834911,
               -0.023802500218153
            ],
            [
               0.015328695066273212,
               -0.018487585708498955,
               0.015155079774558544,
               -0.02280164323747158,
               -0.01273164339363575,
               -0.002426107181236148,
               0.005442553199827671,
               0.015389485284686089
            ],
            [
               -0.01395444292575121,
               0.002148861763998866,
               -0.009573576040565968,
               0.011678197421133518,
               -0.00276516517624259,
               -0.028339345008134842,
               0.009564588777720928,
               -0.015728864818811417
            ],
            [
               0.0046561099588871,
               0.004066258668899536,
               -0.01014715526252985,
               -0.009424279443919659,
               -0.01774492859840393,
               -0.021647673100233078,
               -0.021448692306876183,
               -0.007011190056800842
            ],
            [
               0.000464852259028703,
               -0.007757708430290222,
               0.022087879478931427,
               0.013872303068637848,
               0.02198208123445511,
               0.008824948221445084,
               -0.02804872952401638,
               0.005980974528938532
            ],
            [
               -0.006379458587616682,
               0.017589151859283447,
               -0.019773980602622032,
               0.010009322315454483,
               -0.015129776671528816,
               0.017326973378658295,
               -0.009891362860798836,
               -0.012630924582481384
            ],
            [
               0.004262804519385099,
               -0.016024436801671982,
               0.006517278496176004,
               -0.018477384001016617,
               -0.016545036807656288,
               -0.0026177605614066124,
               0.0034748625475913286,
               -0.0033902425784617662
            ],
            [
               -0.02257835865020752,
               -0.012800520285964012,
               -0.024273501709103584,
               -0.02736262045800686,
               -0.016629893332719803,
               -0.005343381315469742,
               0.001526176929473877,
               0.02130291238427162
            ],
            [
               0.015906933695077896,
               0.02197636291384697,
               0.014222495257854462,
               -0.007840218022465706,
               0.003433508798480034,
               0.022536005824804306,
               0.007760189473628998,
               0.0011500492691993713
            ],
            [
               0.028513675555586815,
               0.0059171803295612335,
               -0.016149016097187996,
               -0.014343075454235077,
               0.022356294095516205,
               -0.022047651931643486,
               -0.01227536704391241,
               -0.014197980053722858
            ],
            [
               -0.0076897297985851765,
               0.017503052949905396,
               -0.014042273163795471,
               0.01467529684305191,
               -0.01528257504105568,
               0.0025401003658771515,
               -0.0035835253074765205,
               -0.013503234833478928
            ],
            [
               -0.005799381528049707,
               -0.024985430762171745,
               -0.014350060373544693,
               -0.013975678943097591,
               -0.01192653551697731,
               -0.006422573700547218,
               0.00861011166125536,
               0.016601724550127983
            ],
            [
               0.0019489750266075134,
               -0.007582598365843296,
               -0.0006326397997327149,
               0.013094012625515461,
               -0.019434330984950066,
               -0.01290110033005476,
               -0.02524319663643837,
               0.012902423739433289
            ],
            [
               0.01524321734905243,
               -0.016063867136836052,
               -0.021224483847618103,
               0.019834749400615692,
               0.01392754539847374,
               -0.01705993339419365,
               0.009841803461313248,
               -0.0031507592648267746
            ],
            [
               0.022452672943472862,
               -0.015136823058128357,
               -0.012889106757938862,
               0.014794863760471344,
               0.019875802099704742,
               -0.006400052458047867,
               0.0038910657167434692,
               0.010547887533903122
            ],
            [
               0.01648801565170288,
               0.02069418504834175,
               0.020976997911930084,
               -0.01099605392664671,
               -0.018900135532021523,
               0.020924057811498642,
               -0.009848462417721748,
               0.009217451326549053
            ],
            [
               0.013738846406340599,
               0.014939740300178528,
               -0.014578827656805515,
               0.011023269966244698,
               0.0014858149224892259,
               -0.01047565508633852,
               0.006366904824972153,
               0.003498862264677882
            ],
            [
               -0.007099504582583904,
               0.005528563633561134,
               0.005840298254042864,
               -0.009652537293732166,
               0.005735151004046202,
               -0.021484673023223877,
               0.006112770177423954,
               -0.00619654031470418
            ],
            [
               -0.02253820188343525,
               0.010112501680850983,
               0.020703695714473724,
               -0.014168845489621162,
               0.014161217957735062,
               0.006176058202981949,
               -0.004660751670598984,
               0.0016280151903629303
            ],
            [
               0.014876789413392544,
               -0.015442516654729843,
               0.02041606605052948,
               -0.014945556409657001,
               -0.02227657102048397,
               -0.019003581255674362,
               -0.005809775087982416,
               -0.023282989859580994
            ],
            [
               0.016066499054431915,
               0.020802035927772522,
               -0.015131490305066109,
               -0.007003605365753174,
               0.008710142225027084,
               -0.016530977562069893,
               -0.016645297408103943,
               0.008677955716848373
            ],
            [
               -0.0009796225931495428,
               -0.0007292323280125856,
               0.013544240966439247,
               -0.006812616717070341,
               -0.019665049389004707,
               -0.010062378831207752,
               -0.01268742699176073,
               0.016980739310383797
            ],
            [
               -0.0017662416212260723,
               -0.014839433133602142,
               0.007791417185217142,
               -0.02210843749344349,
               -0.015199266374111176,
               0.0005454776110127568,
               0.004326768685132265,
               -0.015977371484041214
            ],
            [
               0.01416730135679245,
               0.018678244203329086,
               0.01172669604420662,
               0.015827279537916183,
               -0.012651829980313778,
               0.0052213724702596664,
               -0.006165120750665665,
               -0.01385983731597662
            ],
            [
               0.028358152136206627,
               -0.0026793405413627625,
               -0.018909689038991928,
               -0.01225820742547512,
               -0.021140974014997482,
               -0.013552854768931866,
               -0.0016331265214830637,
               -0.02298678830265999
            ],
            [
               -0.014838951639831066,
               -0.013562305830419064,
               0.008425472304224968,
               0.0058510322123765945,
               0.012764863669872284,
               -0.009246941655874252,
               0.005538044963032007,
               -0.003978252410888672
            ],
            [
               -0.0023738201707601547,
               0.010018990375101566,
               0.0032007903791964054,
               -0.028574904426932335,
               -0.0051030791364610195,
               0.011061581782996655,
               0.007803529500961304,
               0.019006533548235893
            ],
            [
               0.01420698780566454,
               0.0033878248650580645,
               0.014113275334239006,
               0.005832506809383631,
               0.0039517623372375965,
               -0.018644258379936218,
               -0.018777452409267426,
               0.022684592753648758
            ],
            [
               -0.0049795787781476974,
               -0.01724293828010559,
               -0.01703132875263691,
               0.021380793303251266,
               -0.021780023351311684,
               0.022501442581415176,
               -0.0013422463089227676,
               0.006509795784950256
            ],
            [
               -0.005925417877733707,
               -0.009508110582828522,
               -0.00994014274328947,
               -0.018610045313835144,
               0.007430501282215118,
               0.016718942672014236,
               -0.012503285892307758,
               -0.018094202503561974
            ],
            [
               -0.008732437156140804,
               -0.016258936375379562,
               0.009876057505607605,
               -0.006594834849238396,
               0.014569450169801712,
               -0.004005301743745804,
               0.004422524478286505,
               0.0033974102698266506
            ],
            [
               -0.0022844441700726748,
               0.005119616631418467,
               -0.022800026461482048,
               -0.005119334906339645,
               -0.01421880442649126,
               0.01516377180814743,
               -0.013734440319240093,
               0.017268305644392967
            ],
            [
               0.0007874463335610926,
               0.0037394848186522722,
               0.004002359230071306,
               -0.016559483483433723,
               0.01619766466319561,
               -0.025806505233049393,
               0.0050619812682271,
               -0.016500500962138176
            ],
            [
               -0.01858077198266983,
               0.00037422962486743927,
               -0.0012577082961797714,
               0.01733006164431572,
               0.014355309307575226,
               -0.006539111956954002,
               -0.01362485159188509,
               -0.009524358436465263
            ],
            [
               0.003947604913264513,
               -0.02263358049094677,
               0.0022129807621240616,
               0.01672552525997162,
               0.0012021157890558243,
               -0.021228021010756493,
               -0.012782786972820759,
               -0.0034178427886217833
            ],
            [
               0.021814370527863503,
               0.00901881605386734,
               -0.005542725324630737,
               0.020134303718805313,
               -0.009695291519165039,
               0.015711449086666107,
               0.010505382902920246,
               -0.0035186773166060448
            ],
            [
               0.008030638098716736,
               -0.0037800867576152086,
               0.013948338106274605,
               -0.0004442053323145956,
               -0.0013814446283504367,
               -0.009416195563971996,
               0.02190341241657734,
               0.0005242280312813818
            ],
            [
               -0.013144965283572674,
               0.0007701152935624123,
               -0.021113159134984016,
               -0.004790246021002531,
               0.007868335582315922,
               0.010600247420370579,
               -0.01963663101196289,
               0.021632976830005646
            ],
            [
               -0.0021168459206819534,
               -0.016549743711948395,
               -0.01713460683822632,
               0.020898789167404175,
               0.018560554832220078,
               0.009350180625915527,
               -0.01926250383257866,
               0.005788447335362434
            ],
            [
               -0.012782110832631588,
               0.010652568191289902,
               0.004424061626195908,
               -0.011041835881769657,
               -0.011255139485001564,
               0.019276175647974014,
               -0.02675497531890869,
               -0.011720631271600723
            ],
            [
               0.009931813925504684,
               0.01783255860209465,
               0.022030211985111237,
               -0.015284229069948196,
               1.547485589981079e-05,
               0.013762153685092926,
               0.008395497687160969,
               0.011216189712285995
            ],
            [
               0.017455030232667923,
               -0.01578722894191742,
               -0.016723114997148514,
               -0.015211752615869045,
               -0.019490400329232216,
               -0.0041250563226640224,
               -0.0008629155927337706,
               0.0040497020818293095
            ],
            [
               -0.013139442540705204,
               -0.011132264509797096,
               0.005044866818934679,
               -0.007581918966025114,
               -0.006201054900884628,
               -0.013666841201484203,
               -0.0039766388945281506,
               0.01005273312330246
            ],
            [
               -0.005781516432762146,
               -0.012360522523522377,
               -0.010753374546766281,
               0.013248562812805176,
               0.01515357568860054,
               -0.011724567972123623,
               0.022795584052801132,
               -0.01166448649019003
            ],
            [
               0.018796173855662346,
               0.01435503363609314,
               -0.004389423877000809,
               0.006671085953712463,
               0.011780079454183578,
               -0.016722042113542557,
               -0.02206890657544136,
               -0.002973445923998952
            ],
            [
               -0.009609915316104889,
               -0.021885810419917107,
               0.011939454823732376,
               0.0220109224319458,
               -0.00381491519510746,
               0.0004296600818634033,
               0.01624574512243271,
               -0.02446560189127922
            ],
            [
               -0.00839104875922203,
               -0.007544329855591059,
               0.013090057298541069,
               0.013065912760794163,
               -0.0134862856939435,
               -0.027035120874643326,
               -0.008299639448523521,
               0.028789563104510307
            ],
            [
               -0.0030360925011336803,
               0.019294217228889465,
               -0.02373148873448372,
               -0.0004181874683126807,
               -0.012832547537982464,
               -0.02766873687505722,
               -0.01666223257780075,
               -0.0011940255062654614
            ],
            [
               -0.005585629492998123,
               0.02222389727830887,
               0.020263809710741043,
               -0.005605664104223251,
               -0.01241237111389637,
               0.004092898219823837,
               0.01056867465376854,
               -0.009445836767554283
            ],
            [
               0.014283435419201851,
               -0.012883894145488739,
               0.018786393105983734,
               0.02036045491695404,
               0.014145083725452423,
               -0.011145473457872868,
               0.0014457616489380598,
               -0.02847021073102951
            ],
            [
               -0.0006649853894487023,
               0.004439910873770714,
               -0.0049072131514549255,
               -2.5441870093345642e-05,
               0.010423406958580017,
               0.009796392172574997,
               0.01989995688199997,
               -0.016825420781970024
            ],
            [
               -0.01185484230518341,
               0.009177998639643192,
               -0.00498066283762455,
               -0.02327856421470642,
               -0.008504312485456467,
               -0.0035347817465662956,
               -0.005290978588163853,
               0.013709006831049919
            ],
            [
               -0.013911495916545391,
               -0.01905389502644539,
               -0.016072934493422508,
               -0.004953387659043074,
               0.00024979893350973725,
               -0.005485035479068756,
               0.010559293441474438,
               0.014040105044841766
            ],
            [
               -0.007652362808585167,
               0.0049965716898441315,
               -0.015012580901384354,
               0.005462458357214928,
               0.015435725450515747,
               -5.116313695907593e-05,
               -0.0053045619279146194,
               -0.011874357238411903
            ],
            [
               0.02954878844320774,
               -0.013949431478977203,
               0.011947236955165863,
               0.011865846812725067,
               -0.0017406139522790909,
               -5.2848830819129944e-05,
               0.0004820507892873138,
               0.00841347686946392
            ],
            [
               0.013821948319673538,
               0.011733252555131912,
               -0.0008508730679750443,
               -0.0025157202035188675,
               0.008885703980922699,
               -0.017641736194491386,
               -0.02033461630344391,
               -0.01298979390412569
            ],
            [
               0.028008241206407547,
               -0.007062282878905535,
               0.0008890053723007441,
               -0.020098954439163208,
               -0.025922274217009544,
               -0.0007646075682714581,
               0.0036309354472905397,
               -0.011344565078616142
            ],
            [
               -0.01903170719742775,
               -0.012706040404736996,
               -0.0237723458558321,
               -0.0027075111865997314,
               -0.001590543775819242,
               0.012684081681072712,
               -0.00016375559789594263,
               -0.004812062252312899
            ],
            [
               -0.020723769441246986,
               -0.0030934326350688934,
               -0.00863828044384718,
               0.012956559658050537,
               -0.003223937004804611,
               0.011828847229480743,
               -0.004839655011892319,
               0.011286545544862747
            ],
            [
               -0.00637397263199091,
               -0.0035547148436307907,
               0.011608105152845383,
               -0.0019516535103321075,
               0.0089060477912426,
               -0.008474637754261494,
               0.005551184061914682,
               -0.007906904444098473
            ],
            [
               0.012403195723891258,
               0.007883496582508087,
               0.022616151720285416,
               -0.013275617733597755,
               0.017439529299736023,
               -0.00029980577528476715,
               0.01419008057564497,
               -0.0028013712726533413
            ],
            [
               0.01021619327366352,
               -0.011497692205011845,
               -0.011561756953597069,
               0.014540106058120728,
               0.014232107438147068,
               -0.004491762258112431,
               -0.007141906768083572,
               0.01809563674032688
            ],
            [
               0.0076823001727461815,
               0.016137856990098953,
               -0.001494449796155095,
               -0.014098971150815487,
               -0.006803931202739477,
               -0.009550188668072224,
               0.010049610398709774,
               -0.0043588061816990376
            ],
            [
               -0.01071461196988821,
               0.01667165756225586,
               -0.019159775227308273,
               -0.016791613772511482,
               -0.01142166554927826,
               -0.007903547026216984,
               -0.01072749588638544,
               -0.01270242128521204
            ],
            [
               0.029018664732575417,
               0.004295356571674347,
               -0.01777295023202896,
               -0.013093535788357258,
               0.0004343651235103607,
               0.006864132359623909,
               -0.01735013723373413,
               0.008825411088764668
            ],
            [
               0.020543398335576057,
               -0.021361730992794037,
               -0.016156964004039764,
               0.0020819026976823807,
               0.009320821613073349,
               0.018052570521831512,
               0.0035815569572150707,
               -0.007454165257513523
            ],
            [
               0.015354764647781849,
               -0.016089295968413353,
               -0.004841886460781097,
               0.002842504298314452,
               -0.005268375854939222,
               -0.006353553384542465,
               -0.00553656741976738,
               0.01103522814810276
            ],
            [
               0.0011116517707705498,
               -0.023123949766159058,
               0.010624978691339493,
               -0.012599705718457699,
               -0.0034388378262519836,
               0.004811934195458889,
               -0.024008139967918396,
               -0.0034633749164640903
            ],
            [
               0.016477536410093307,
               -0.01261311024427414,
               0.0017817001789808273,
               -0.015004342421889305,
               0.00616840273141861,
               0.015429604798555374,
               0.016215238720178604,
               0.013783242553472519
            ],
            [
               0.018866145983338356,
               -0.004211444407701492,
               -0.0078410180285573,
               -0.0008205454796552658,
               0.022357165813446045,
               -0.004973290488123894,
               -0.02508520521223545,
               -0.0006819495465606451
            ],
            [
               0.011332454159855843,
               0.017885081470012665,
               -0.018903633579611778,
               -0.02222495712339878,
               -0.01853647083044052,
               -0.01903805136680603,
               -0.013243048451840878,
               0.00809903722256422
            ],
            [
               0.025621555745601654,
               0.019317610189318657,
               -0.00361771322786808,
               0.0041365534998476505,
               -0.005314183887094259,
               -0.016669047996401787,
               -0.0006532900151796639,
               -0.013924447819590569
            ],
            [
               -0.02036510407924652,
               0.0004464383237063885,
               0.008224233984947205,
               -0.023623548448085785,
               -0.015818370506167412,
               0.01355789601802826,
               0.002441826043650508,
               0.012026123702526093
            ],
            [
               -0.021231504157185555,
               -0.008858395740389824,
               -0.003064800053834915,
               -0.0062463413923978806,
               0.012114815413951874,
               0.01199333742260933,
               -0.018428171053528786,
               -0.008475122042000294
            ],
            [
               0.030794575810432434,
               -0.013363448902964592,
               0.01348528265953064,
               0.006352465599775314,
               -0.02034575119614601,
               0.009421918541193008,
               -0.013071411289274693,
               -0.02605152130126953
            ],
            [
               0.026467448100447655,
               -0.003977116197347641,
               -0.008361881598830223,
               0.02259696274995804,
               0.008024998009204865,
               0.015188492834568024,
               -0.021366581320762634,
               -0.0039887335151433945
            ],
            [
               0.026514630764722824,
               0.0004790155217051506,
               -0.014276817440986633,
               0.0003813505463767797,
               0.009778633713722229,
               0.005431883502751589,
               -0.018677638843655586,
               0.027552777901291847
            ],
            [
               -0.0024731960147619247,
               0.016438886523246765,
               -0.021259885281324387,
               0.0030759628862142563,
               -0.027486905455589294,
               0.004327489994466305,
               -0.024478033185005188,
               0.002563545247539878
            ],
            [
               0.014028333127498627,
               0.005428805947303772,
               -0.0013628620654344559,
               -0.017165234312415123,
               0.0016414709389209747,
               0.011068817228078842,
               0.009740334004163742,
               0.000729760155081749
            ],
            [
               -0.01095613744109869,
               0.019398394972085953,
               0.00684821791946888,
               -0.004272095859050751,
               0.016214363276958466,
               -0.0017233435064554214,
               0.007064791861921549,
               0.006918123457580805
            ],
            [
               0.00027467519976198673,
               0.014864467084407806,
               0.009172104299068451,
               0.014314189553260803,
               0.01334286481142044,
               -0.01500694826245308,
               0.0037660016678273678,
               -0.013676702976226807
            ],
            [
               0.02204211801290512,
               -0.008260678499937057,
               -0.010585296899080276,
               -0.006969358306378126,
               0.00229421048425138,
               0.00012087144568795338,
               0.0005546395550481975,
               -0.00013895309530198574
            ],
            [
               0.006578057073056698,
               -0.012544852681457996,
               -0.022939639165997505,
               0.010694687254726887,
               -0.0025725173763930798,
               -0.013992558233439922,
               0.017173729836940765,
               0.011543422937393188
            ],
            [
               -0.020063504576683044,
               0.012552190572023392,
               0.007299663498997688,
               0.00992082804441452,
               0.002286430448293686,
               0.0027843862771987915,
               -0.005404271185398102,
               -0.01967966929078102
            ],
            [
               0.021724067628383636,
               -0.019614584743976593,
               0.00518405856564641,
               -0.005213302094489336,
               -0.008659695275127888,
               -0.02658606879413128,
               -0.020396191626787186,
               0.016739895567297935
            ],
            [
               0.026175029575824738,
               -0.0024595726281404495,
               0.0134439617395401,
               -0.004695193842053413,
               0.002952985465526581,
               -0.0010281242430210114,
               -0.004397436045110226,
               0.03192797675728798
            ],
            [
               0.024316133931279182,
               -0.01855638436973095,
               -0.02017676830291748,
               0.006496082060039043,
               -0.015061424113810062,
               -0.005005172453820705,
               0.002877580001950264,
               0.03380629047751427
            ],
            [
               -0.021694373339414597,
               0.01696646958589554,
               -0.02311013825237751,
               -0.013257359154522419,
               -0.02853192389011383,
               0.0039083948358893394,
               0.0024541362654417753,
               -0.012634176760911942
            ],
            [
               -0.014037121087312698,
               -0.0210952740162611,
               0.003813495859503746,
               0.012912411242723465,
               0.005635654553771019,
               -0.008333440870046616,
               -0.015027009882032871,
               0.021868519484996796
            ],
            [
               0.00909204687923193,
               0.005021531134843826,
               0.010971594601869583,
               -0.004790483042597771,
               -0.022431980818510056,
               -0.017022959887981415,
               -0.010879133827984333,
               -0.021444866433739662
            ],
            [
               -0.007441338151693344,
               -0.017372727394104004,
               0.008640218526124954,
               0.009011182934045792,
               -0.012760140933096409,
               0.0194154754281044,
               0.01522869523614645,
               -0.03032488003373146
            ],
            [
               -0.002335340017452836,
               0.0042453729547560215,
               -0.014595265500247478,
               -0.011778592132031918,
               0.01212134025990963,
               0.00239837309345603,
               -0.013184984214603901,
               0.02488691546022892
            ],
            [
               -0.016900260001420975,
               0.00022999505745247006,
               0.006440058816224337,
               -0.011828797869384289,
               -0.008344469591975212,
               -0.012632275931537151,
               -0.023949280381202698,
               0.02197132632136345
            ],
            [
               -0.016845399513840675,
               0.0004272386431694031,
               0.019592825323343277,
               -0.014020574279129505,
               -0.021863767877221107,
               -0.022244179621338844,
               0.021910768002271652,
               0.0031234119087457657
            ],
            [
               0.013335290364921093,
               0.010497655719518661,
               -0.010561078786849976,
               -0.01919274777173996,
               -0.0028060264885425568,
               0.020447637885808945,
               -0.027668965980410576,
               -0.010798614472150803
            ],
            [
               0.0038478001952171326,
               0.0022638272494077682,
               0.011266402900218964,
               0.013698171824216843,
               0.0014147013425827026,
               0.01397688314318657,
               -0.022034812718629837,
               -0.011914050206542015
            ],
            [
               -0.012076405808329582,
               0.014106825925409794,
               -0.018686026334762573,
               -0.02544747106730938,
               0.000323495885822922,
               -0.02519826404750347,
               0.0019550523720681667,
               -0.01326419785618782
            ],
            [
               -0.021785616874694824,
               0.008988525718450546,
               -0.01049781870096922,
               -0.027137216180562973,
               0.015293861739337444,
               0.0017783079529181123,
               0.0029677788261324167,
               0.022392697632312775
            ],
            [
               0.0006816927343606949,
               -0.015056131407618523,
               -0.02169550210237503,
               -0.019959615543484688,
               -0.00550655834376812,
               -0.01711837574839592,
               -0.006676129996776581,
               0.013239249587059021
            ],
            [
               0.024233905598521233,
               -0.022738071158528328,
               0.0031526051461696625,
               0.006377117708325386,
               -0.018063466995954514,
               -0.009879320859909058,
               -0.01241347473114729,
               -0.007611330132931471
            ],
            [
               -0.013124581426382065,
               -0.02186218462884426,
               0.017247270792722702,
               0.005544336512684822,
               0.01522531732916832,
               0.00746273435652256,
               -0.0022214839700609446,
               -0.01012821402400732
            ],
            [
               0.016345910727977753,
               -0.006618194747716188,
               -0.02236710861325264,
               -0.020053580403327942,
               -0.017975863069295883,
               -0.01829436793923378,
               -0.010227584280073643,
               0.0004917617770843208
            ],
            [
               0.007500778418034315,
               -0.00485077453777194,
               -0.01674487441778183,
               0.011556238867342472,
               -0.00597187876701355,
               -0.016740834340453148,
               -0.00757334940135479,
               -0.010660655796527863
            ],
            [
               -0.003130067139863968,
               -0.006128007546067238,
               0.00820690207183361,
               0.0037338752299547195,
               -0.006271565333008766,
               0.015545524656772614,
               -0.01714158244431019,
               -0.017067011445760727
            ],
            [
               0.011228508315980434,
               0.021901998668909073,
               -0.00986978318542242,
               0.0013373661786317825,
               -0.0032182522118091583,
               -0.008582486771047115,
               0.002471533603966236,
               -0.012767832726240158
            ],
            [
               0.020484307780861855,
               0.010925505310297012,
               -0.021573761478066444,
               -0.005338318645954132,
               -0.005690807476639748,
               -0.015279021114110947,
               -0.010419183410704136,
               -0.018607409670948982
            ],
            [
               8.620675362180918e-05,
               0.008936070837080479,
               -0.017328741028904915,
               0.006924038287252188,
               -0.027371501550078392,
               0.008398222737014294,
               0.02234612964093685,
               -0.01155654713511467
            ],
            [
               -0.015158827416598797,
               -0.013766039162874222,
               -0.01975015364587307,
               -0.016357233747839928,
               -0.027463551610708237,
               -0.02262093499302864,
               -0.01572107896208763,
               0.02095254510641098
            ],
            [
               0.001094261184334755,
               -0.005900334566831589,
               -0.0024822894483804703,
               0.007021382451057434,
               -0.0185849629342556,
               0.004367902874946594,
               0.021602332592010498,
               0.0016041435301303864
            ],
            [
               0.024239497259259224,
               -0.01991635374724865,
               -0.005595587193965912,
               -0.020866811275482178,
               -0.012266281992197037,
               -0.016910143196582794,
               -0.014436365105211735,
               -0.025534573942422867
            ],
            [
               0.023383766412734985,
               -0.014781821519136429,
               -0.01133421529084444,
               0.0005336124449968338,
               0.019442196935415268,
               0.016283690929412842,
               0.01640542596578598,
               0.0011362098157405853
            ],
            [
               -0.005326541606336832,
               -0.017550906166434288,
               -0.0032659373246133327,
               -0.028145957738161087,
               0.012080667540431023,
               -0.024022189900279045,
               -0.017091672867536545,
               0.01566326431930065
            ],
            [
               0.0067422157153487206,
               -0.02461351826786995,
               0.002276147250086069,
               -0.005820493679493666,
               0.014128617011010647,
               0.00969765055924654,
               -0.011234047822654247,
               0.003250886918976903
            ],
            [
               0.006103320047259331,
               -0.006017819046974182,
               0.0013216305524110794,
               0.016609862446784973,
               -0.0025037862360477448,
               -0.02041458711028099,
               -0.004713932052254677,
               -0.00018102675676345825
            ],
            [
               0.010336059145629406,
               0.013995412737131119,
               0.008042590692639351,
               -0.02080623060464859,
               0.004684990271925926,
               0.01735873892903328,
               -0.0028516226448118687,
               0.010962314903736115
            ],
            [
               0.0025926462840288877,
               0.012103185057640076,
               0.012441441416740417,
               0.020606670528650284,
               0.020870130509138107,
               -0.004645939916372299,
               -0.015905190259218216,
               0.011056123301386833
            ],
            [
               -0.005908595863729715,
               0.016086766496300697,
               0.012681103311479092,
               -0.0033336339984089136,
               0.016734881326556206,
               -0.013887540437281132,
               -0.01856922172009945,
               0.002497502136975527
            ],
            [
               -0.01913997158408165,
               0.013807203620672226,
               0.011537025682628155,
               -0.019450265914201736,
               -0.017307210713624954,
               -0.002562520792707801,
               -0.016361363232135773,
               0.009405329823493958
            ],
            [
               0.0015105623751878738,
               -0.008504291996359825,
               -0.016151197254657745,
               -0.0188597459346056,
               -0.0007859673351049423,
               0.021969005465507507,
               0.0027819648385047913,
               0.019318535923957825
            ],
            [
               -0.013260110281407833,
               -0.007944110780954361,
               0.01421031728386879,
               -0.014694709330797195,
               0.020801767706871033,
               0.003963610157370567,
               0.00668170303106308,
               -0.027428891509771347
            ],
            [
               0.0011968719772994518,
               0.008478876203298569,
               -0.002069089561700821,
               0.004247523844242096,
               -0.022232944145798683,
               0.017133641988039017,
               -0.019181840121746063,
               -0.014855775982141495
            ],
            [
               -0.012972716242074966,
               0.0007868530228734016,
               0.015338328666985035,
               -0.013467145152390003,
               -0.0010542203672230244,
               -0.0179118812084198,
               0.007642690557986498,
               -0.004962893668562174
            ],
            [
               -0.00421949801966548,
               -0.01620200276374817,
               0.0018604063661769032,
               -0.01728631928563118,
               -0.020672813057899475,
               -0.015159503556787968,
               -0.0021331089083105326,
               -0.006805412005633116
            ],
            [
               0.00013274699449539185,
               0.00964374840259552,
               -0.014772560447454453,
               0.022478368133306503,
               0.013492114841938019,
               0.006245415657758713,
               0.0065899379551410675,
               -0.008085145615041256
            ],
            [
               0.022297849878668785,
               0.00042024627327919006,
               0.0021076127886772156,
               -0.006995802745223045,
               0.00429445318877697,
               0.013906028121709824,
               -0.026551829650998116,
               -0.010223383083939552
            ],
            [
               -0.005188256036490202,
               0.018238313496112823,
               -0.017105529084801674,
               0.021726533770561218,
               0.0059609804302453995,
               -0.02182532101869583,
               0.01752360351383686,
               -0.02301621437072754
            ],
            [
               5.828911525895819e-05,
               0.018663840368390083,
               -0.017312781885266304,
               0.013201242312788963,
               0.006998166441917419,
               0.004708137828856707,
               -0.006820547394454479,
               0.018234604969620705
            ],
            [
               -0.009326192550361156,
               -0.018480531871318817,
               0.004308507312089205,
               -0.0256480909883976,
               -0.0071482243947684765,
               -0.018125947564840317,
               0.010204530321061611,
               0.02175305411219597
            ],
            [
               -0.01855670101940632,
               -0.010187272913753986,
               0.016647320240736008,
               -0.021887781098484993,
               0.014408789575099945,
               -0.022144194692373276,
               0.005812752991914749,
               -0.018038727343082428
            ],
            [
               0.02568059228360653,
               0.01337326318025589,
               0.017333075404167175,
               -0.006962558254599571,
               0.009161330759525299,
               -0.01619688607752323,
               -0.01885109581053257,
               -0.0026859825011342764
            ],
            [
               -0.013366688042879105,
               0.009462248533964157,
               -0.017793305218219757,
               -0.005099736154079437,
               -0.005706764757633209,
               -0.000818280503153801,
               0.017963223159313202,
               -0.026719484478235245
            ],
            [
               -0.010888319462537766,
               0.01619100756943226,
               -0.010364985093474388,
               -0.012031703256070614,
               0.0071610030718147755,
               -0.02155948430299759,
               0.009365345351397991,
               0.020829016342759132
            ],
            [
               -0.004517374560236931,
               0.014035706408321857,
               0.0017865976551547647,
               -0.020522886887192726,
               0.01577574573457241,
               -0.005885661579668522,
               0.004286787007004023,
               0.018927007913589478
            ],
            [
               -0.022338703274726868,
               -0.015731703490018845,
               0.0069310907274484634,
               0.008120430633425713,
               -0.005843332037329674,
               0.00409422442317009,
               -0.016938768327236176,
               -0.008233089931309223
            ],
            [
               0.02689533494412899,
               -0.02151009440422058,
               -0.011835115030407906,
               -0.010966231115162373,
               0.011967051774263382,
               -0.01600133255124092,
               -0.028911791741847992,
               0.012535128742456436
            ],
            [
               0.027524029836058617,
               0.007482562214136124,
               -0.014009898528456688,
               -0.0007735397666692734,
               -0.013979613780975342,
               -0.006894255056977272,
               0.022676918655633926,
               -0.0229809507727623
            ],
            [
               0.0020736148580908775,
               -0.0034982238430529833,
               0.0008861276437528431,
               -0.0051284488290548325,
               -0.018506420776247978,
               0.0021261959336698055,
               -0.013923090882599354,
               0.013189470395445824
            ],
            [
               -0.015961475670337677,
               -0.005885721184313297,
               0.00045496621169149876,
               0.012976077385246754,
               -0.02317945286631584,
               0.011656795628368855,
               0.007718004286289215,
               0.004443698097020388
            ],
            [
               -0.008557680994272232,
               -0.0007370728999376297,
               0.009293995797634125,
               0.010232392698526382,
               0.02039959281682968,
               0.012406930327415466,
               0.009455401450395584,
               0.02212052047252655
            ],
            [
               0.023013433441519737,
               -0.014894251711666584,
               -0.01909865438938141,
               -0.004917507991194725,
               -0.0014545843005180359,
               0.014185059815645218,
               -0.02631491795182228,
               0.00852842815220356
            ],
            [
               0.0066531929187476635,
               0.008904345333576202,
               0.01732909306883812,
               0.011667516082525253,
               0.01787559688091278,
               -0.012256547808647156,
               -0.004527051467448473,
