[
   {
      "config": {
         "name": "conv2d_30",
         "trainable": true,
         "batch_input_shape": [
            null,
            96,
            96,
            1
         ],
         "dtype": "float32",
         "filters": 5,
         "kernel_size": [
            2,
            2
         ],
         "strides": [
            1,
            1
         ],
         "padding": "same",
         "data_format": "channels_last",
         "dilation_rate": [
            1,
            1
         ],
         "groups": 1,
         "activation": "relu",
         "use_bias": true,
         "kernel_initializer": {
            "class_name": "HeUniform",
            "config": {
               "seed": null
            }
         },
         "bias_initializer": {
            "class_name": "Zeros",
            "config": {}
         },
         "kernel_regularizer": null,
         "bias_regularizer": null,
         "activity_regularizer": null,
         "kernel_constraint": null,
         "bias_constraint": null
      },
      "weights_biases": [
         [
            [
               [
                  [
                     -1.0070457458496094,
                     -0.9753339290618896,
                     0.13147614896297455,
                     -1.1142420768737793,
                     -1.169418454170227
                  ]
               ],
               [
                  [
                     0.04522150382399559,
                     0.9153389930725098,
                     -1.3659441471099854,
                     1.0304312705993652,
                     1.209135890007019
                  ]
               ]
            ],
            [
               [
                  [
                     -0.9243724346160889,
                     -0.801833987236023,
                     -0.31550073623657227,
                     0.967253565788269,
                     -1.3091890811920166
                  ]
               ],
               [
                  [
                     0.5689072608947754,
                     0.7420143485069275,
                     1.3178755044937134,
                     -1.1740531921386719,
                     -0.04189465939998627
                  ]
               ]
            ]
         ],
         [
            0.26664698123931885,
            0.10145183652639389,
            0.17446637153625488,
            0.13308176398277283,
            0.13622882962226868
         ]
      ]
   },
   {
      "config": {
         "name": "max_pooling2d_30",
         "trainable": true,
         "dtype": "float32",
         "pool_size": [
            2,
            2
         ],
         "padding": "valid",
         "strides": [
            2,
            2
         ],
         "data_format": "channels_last"
      },
      "weights_biases": []
   },
   {
      "config": {
         "name": "flatten_30",
         "trainable": true,
         "dtype": "float32",
         "data_format": "channels_last"
      },
      "weights_biases": []
   },
   {
      "config": {
         "name": "dense_60",
         "trainable": true,
         "dtype": "float32",
         "units": 8,
         "activation": "relu",
         "use_bias": true,
         "kernel_initializer": {
            "class_name": "HeUniform",
            "config": {
               "seed": null
            }
         },
         "bias_initializer": {
            "class_name": "Zeros",
            "config": {}
         },
         "kernel_regularizer": null,
         "bias_regularizer": null,
         "activity_regularizer": null,
         "kernel_constraint": null,
         "bias_constraint": null
      },
      "weights_biases": [
         [
            [
               -0.01948000118136406,
               0.012530189007520676,
               -0.01971018873155117,
               -0.015117969363927841,
               0.002716861665248871,
               -0.007779783569276333,
               -0.007042896002531052,
               0.022383738309144974
            ],
            [
               -0.010289966128766537,
               0.008541988208889961,
               -0.0001792945113265887,
               0.022571055218577385,
               -0.016894066706299782,
               0.01792736165225506,
               0.018385523930191994,
               0.0012204499216750264
            ],
            [
               -0.007508733309805393,
               0.00318790040910244,
               0.007533153519034386,
               -0.00236707367002964,
               0.001984529197216034,
               0.0011688638478517532,
               0.00623118132352829,
               0.016617830842733383
            ],
            [
               -0.002075532451272011,
               -0.021289914846420288,
               0.005177587270736694,
               0.016319043934345245,
               -0.021720753982663155,
               0.01353830099105835,
               -0.004361819475889206,
               -0.00995698757469654
            ],
            [
               0.006487855687737465,
               0.022821512073278427,
               -0.0045676641166210175,
               -0.010633043944835663,
               0.014810919761657715,
               -0.017646001651883125,
               -0.017324088141322136,
               -0.0005136486142873764
            ],
            [
               -0.006488639861345291,
               0.012163154780864716,
               -0.005088804289698601,
               -0.014590228907763958,
               0.003910934552550316,
               -0.004690801724791527,
               -0.02088119275867939,
               -0.021651428192853928
            ],
            [
               4.453469591680914e-05,
               -0.014393353834748268,
               -0.008102105930447578,
               0.037564344704151154,
               -0.01803399622440338,
               -0.01109244953840971,
               0.01005062460899353,
               0.033596884459257126
            ],
            [
               -0.0036064330488443375,
               0.022364303469657898,
               0.01324068009853363,
               -0.004934592172503471,
               0.008022380992770195,
               -0.019067633897066116,
               -0.0024961307644844055,
               -0.01512119546532631
            ],
            [
               -0.011628026142716408,
               0.0030712150037288666,
               0.002083703875541687,
               -0.017310986295342445,
               0.0027206987142562866,
               -0.003086734563112259,
               -0.0127944964915514,
               -0.02201339416205883
            ],
            [
               0.01820572093129158,
               0.00625871866941452,
               0.009080488234758377,
               -0.002806607633829117,
               0.01383330300450325,
               0.0038042720407247543,
               0.01845524087548256,
               -0.007057353854179382
            ],
            [
               -0.0021087341010570526,
               -0.014853551983833313,
               -0.006606690585613251,
               0.005706721916794777,
               -0.004376240074634552,
               -0.011058365926146507,
               0.0004357472062110901,
               -0.004117937758564949
            ],
            [
               -0.0100941127166152,
               -0.020309854298830032,
               0.002539899665862322,
               0.01807740330696106,
               0.00014171141083352268,
               -0.006302774418145418,
               0.021041391417384148,
               0.016451973468065262
            ],
            [
               -0.0019125379621982574,
               -0.007919860072433949,
               0.02040242776274681,
               0.018769845366477966,
               -0.002437170594930649,
               -0.013021674938499928,
               0.017763428390026093,
               0.016129270195961
            ],
            [
               -0.0015206877142190933,
               -0.02157018706202507,
               -0.0037318505346775055,
               -0.0010610204190015793,
               -0.011010897345840931,
               0.017593197524547577,
               -0.018907686695456505,
               -0.012599355541169643
            ],
            [
               -0.008693104609847069,
               -0.002043716609477997,
               -0.012260470539331436,
               0.0014230906963348389,
               0.016646679490804672,
               -0.00954487081617117,
               -0.0033246632665395737,
               0.02252209186553955
            ],
            [
               -0.01366876158863306,
               -0.010621573776006699,
               -0.008800556883215904,
               0.0024434998631477356,
               -0.006213519722223282,
               0.01028718426823616,
               0.007967263460159302,
               -0.01811216026544571
            ],
            [
               0.023244041949510574,
               0.008183883503079414,
               -0.020201513543725014,
               0.008587433025240898,
               -0.02094789780676365,
               -0.013951406814157963,
               -0.016053879633545876,
               0.027124548330903053
            ],
            [
               0.010977357625961304,
               -0.00459272600710392,
               0.021915800869464874,
               0.00651867501437664,
               -0.02171305939555168,
               0.022261258214712143,
               -0.006246205419301987,
               -0.015119688585400581
            ],
            [
               -0.006726935505867004,
               -0.008297094143927097,
               0.0012717843055725098,
               0.0024496912956237793,
               0.006737157702445984,
               -0.0033360961824655533,
               -0.017164353281259537,
               -0.01385259535163641
            ],
            [
               -0.022545913234353065,
               -0.002109026536345482,
               0.010414216667413712,
               0.002912437543272972,
               0.020006023347377777,
               0.0005084741860628128,
               0.011717770248651505,
               -0.022810956463217735
            ],
            [
               0.01769479736685753,
               0.013608243316411972,
               -0.0014319755136966705,
               -0.0027976352721452713,
               -0.008155668154358864,
               -0.003188787028193474,
               0.006833139806985855,
               0.013659670948982239
            ],
            [
               -0.016311075538396835,
               -0.003846553387120366,
               -0.02252962626516819,
               0.041386928409338,
               -0.006648897659033537,
               0.013282873667776585,
               0.021667448803782463,
               0.022166352719068527
            ],
            [
               -0.013450049795210361,
               0.022279102355241776,
               -0.017698116600513458,
               -0.014613309875130653,
               0.016404297202825546,
               0.009788934141397476,
               -0.004590800032019615,
               -0.0003269575536251068
            ],
            [
               0.008983336389064789,
               0.021028511226177216,
               0.0035822633653879166,
               0.0008228514343500137,
               -0.0028974469751119614,
               -0.01864209957420826,
               0.010784383863210678,
               0.002387329936027527
            ],
            [
               -0.014830285683274269,
               -0.014238834381103516,
               -0.007889661937952042,
               0.0021350421011447906,
               -0.008668815717101097,
               -0.016485679894685745,
               -0.00485689751803875,
               0.016050901263952255
            ],
            [
               0.01647729054093361,
               0.014212500303983688,
               0.009458895772695541,
               -0.01928727701306343,
               0.019585352391004562,
               -0.019477587193250656,
               -0.0017551258206367493,
               0.011455878615379333
            ],
            [
               0.013347777538001537,
               -0.010972481220960617,
               0.012355182319879532,
               0.048047710210084915,
               -0.020972760394215584,
               -0.0133812902495265,
               0.015113689005374908,
               0.005583269987255335
            ],
            [
               -0.015215975232422352,
               -0.022214330732822418,
               -0.004666702821850777,
               -0.010498903691768646,
               0.02086038514971733,
               0.012518662959337234,
               0.014945141971111298,
               0.0075742341578006744
            ],
            [
               -0.0029364004731178284,
               0.0038242898881435394,
               -0.015125386416912079,
               0.01225874200463295,
               0.007935639470815659,
               0.015180554240942001,
               0.001807691529393196,
               -0.01931900531053543
            ],
            [
               -0.018581904470920563,
               0.015936747193336487,
               -0.017875971272587776,
               0.020720336586236954,
               -0.022320959717035294,
               -0.0024252068251371384,
               -0.015869013965129852,
               0.00846538320183754
            ],
            [
               0.005367439240217209,
               0.006493357941508293,
               0.01932511106133461,
               0.01043611392378807,
               0.015405584126710892,
               0.02199748530983925,
               0.0035781599581241608,
               -0.0027609076350927353
            ],
            [
               -0.0045729754492640495,
               -0.021910885348916054,
               -0.009174562059342861,
               0.0309456717222929,
               0.011124689131975174,
               0.01107859332114458,
               0.010198427364230156,
               0.03406812995672226
            ],
            [
               0.019801262766122818,
               0.009176235646009445,
               0.022672951221466064,
               -0.00915270671248436,
               0.01887279376387596,
               -0.012889569625258446,
               -0.017296480014920235,
               0.022491782903671265
            ],
            [
               0.017246708273887634,
               0.016801849007606506,
               -0.0016898103058338165,
               -0.014097174629569054,
               0.0034724511206150055,
               0.00788038969039917,
               -0.008943391963839531,
               -0.014907713048160076
            ],
            [
               -0.0012340974062681198,
               -0.013554013334214687,
               -0.012325242161750793,
               0.0015602726489305496,
               -0.01650463230907917,
               0.012614209204912186,
               0.017605513334274292,
               -0.01839422434568405
            ],
            [
               -0.00342407263815403,
               0.006925296038389206,
               -0.0002004466950893402,
               0.010558884590864182,
               -0.010748662054538727,
               -0.01973096840083599,
               0.0012043565511703491,
               0.018706437200307846
            ],
            [
               0.0008882986148819327,
               0.010039905086159706,
               0.015872055664658546,
               0.004080183804035187,
               -0.01831969991326332,
               -0.008140742778778076,
               0.013459098525345325,
               0.04505350813269615
            ],
            [
               0.02270849421620369,
               0.021463844925165176,
               0.02203201875090599,
               -0.002246137708425522,
               -0.007423721253871918,
               -0.02192777767777443,
               -0.020155122503638268,
               -0.009634296409785748
            ],
            [
               0.013268928974866867,
               -0.007462581619620323,
               -0.01732640154659748,
               0.007304036989808083,
               0.018789086490869522,
               -0.017876282334327698,
               0.020375508815050125,
               0.018868621438741684
            ],
            [
               -0.013590539805591106,
               -0.017209328711032867,
               -0.005617721006274223,
               0.0133771151304245,
               -0.007595600560307503,
               -0.014842147938907146,
               -0.018211739137768745,
               -0.007057646289467812
            ],
            [
               0.0013983175158500671,
               0.020093578845262527,
               0.005246592685580254,
               0.0067064594477415085,
               -0.020816616714000702,
               0.015717048197984695,
               0.02163558453321457,
               0.012015216052532196
            ],
            [
               -0.012461566366255283,
               -0.015076151117682457,
               -0.009510437026619911,
               0.013274319469928741,
               -0.021765118464827538,
               0.0022468704264611006,
               0.010950248688459396,
               0.03810419514775276
            ],
            [
               0.011832542717456818,
               -0.0018662717193365097,
               0.019832581281661987,
               -0.014673352241516113,
               -0.019487032666802406,
               0.020554009824991226,
               -0.002962414175271988,
               -0.0029008761048316956
            ],
            [
               0.02049154043197632,
               -0.0002724975347518921,
               -0.02106180600821972,
               0.01694340631365776,
               0.011574316769838333,
               -0.01819036528468132,
               -0.0003644246608018875,
               0.019546162337064743
            ],
            [
               0.003195175901055336,
               -0.004026863723993301,
               -0.005493374541401863,
               0.02101694419980049,
               -0.01427213940769434,
               0.006861276924610138,
               -0.022620555013418198,
               0.019258584827184677
            ],
            [
               0.02000397816300392,
               -0.01734747923910618,
               -0.0021479204297065735,
               -0.003527803346514702,
               0.015454988926649094,
               0.002073686569929123,
               0.002245752140879631,
               -0.02080279029905796
            ],
            [
               0.0029591601341962814,
               -0.02906675636768341,
               -0.010784834623336792,
               0.0378606878221035,
               -0.01243685558438301,
               0.0010879220208153129,
               0.01722954772412777,
               0.043349508196115494
            ],
            [
               0.00013661012053489685,
               -0.019151046872138977,
               -0.01017987821251154,
               -0.001609688624739647,
               0.01800096407532692,
               -0.020683923736214638,
               0.012453857809305191,
               0.01736898347735405
            ],
            [
               0.02177383378148079,
               0.010882694274187088,
               0.014331817626953125,
               0.02151544764637947,
               -0.022268349304795265,
               -0.00994415208697319,
               -0.007067980244755745,
               0.014652810990810394
            ],
            [
               -0.019373714923858643,
               -0.009973453357815742,
               0.01673278585076332,
               0.011118065565824509,
               -0.013438552618026733,
               -0.013547717593610287,
               0.0029013436287641525,
               0.006360223516821861
            ],
            [
               -0.011076794937252998,
               -0.007266809232532978,
               -0.0013144798576831818,
               3.8914382457733154e-05,
               -0.008842365816235542,
               0.010095831006765366,
               0.022773530334234238,
               -0.002553144469857216
            ],
            [
               0.023604951798915863,
               -0.024602200835943222,
               0.016901256516575813,
               0.036202240735292435,
               -0.006958562880754471,
               -0.014252287335693836,
               -0.006306305527687073,
               0.030181577429175377
            ],
            [
               0.018964208662509918,
               -0.018036702647805214,
               0.006931466981768608,
               -0.0006597917526960373,
               0.005074869841337204,
               -0.005299653857946396,
               -0.01146804541349411,
               -0.001261010766029358
            ],
            [
               0.022246018052101135,
               -0.005452653393149376,
               -0.010482117533683777,
               0.01956288143992424,
               -0.016059748828411102,
               0.00466260127723217,
               0.010853402316570282,
               0.022079069167375565
            ],
            [
               -0.018661100417375565,
               -0.005776232108473778,
               0.0015466101467609406,
               0.022582586854696274,
               0.004227021709084511,
               -0.020610610023140907,
               0.01646886020898819,
               0.019602809101343155
            ],
            [
               0.010952722281217575,
               -0.015397192910313606,
               -0.020338144153356552,
               0.007769107818603516,
               0.009988825768232346,
               0.009562581777572632,
               -0.021993888542056084,
               0.011174511164426804
            ],
            [
               0.013432159088551998,
               0.014218403026461601,
               0.014360561035573483,
               0.04003202170133591,
               0.015136581845581532,
               0.009939589537680149,
               -0.010868171229958534,
               0.03697740659117699
            ],
            [
               -0.02029000222682953,
               0.009954649955034256,
               0.018821395933628082,
               -0.009616302326321602,
               0.01664770022034645,
               -0.005645819008350372,
               -0.010308284312486649,
               -0.01705888658761978
            ],
            [
               -0.015880946069955826,
               -0.010522888042032719,
               0.0006563812494277954,
               0.0004081074148416519,
               0.015636999160051346,
               0.004539724439382553,
               -0.015650972723960876,
               -0.0045036431401968
            ],
            [
               0.015162341296672821,
               -0.01856061816215515,
               0.01426175981760025,
               -0.014495971612632275,
               -0.015156297013163567,
               -0.021987680345773697,
               -0.0023413803428411484,
               -0.020395494997501373
            ],
            [
               -0.005118547007441521,
               0.022605959326028824,
               -0.02045004814863205,
               -0.012431181035935879,
               0.011476472020149231,
               0.0101710744202137,
               0.016351163387298584,
               -0.02084142342209816
            ],
            [
               0.015455578453838825,
               0.012181771919131279,
               -0.005120911169797182,
               0.018770968541502953,
               -0.007318546529859304,
               0.0006567338714376092,
               -0.01291603408753872,
               0.02960464358329773
            ],
            [
               0.00028035417199134827,
               0.0153953917324543,
               0.017373330891132355,
               0.019596941769123077,
               0.01888449117541313,
               -0.021976731717586517,
               0.008590880781412125,
               -0.008761320263147354
            ],
            [
               0.01275394856929779,
               -0.013046099804341793,
               -0.016046009957790375,
               -0.01264694333076477,
               0.016591381281614304,
               0.0017420779913663864,
               -0.016120683401823044,
               -0.017718669027090073
            ],
            [
               -0.0020093247294425964,
               0.005111444741487503,
               0.019943837076425552,
               0.01358814537525177,
               -0.013971162959933281,
               -0.010583088733255863,
               0.020604461431503296,
               0.020063303411006927
            ],
            [
               -0.009926920756697655,
               0.011661101132631302,
               0.0221056267619133,
               0.02098976820707321,
               -0.0013975612819194794,
               -0.0011581666767597198,
               -0.009576037526130676,
               -0.0036707092076539993
            ],
            [
               0.014045682735741138,
               -0.0002617917489260435,
               -0.01473953016102314,
               0.03408649563789368,
               -0.006720229517668486,
               -0.0020409098360687494,
               -0.01799979992210865,
               0.028859425336122513
            ],
            [
               -0.015540658496320248,
               -0.004277944564819336,
               -0.004111321642994881,
               0.020089637488126755,
               0.018771816045045853,
               0.006499849259853363,
               0.018763288855552673,
               -0.022404007613658905
            ],
            [
               0.020555857568979263,
               0.005996501073241234,
               -0.020269103348255157,
               0.015444841235876083,
               -0.00056455098092556,
               -0.0009450539946556091,
               0.010577689856290817,
               0.009995251893997192
            ],
            [
               -0.01840250939130783,
               0.00850263237953186,
               -0.005373148247599602,
               0.01440507173538208,
               0.015541620552539825,
               -0.013650495558977127,
               -0.006237661466002464,
               0.009091634303331375
            ],
            [
               0.011658255010843277,
               -0.005052398890256882,
               0.020239662379026413,
               -0.0075336480513215065,
               -0.011084244586527348,
               -0.0047989170998334885,
               0.016497347503900528,
               0.013133756816387177
            ],
            [
               0.025564074516296387,
               -0.022432003170251846,
               0.009779835119843483,
               0.016047341749072075,
               -0.006525273434817791,
               0.013134711422026157,
               0.002891676267609,
               0.01983814872801304
            ],
            [
               -0.018862128257751465,
               0.011250633746385574,
               0.0064360033720731735,
               0.003517666831612587,
               -0.016119595617055893,
               0.0191199854016304,
               0.003783687949180603,
               -0.010359550826251507
            ],
            [
               -0.004788057878613472,
               -0.004187513142824173,
               0.008350932970643044,
               -0.01988193765282631,
               0.016521967947483063,
               -0.007229853421449661,
               -0.01143879909068346,
               0.006412366405129433
            ],
            [
               -0.013661138713359833,
               0.021094072610139847,
               -0.01946074143052101,
               -0.008246616460382938,
               0.002654142677783966,
               -0.011057255789637566,
               -0.014822477474808693,
               -0.005940984934568405
            ],
            [
               0.000552373006939888,
               -0.017987340688705444,
               0.00873544067144394,
               0.004903964698314667,
               0.0008917413651943207,
               -0.0128779960796237,
               0.0103493332862854,
               -0.02170501835644245
            ],
            [
               -0.009588408283889294,
               0.01039511151611805,
               -0.006724894978106022,
               0.021394068375229836,
               0.012011818587779999,
               0.009647809900343418,
               0.02114935778081417,
               0.024862242862582207
            ],
            [
               -0.01956484094262123,
               -0.021938182413578033,
               -0.008029226213693619,
               0.006392957642674446,
               0.020598944276571274,
               0.0014720018953084946,
               -0.006936864927411079,
               0.008501093834638596
            ],
            [
               -0.017847411334514618,
               -0.0040379539132118225,
               -0.009044401347637177,
               -0.004948500543832779,
               0.012544352561235428,
               0.012268349528312683,
               -0.018335655331611633,
               -0.021872669458389282
            ],
            [
               -0.0019378811120986938,
               0.005918104201555252,
               0.0219867005944252,
               0.009835727512836456,
               0.004858372732996941,
               0.015798427164554596,
               0.006516743451356888,
               -0.005616301670670509
            ],
            [
               0.0150911845266819,
               0.0030578896403312683,
               -0.019320271909236908,
               0.009366005659103394,
               0.012265417724847794,
               0.010418221354484558,
               -0.001349184662103653,
               -0.0008269269019365311
            ],
            [
               0.02134396880865097,
               0.008009418845176697,
               0.004606722388416529,
               0.01171881053596735,
               0.0005773189477622509,
               0.0017593344673514366,
               -0.011627198196947575,
               0.00467585027217865
            ],
            [
               -0.011478845961391926,
               0.0012132804840803146,
               -0.016984567046165466,
               0.018494021147489548,
               0.022077027708292007,
               -0.011943197809159756,
               0.007993582636117935,
               0.011614043265581131
            ],
            [
               -0.012210401706397533,
               -0.013081217184662819,
               0.0033431313931941986,
               0.015544846653938293,
               0.017476826906204224,
               -0.0004871003329753876,
               0.019998766481876373,
               0.02116783708333969
            ],
            [
               0.007420973852276802,
               0.01683754101395607,
               -0.015677154064178467,
               0.017028864473104477,
               0.01101156696677208,
               -0.011740428395569324,
               0.008264180272817612,
               0.011090938001871109
            ],
            [
               -0.00678534060716629,
               0.004968028515577316,
               -0.008741955272853374,
               0.004549507051706314,
               -0.01180247962474823,
               -0.00696643628180027,
               0.0058641936630010605,
               -0.007645131088793278
            ],
            [
               0.01264300849288702,
               0.0016645240830257535,
               -0.018982676789164543,
               0.03399846330285072,
               0.006204237695783377,
               0.012749829329550266,
               -0.0032164177391678095,
               0.04440193995833397
            ],
            [
               -0.0026413165032863617,
               -0.0035720281302928925,
               0.004646537825465202,
               0.00833226554095745,
               0.004243241623044014,
               -0.006174365058541298,
               0.00041724182665348053,
               -0.005483586341142654
            ],
            [
               0.016621652990579605,
               -0.009516560472548008,
               0.019667379558086395,
               -0.008041322231292725,
               0.017668724060058594,
               0.016737282276153564,
               0.0018441900610923767,
               -0.0005349442362785339
            ],
            [
               0.020542055368423462,
               -0.005489712581038475,
               0.006957655772566795,
               0.00627615861594677,
               0.0201282761991024,
               0.00840207003057003,
               0.02246852219104767,
               -0.00118173286318779
            ],
            [
               0.0051057059317827225,
               0.012639831751585007,
               0.019723113626241684,
               0.008346281945705414,
               -0.006847810000181198,
               -0.02221292071044445,
               -0.02233186922967434,
               0.021264661103487015
            ],
            [
               0.004807563498616219,
               -0.01917947269976139,
               -0.025612877681851387,
               0.008587108924984932,
               -0.025009727105498314,
               0.015128877945244312,
               -0.009421280585229397,
               0.014886277727782726
            ],
            [
               0.011465977877378464,
               0.0047851018607616425,
               -0.02043646201491356,
               0.02055516466498375,
               0.008290199562907219,
               0.010065581649541855,
               0.0014053694903850555,
               -0.009541796520352364
            ],
            [
               0.002835778519511223,
               0.006539978086948395,
               -0.014293311163783073,
               0.005479233339428902,
               -0.01372016966342926,
               0.022703342139720917,
               5.099363625049591e-05,
               -0.0016304142773151398
            ],
            [
               -0.00804872252047062,
               0.008321698755025864,
               0.019710134714841843,
               -0.006641171872615814,
               0.0074503012001514435,
               -0.008548839017748833,
               0.020714905112981796,
               0.0103713758289814
            ],
            [
               0.008889447897672653,
               0.0012484844774007797,
               0.010939933359622955,
               0.001080462709069252,
               0.01802964136004448,
               0.02248159795999527,
               -0.0020016636699438095,
               0.0004661045968532562
            ],
            [
               0.004824202507734299,
               -0.004103575833141804,
               -0.009080719202756882,
               0.04148049280047417,
               -0.019794246181845665,
               0.01769506372511387,
               -0.0031783387530595064,
               0.03531431034207344
            ],
            [
               -0.005548929795622826,
               -0.006018847227096558,
               0.00848684087395668,
               -0.020919084548950195,
               0.020165100693702698,
               -0.00763977225869894,
               0.013233240693807602,
               0.0007823482155799866
            ],
            [
               -0.021399900317192078,
               -0.007608632557094097,
               -0.012121215462684631,
               -0.007407533936202526,
               -0.0176310446113348,
               0.018796104937791824,
               -0.0011279955506324768,
               -0.008592776022851467
            ],
            [
               -0.007937232963740826,
               -0.010184841230511665,
               0.0019436441361904144,
               0.007107552140951157,
               -0.009977963753044605,
               -0.00792709644883871,
               -0.008041050285100937,
               0.01489226147532463
            ],
            [
               0.018982350826263428,
               0.01684993878006935,
               0.004089469090104103,
               0.0008359644562005997,
               -0.013718330301344395,
               -0.019339006394147873,
               -0.018477875739336014,
               0.01580166071653366
            ],
            [
               0.012517857365310192,
               0.01268527377396822,
               0.0035226165782660246,
               0.02995353192090988,
               -0.0049179913476109505,
               0.005769568495452404,
               0.023773903027176857,
               0.03827737644314766
            ],
            [
               -0.011789001524448395,
               0.010592859238386154,
               0.010291725397109985,
               0.01854391023516655,
               -0.006759783253073692,
               0.005586298182606697,
               -0.004947999492287636,
               0.013474572449922562
            ],
            [
               -0.020996157079935074,
               -0.022520681843161583,
               -0.008057733066380024,
               0.008576218038797379,
               -0.004841146990656853,
               -0.0053994059562683105,
               0.0022751186043024063,
               -0.015555023215711117
            ],
            [
               0.019787952303886414,
               0.008683200925588608,
               -0.02168096788227558,
               -0.006933050230145454,
               0.007883567363023758,
               -0.020495153963565826,
               0.00247042253613472,
               0.005578495562076569
            ],
            [
               0.013139106333255768,
               -0.013632327318191528,
               0.002143317833542824,
               -0.012597369030117989,
               0.012271113693714142,
               -0.0007010418921709061,
               0.0037910565733909607,
               0.019459962844848633
            ],
            [
               0.017000069841742516,
               -0.002241663634777069,
               -0.00315230549313128,
               0.04176900535821915,
               -0.019624697044491768,
               -0.025231577455997467,
               0.027249423786997795,
               0.014461456798017025
            ],
            [
               -0.010816697962582111,
               -0.020411290228366852,
               0.006343754008412361,
               -0.002860061824321747,
               -0.020405424758791924,
               -0.007595236413180828,
               0.014322929084300995,
               0.02041175216436386
            ],
            [
               -0.009942905977368355,
               -0.020029550418257713,
               0.014134559780359268,
               0.02083437517285347,
               0.0030336007475852966,
               -0.011756502091884613,
               0.019179902970790863,
               -0.013557403348386288
            ],
            [
               0.00744984857738018,
               0.01582248881459236,
               0.009554143995046616,
               0.006883470341563225,
               -0.015503245405852795,
               0.003567170351743698,
               0.00931917130947113,
               0.017247695475816727
            ],
            [
               -0.010104709304869175,
               -0.02085934579372406,
               -0.011887464672327042,
               0.017546549439430237,
               0.02058727666735649,
               -0.0047602578997612,
               0.010095823556184769,
               0.003323739394545555
            ],
            [
               0.023242056369781494,
               -0.006633310578763485,
               -0.012328548356890678,
               0.02103388123214245,
               -0.006390037480741739,
               0.013827242888510227,
               0.006830910220742226,
               0.023003123700618744
            ],
            [
               -0.013501565903425217,
               0.02224932238459587,
               -0.01687023788690567,
               0.016783028841018677,
               -0.019254254177212715,
               0.0034481231123209,
               -0.010695829056203365,
               -0.00026682764291763306
            ],
            [
               0.0103926882147789,
               0.011087529361248016,
               0.0035573597997426987,
               0.013990011066198349,
               -0.000735526904463768,
               -0.022535210475325584,
               -0.0015676934272050858,
               -0.014844878576695919
            ],
            [
               -0.0036376919597387314,
               -0.0057100579142570496,
               -0.015161155723035336,
               0.01870187744498253,
               0.018647056072950363,
               -0.012276571244001389,
               -0.012547980062663555,
               0.0011263694614171982
            ],
            [
               -0.002409890294075012,
               -0.02230101265013218,
               -0.015753939747810364,
               -0.01230256911367178,
               0.004226667806506157,
               -0.02254272997379303,
               0.010270249098539352,
               -0.008577954024076462
            ],
            [
               0.025538388639688492,
               0.003611236810684204,
               0.012691168114542961,
               0.028619201853871346,
               0.01583980955183506,
               -0.008296537213027477,
               0.02235068939626217,
               0.02072056196630001
            ],
            [
               0.013189885765314102,
               0.02011498063802719,
               0.002763008698821068,
               0.009682152420282364,
               -0.007856606505811214,
               0.015545740723609924,
               0.01194574311375618,
               -0.016281088814139366
            ],
            [
               0.01993652805685997,
               0.017029359936714172,
               -0.017915839329361916,
               0.0048528555780649185,
               0.01587119698524475,
               0.0012417640537023544,
               -0.013465306721627712,
               0.0071237944066524506
            ],
            [
               0.01540476456284523,
               0.012737847864627838,
               0.012866780161857605,
               0.00881819799542427,
               -0.02074228599667549,
               -0.01768619567155838,
               0.011408809572458267,
               0.009483076632022858
            ],
            [
               0.014760501682758331,
               -0.009720043279230595,
               -0.007523739710450172,
               -0.020549630746245384,
               0.022630080580711365,
               -0.009396007284522057,
               -0.012458457611501217,
               -0.0011733751744031906
            ],
            [
               0.027129899710416794,
               -0.01476486399769783,
               -0.006782651413232088,
               0.012440131977200508,
               -0.007763864938169718,
               -0.0157473161816597,
               0.0129019096493721,
               0.009275983087718487
            ],
            [
               0.007813403382897377,
               -0.021072687581181526,
               0.0006279237568378448,
               0.019384149461984634,
               -0.012359417974948883,
               0.012051623314619064,
               0.004619741812348366,
               -0.008302534930408001
            ],
            [
               0.002104576677083969,
               0.006513413041830063,
               0.019726108759641647,
               0.012711770832538605,
               -0.009591033682227135,
               -0.007536205463111401,
               0.019865676760673523,
               -0.014940229244530201
            ],
            [
               0.014494583010673523,
               -0.008339224383234978,
               -0.021627623587846756,
               0.018131650984287262,
               -0.008130263537168503,
               -0.011433178558945656,
               -0.003359917551279068,
               0.00962740182876587
            ],
            [
               0.011971551924943924,
               -0.022445235401391983,
               -0.01755679026246071,
               -0.007833709940314293,
               -0.01081173587590456,
               -0.009577654302120209,
               0.008181404322385788,
               0.017076991498470306
            ],
            [
               -0.01730615645647049,
               -0.024963626638054848,
               0.0010861871996894479,
               0.019984936341643333,
               0.008610484190285206,
               -0.019581712782382965,
               0.006962297484278679,
               0.04405822232365608
            ],
            [
               0.017168108373880386,
               -0.007581220008432865,
               -0.005347194150090218,
               -0.016446346417069435,
               -0.019199570640921593,
               0.021691028028726578,
               0.01761532947421074,
               0.012605901807546616
            ],
            [
               -0.0010821223258972168,
               -0.004233544692397118,
               -0.022465785965323448,
               -0.01512109860777855,
               0.01758924499154091,
               -9.459443390369415e-05,
               0.014107361435890198,
               -0.0008844789117574692
            ],
            [
               0.012479063123464584,
               0.019520580768585205,
               0.011349696666002274,
               0.011232521384954453,
               -0.013818517327308655,
               0.021584365516901016,
               0.021861102432012558,
               0.015299063175916672
            ],
            [
               -0.013039091601967812,
               0.018521476536989212,
               0.0007248017936944962,
               -0.008954796008765697,
               -0.009846054017543793,
               0.012941308319568634,
               -0.0012580342590808868,
               0.01080024242401123
            ],
            [
               0.009478752501308918,
               0.013370294123888016,
               -0.010296203196048737,
               0.019294779747724533,
               -0.009606463834643364,
               -0.01776950992643833,
               0.010283324867486954,
               0.023729395121335983
            ],
            [
               -0.019175032153725624,
               -0.00935738068073988,
               0.019558142870664597,
               -0.02234676107764244,
               -0.019692804664373398,
               0.011189665645360947,
               0.007120344787836075,
               -0.01351657323539257
            ],
            [
               0.00629311241209507,
               -0.019444357603788376,
               0.02115430310368538,
               -0.013218535110354424,
               0.016163863241672516,
               -0.00010995939373970032,
               -0.003036990761756897,
               0.017971187829971313
            ],
            [
               -0.005369845777750015,
               -0.004303980618715286,
               -0.009267307817935944,
               -0.013142048381268978,
               -0.00039108656346797943,
               0.021447215229272842,
               -0.017683394253253937,
               -0.00552728958427906
            ],
            [
               0.022325530648231506,
               0.010681293904781342,
               0.004004359245300293,
               0.00790281780064106,
               0.014838192611932755,
               0.022025983780622482,
               -0.019112497568130493,
               -0.0025478545576334
            ],
            [
               0.008109642192721367,
               -0.022353874519467354,
               0.012621624395251274,
               0.02977946028113365,
               -0.009835975244641304,
               0.0165410116314888,
               0.009978815913200378,
               0.022080427035689354
            ],
            [
               -0.00429740734398365,
               -0.008936410769820213,
               -0.0021529756486415863,
               -0.014030084945261478,
               0.01989389955997467,
               0.007155744358897209,
               -0.014688924886286259,
               0.008399643003940582
            ],
            [
               -0.00836373120546341,
               -0.021539835259318352,
               -0.001472359523177147,
               -0.0026886165142059326,
               -0.0035914257168769836,
               0.013246767222881317,
               -0.0019039679318666458,
               0.0015773791819810867
            ],
            [
               -0.0019736401736736298,
               -0.01716795563697815,
               0.01681424304842949,
               -0.009553984738886356,
               -0.004337623715400696,
               0.014836229383945465,
               0.020226407796144485,
               0.018445581197738647
            ],
            [
               -0.020254084840416908,
               -0.017343176528811455,
               -0.01737186685204506,
               -0.011447564698755741,
               -0.009693670086562634,
               0.006049579009413719,
               0.00046091899275779724,
               0.0009152088314294815
            ],
            [
               -0.009636281989514828,
               0.007283439859747887,
               -0.022076772525906563,
               0.03928082063794136,
               -0.0020183578599244356,
               -0.004353335592895746,
               -0.011754472739994526,
               0.01300620287656784
            ],
            [
               -0.01625334471464157,
               0.014242392033338547,
               0.013976763933897018,
               0.02168549969792366,
               0.007003186270594597,
               0.011683624237775803,
               -0.0037319157272577286,
               -0.004278978332877159
            ],
            [
               -0.0036357343196868896,
               -0.01581336185336113,
               -0.015574839897453785,
               -0.02173100970685482,
               -0.006313741207122803,
               0.01776125654578209,
               0.019630324095487595,
               -0.02053166925907135
            ],
            [
               3.308802843093872e-05,
               0.01395980641245842,
               -0.0008355788886547089,
               -0.003810938447713852,
               0.008616521954536438,
               -0.008561505936086178,
               -0.00015722215175628662,
               -0.014576565474271774
            ],
            [
               -0.014907381497323513,
               0.009126871824264526,
               -0.01134417299181223,
               0.0016168393194675446,
               0.017311498522758484,
               0.004623435437679291,
               0.012862946838140488,
               -0.0023220088332891464
            ],
            [
               -0.016642790287733078,
               -0.004251902922987938,
               -0.00023956615768838674,
               0.008910765871405602,
               -0.02542046643793583,
               -0.018405435606837273,
               0.01974153332412243,
               0.011812678538262844
            ],
            [
               0.011922158300876617,
               0.004074849188327789,
               0.0032502133399248123,
               -0.0017056316137313843,
               -0.004163816571235657,
               0.017460256814956665,
               0.02103901281952858,
               0.002626195549964905
            ],
            [
               0.008060099557042122,
               0.010995734483003616,
               0.0071257371455430984,
               -0.004783518612384796,
               0.0017344914376735687,
               0.012482713907957077,
               0.009190589189529419,
               0.006019521504640579
            ],
            [
               -0.008093350566923618,
               0.015142425894737244,
               0.010064255446195602,
               0.010909143835306168,
               -0.016739901155233383,
               0.007497731596231461,
               -0.012745770625770092,
               -0.007852802984416485
            ],
            [
               -0.005174262449145317,
               -0.011649235151708126,
               -0.005533743649721146,
               -0.010392948053777218,
               -0.0041051339358091354,
               -0.008767099119722843,
               0.0032823532819747925,
               0.0070601776242256165
            ],
            [
               0.019465619698166847,
               0.003200392471626401,
               -0.004584448877722025,
               0.020357077941298485,
               0.016642041504383087,
               0.013545867055654526,
               0.0004176640941295773,
               0.034886136651039124
            ],
            [
               -0.016392245888710022,
               0.022092368453741074,
               -0.018521975725889206,
               0.006074689328670502,
               0.005658688023686409,
               -0.009383139200508595,
               0.005206894129514694,
               -0.0009457338601350784
            ],
            [
               0.010929461568593979,
               0.015548694878816605,
               0.007865175604820251,
               -0.0011580586433410645,
               0.0072695352137088776,
               -0.01502944715321064,
               -0.013107165694236755,
               -0.002712791785597801
            ],
            [
               -0.014400011859834194,
               -0.017735237255692482,
               -0.008898355066776276,
               -0.0019961409270763397,
               -0.018425384536385536,
               -0.015353025868535042,
               0.0025355853140354156,
               0.005330631509423256
            ],
            [
               -0.0031983312219381332,
               0.00215722993016243,
               0.0005885511636734009,
               -0.010946812108159065,
               0.02054179087281227,
               0.022789016366004944,
               0.00960492342710495,
               0.004109486937522888
            ],
            [
               0.017371125519275665,
               0.002631654031574726,
               0.009570164605975151,
               0.03747750073671341,
               -0.009358979761600494,
               0.012143812142312527,
               0.010085811838507652,
               0.028455499559640884
            ],
            [
               -0.004565024748444557,
               -0.011548807844519615,
               0.006001004949212074,
               -0.018136808648705482,
               -0.013055273331701756,
               0.011045612394809723,
               -0.020129874348640442,
               -0.007320099510252476
            ],
            [
               0.01203223317861557,
               0.004015209153294563,
               -0.011298853904008865,
               0.008813418447971344,
               -0.01962846890091896,
               -0.002962164580821991,
               -0.002808190882205963,
               -0.011571981944143772
            ],
            [
               0.0050001852214336395,
               -0.013557451777160168,
               0.0022038333117961884,
               0.020569786429405212,
               -0.0010011475533246994,
               0.0023697931319475174,
               0.00385221466422081,
               0.011707581579685211
            ],
            [
               -0.019315864890813828,
               0.01312827318906784,
               -0.016748208552598953,
               -0.020134929567575455,
               0.005105502903461456,
               0.010958231985569,
               -0.016848647966980934,
               0.011645257472991943
            ],
            [
               -0.0119363097473979,
               0.004512368701398373,
               -0.014212528243660927,
               0.005269965622574091,
               -0.0018721424276009202,
               0.004285641014575958,
               -0.006139170844107866,
               0.003936395514756441
            ],
            [
               -0.020571710541844368,
               0.016600370407104492,
               -0.0020559821277856827,
               -0.006457140669226646,
               0.019551455974578857,
               -0.000662555918097496,
               0.021021734923124313,
               -0.010151617228984833
            ],
            [
               0.008183455094695091,
               -0.018933957442641258,
               -0.012855899520218372,
               0.005486061796545982,
               0.009330164641141891,
               -0.014354643411934376,
               -0.005869243294000626,
               -0.008309581317007542
            ],
            [
               -0.005042755976319313,
               -0.0072410134598612785,
               0.0033646393567323685,
               0.014859389513731003,
               0.01052909716963768,
               -0.019568925723433495,
               0.02217881754040718,
               0.017507918179035187
            ],
            [
               0.009452681988477707,
               -0.020139679312705994,
               -0.02008628100156784,
               -0.016181912273168564,
               -0.006092313677072525,
               -0.004430362954735756,
               -0.008898790925741196,
               -0.0006506554782390594
            ],
            [
               -0.016588132828474045,
               -0.004277557134628296,
               -0.008252307772636414,
               0.02809942699968815,
               0.008116049692034721,
               -0.025212304666638374,
               -0.009360491298139095,
               0.028733883053064346
            ],
            [
               -0.010226770304143429,
               -0.019178830087184906,
               0.019064564257860184,
               0.0017480235546827316,
               0.017280276864767075,
               0.02193937823176384,
               -0.02064155973494053,
               -0.011596320196986198
            ],
            [
               -0.021002648398280144,
               0.013337463140487671,
               0.0005395654588937759,
               0.01982809230685234,
               0.010116316378116608,
               -0.014226439408957958,
               0.02266128733754158,
               0.01762574538588524
            ],
            [
               -0.011752399615943432,
               0.010017972439527512,
               -0.022802097722887993,
               -0.018664784729480743,
               0.01425931602716446,
               0.012097306549549103,
               0.0053140632808208466,
               0.018121305853128433
            ],
            [
               0.017644882202148438,
               -0.01694968342781067,
               -0.005137214437127113,
               0.022185683250427246,
               0.01895923539996147,
               -0.018626559525728226,
               0.006455166265368462,
               0.0029416028410196304
            ],
            [
               -0.003923337906599045,
               -0.01810234785079956,
               -0.019666166976094246,
               0.023974977433681488,
               -0.012514903210103512,
               0.013886475935578346,
               -0.01706443913280964,
               0.03436174988746643
            ],
            [
               -0.0023506619036197662,
               -0.014095792546868324,
               -0.007935862056910992,
               0.011510133743286133,
               0.004744887351989746,
               0.009283654391765594,
               -0.013522944413125515,
               0.004324618726968765
            ],
            [
               0.001762937754392624,
               0.006281550973653793,
               0.003302900120615959,
               0.0019504409283399582,
               -0.017328571528196335,
               0.011407416313886642,
               0.006942549720406532,
               0.022081445902585983
            ],
            [
               -0.01667603850364685,
               0.012726444751024246,
               -0.019962308928370476,
               0.019455060362815857,
               -0.01344121340662241,
               -0.009812787175178528,
               -0.004891030490398407,
               -0.0031191296875476837
            ],
            [
               0.016544047743082047,
               0.014894623309373856,
               0.014983121305704117,
               -0.018102824687957764,
               0.003077838569879532,
               -0.017433907836675644,
               -0.002998223528265953,
               0.015560563653707504
            ],
            [
               0.024351365864276886,
               0.006824911572039127,
               -0.010540293529629707,
               0.03387611359357834,
               -0.007605681661516428,
               0.003583679674193263,
               0.0028097329195588827,
               0.006388615816831589
            ],
            [
               -0.012109914794564247,
               0.018001727759838104,
               -0.020579280331730843,
               -0.021126560866832733,
               -0.02217419631779194,
               0.016195014119148254,
               -0.011456363834440708,
               0.008442725986242294
            ],
            [
               0.019456833600997925,
               -0.010374976322054863,
               -0.0034312941133975983,
               0.010198846459388733,
               0.0019150562584400177,
               0.0169772170484066,
               -0.01663236692547798,
               0.0056874435395002365
            ],
            [
               0.0025759097188711166,
               -0.00745069794356823,
               0.020927969366312027,
               0.008816879242658615,
               -0.013327542692422867,
               -0.0045234933495521545,
               -0.02094857022166252,
               0.011887166649103165
            ],
            [
               0.006754614412784576,
               -0.0009404625743627548,
               -0.011526994407176971,
               -0.014658579602837563,
               -0.002578064799308777,
               -0.011912134476006031,
               -0.009099764749407768,
               -0.006311269477009773
            ],
            [
               0.023159664124250412,
               -0.0082206716760993,
               -0.01629049889743328,
               0.045802805572748184,
               4.696627729572356e-05,
               0.0028807527851313353,
               -0.009423191659152508,
               0.03856263682246208
            ],
            [
               -0.01690525747835636,
               -0.020287498831748962,
               0.008521534502506256,
               0.0045200493186712265,
               0.02206384390592575,
               -0.0016229264438152313,
               -0.019852861762046814,
               0.004739038646221161
            ],
            [
               0.00866994634270668,
               -0.005360115319490433,
               -0.009222946129739285,
               -0.00951650645583868,
               0.003491384908556938,
               -0.01971309445798397,
               0.012476149946451187,
               -0.020543048158288002
            ],
            [
               -0.020361095666885376,
               0.019502729177474976,
               -0.011874361895024776,
               -0.015200620517134666,
               0.002076543867588043,
               -0.01115079503506422,
               -0.020396888256072998,
               0.015245873481035233
            ],
            [
               -0.01372312381863594,
               -0.0051908306777477264,
               0.00930050015449524,
               0.008088970556855202,
               -0.011086806654930115,
               0.0017207972705364227,
               -0.0016584638506174088,
               0.0022961758077144623
            ],
            [
               -0.010036773048341274,
               -0.02132379822432995,
               -0.018696598708629608,
               0.04369952902197838,
               -0.00018405965238343924,
               -0.025358591228723526,
               -0.015034067444503307,
               0.012858427129685879
            ],
            [
               0.01571781560778618,
               0.005510019138455391,
               -0.0033877380192279816,
               -0.004739386960864067,
               0.01706783100962639,
               0.01675233244895935,
               -0.021247588098049164,
               0.0047296192497015
            ],
            [
               -0.01166846975684166,
               0.014127194881439209,
               -0.01691550388932228,
               0.004415225237607956,
               0.006281457841396332,
               -0.01580018550157547,
               -0.0026804935187101364,
               -0.006434010341763496
            ],
            [
               -0.008488317020237446,
               0.022592391818761826,
               -0.016098054125905037,
               -0.007162351161241531,
               -0.015156999230384827,
               -0.010139924474060535,
               -0.0018954239785671234,
               -0.001675330102443695
            ],
            [
               0.005264014005661011,
               0.010338906198740005,
               -0.011086431331932545,
               0.0013615675270557404,
               0.009906336665153503,
               -0.005386060103774071,
               0.007149906828999519,
               0.004549125209450722
            ],
            [
               0.020867180079221725,
               0.01339651644229889,
               0.0006314560305327177,
               0.03393714874982834,
               -0.008305637165904045,
               0.012987927533686161,
               -0.0012867331970483065,
               0.0005697445012629032
            ],
            [
               -0.01758919656276703,
               -0.021160665899515152,
               -0.016100039705634117,
               0.004490699619054794,
               -0.001491360366344452,
               0.0026935413479804993,
               0.004124760627746582,
               -0.00804981030523777
            ],
            [
               -0.004811018705368042,
               0.004576109349727631,
               0.014735184609889984,
               -0.007125796750187874,
               -0.021620387211441994,
               0.015201114118099213,
               0.014735572040081024,
               0.019550912082195282
            ],
            [
               0.017892345786094666,
               -0.007736951112747192,
               -0.0015727002173662186,
               0.003828665241599083,
               0.010238859802484512,
               0.0021973755210638046,
               0.00023868680000305176,
               0.0069708451628685
            ],
            [
               -0.017644140869379044,
               -0.004878787323832512,
               -0.00044857338070869446,
               -0.018068958073854446,
               0.011206872761249542,
               0.009828578680753708,
               0.013794586062431335,
               -0.022328756749629974
            ],
            [
               0.006065597757697105,
               -0.0022365767508745193,
               -0.008969093672931194,
               0.008374850265681744,
               -0.01945815421640873,
               -0.01523712556809187,
               0.025660043582320213,
               0.04431559517979622
            ],
            [
               -0.0005006063729524612,
               0.01846935972571373,
               0.018327470868825912,
               0.019869085401296616,
               -0.010260140523314476,
               0.006481768563389778,
               -0.003946155309677124,
               -0.005952605977654457
            ],
            [
               -0.0033583231270313263,
               -0.005097700282931328,
               0.014496542513370514,
               -0.0024615805596113205,
               0.009054254740476608,
               0.015417035669088364,
               -0.0018267463892698288,
               -0.004295350983738899
            ],
            [
               0.0027951225638389587,
               -0.008679872378706932,
               0.00888826698064804,
               -0.00028383173048496246,
               -0.004608189687132835,
               -0.005885262042284012,
               -0.019060827791690826,
               0.001179257407784462
            ],
            [
               -0.007713129743933678,
               0.01750970631837845,
               0.0013414472341537476,
               0.018001824617385864,
               0.00403960794210434,
               -0.0008897781372070312,
               -0.01679270714521408,
               0.01886840909719467
            ],
            [
               -0.0024816771037876606,
               -0.023963259533047676,
               -0.009566426277160645,
               0.03851718828082085,
               -0.0001618755195522681,
               0.01453747134655714,
               -0.014704091474413872,
               0.003798419376835227
            ],
            [
               0.015782430768013,
               0.009949490427970886,
               -0.021188883110880852,
               -0.009936262853443623,
               0.004250075668096542,
               -0.016353221610188484,
               -0.013557147234678268,
               0.008305462077260017
            ],
            [
               -0.011042810045182705,
               -0.019798031076788902,
               -0.00863388366997242,
               0.02105221152305603,
               0.012434989213943481,
               -0.017421795055270195,
               0.01970602571964264,
               -0.012848123908042908
            ],
            [
               -0.01734156534075737,
               -0.02089504525065422,
               0.0063165705651044846,
               -0.019595125690102577,
               -0.017310431227087975,
               -0.007261144928634167,
               0.010656755417585373,
               0.010296378284692764
            ],
            [
               0.005561541765928268,
               0.018628284335136414,
               -0.008465638384222984,
               -0.006799366325139999,
               -0.01758938655257225,
               -0.015360116958618164,
               -0.02192717418074608,
               -0.014635732397437096
            ],
            [
               0.008838995359838009,
               -0.027813730761408806,
               0.012915762141346931,
               0.01420707069337368,
               -0.023916808888316154,
               0.01757938601076603,
               -0.01054192241281271,
               0.04125887528061867
            ],
            [
               -0.005616474896669388,
               -0.007833465933799744,
               -0.0013591684401035309,
               0.015046890825033188,
               -0.0025689005851745605,
               0.012862678617238998,
               0.010586701333522797,
               -0.007194371894001961
            ],
            [
               0.013488464057445526,
               0.008214736357331276,
               -0.020581679418683052,
               0.016668304800987244,
               -0.02105453610420227,
               -0.0158170685172081,
               0.01905391365289688,
               -0.007125992327928543
            ],
            [
               -0.011553057469427586,
               -0.004627717658877373,
               -0.017306862398982048,
               0.019907642155885696,
               -0.009200360625982285,
               -0.01556534506380558,
               -0.013463260605931282,
               0.004122273996472359
            ],
            [
               0.006090262904763222,
               0.019669048488140106,
               -0.014906363561749458,
               -0.0015724766999483109,
               0.020543869584798813,
               -0.01212509535253048,
               -0.005520489066839218,
               -0.0022568143904209137
            ],
            [
               0.014920118264853954,
               -0.011112954467535019,
               0.008064603433012962,
               0.0038309753872454166,
               -0.010663049295544624,
               -0.018370993435382843,
               0.014276478439569473,
               4.2549298086669296e-05
            ],
            [
               -0.011988179758191109,
               0.0002898331731557846,
               0.012950558215379715,
               0.014727655798196793,
               -0.0026208311319351196,
               0.003323238343000412,
               0.009618278592824936,
               0.013811573386192322
            ],
            [
               0.018591605126857758,
               0.011836841702461243,
               0.007954388856887817,
               0.021039992570877075,
               0.009484753012657166,
               -0.008218512870371342,
               0.0009959228336811066,
               0.009960677474737167
            ],
            [
               -0.012381943874061108,
               0.020697597414255142,
               -0.01415308192372322,
               0.0011877715587615967,
               0.015150975435972214,
               0.01039852574467659,
               -0.012101475149393082,
               0.009147733449935913
            ],
            [
               0.0016165617853403091,
               -0.005377886816859245,
               -0.003868548199534416,
               -0.00034661032259464264,
               0.017239898443222046,
               0.007340798154473305,
               -0.002459397539496422,
               0.011871080845594406
            ],
            [
               0.015924811363220215,
               -0.027620043605566025,
               -0.013021871447563171,
               0.02352847158908844,
               -0.019173434004187584,
               -0.020880471915006638,
               -0.0013858146267011762,
               0.034271951764822006
            ],
            [
               0.018742386251688004,
               0.00775456428527832,
               -0.0010028984397649765,
               -0.013789059594273567,
               0.010748464614152908,
               -0.007764738984405994,
               0.010366309434175491,
               -0.0007965490221977234
            ],
            [
               -0.011370404623448849,
               -0.016999155282974243,
               0.0003128480166196823,
               0.020134925842285156,
               -0.002152279019355774,
               -0.009609169326722622,
               -0.003121720626950264,
               -0.017135323956608772
            ],
            [
               0.007071070373058319,
               0.01705063506960869,
               0.01561952754855156,
               0.008964180946350098,
               -0.004837777465581894,
               -0.0025369394570589066,
               -0.0003460776060819626,
               0.011595934629440308
            ],
            [
               -0.007443477399647236,
               -0.020143678411841393,
               0.021704550832509995,
               0.009676642715930939,
               -0.0014962684363126755,
               -0.00825007725507021,
               0.016280926764011383,
               0.010542131960391998
            ],
            [
               0.027255356311798096,
               -0.008496071211993694,
               0.01687607355415821,
               0.024210944771766663,
               -0.02407843805849552,
               0.0009465392795391381,
               -0.006717106327414513,
               0.029271623119711876
            ],
            [
               0.003354780375957489,
               0.006548421457409859,
               -0.0013602841645479202,
               0.0006057024002075195,
               0.01150653138756752,
               0.011740162968635559,
               -0.01812911592423916,
               -0.015329357236623764
            ],
            [
               0.02221588045358658,
               -0.008946808986365795,
               0.010864842683076859,
               0.005295703187584877,
               0.02226622775197029,
               0.013237878680229187,
               -0.022554492577910423,
               -0.011217236518859863
            ],
            [
               0.012975804507732391,
               0.00399823859333992,
               0.0015992317348718643,
               -0.0009620189666748047,
               0.020336639136075974,
               0.020989518612623215,
               0.010200455784797668,
               0.007764939218759537
            ],
            [
               -0.010960904881358147,
               -0.012653457000851631,
               -0.01785324513912201,
               -0.00920187309384346,
               -0.004080083221197128,
               0.00714515708386898,
               -0.005595091730356216,
               -0.01020306907594204
            ],
            [
               -0.012543660588562489,
               -0.023809848353266716,
               -0.016492225229740143,
               0.02900559827685356,
               -0.004144887439906597,
               -0.022714661434292793,
               0.010431284084916115,
               0.023828161880373955
            ],
            [
               -0.005504807457327843,
               -0.01969989947974682,
               -0.02197745069861412,
               0.01783275231719017,
               0.006981786340475082,
               -0.010689969174563885,
               0.007886288687586784,
               0.011311117559671402
            ],
            [
               0.018022410571575165,
               0.005984382703900337,
               0.016663555055856705,
               0.02222169190645218,
               0.0196002796292305,
               -0.012569923885166645,
               0.02017882838845253,
               -0.01308573316782713
            ],
            [
               -0.014280655421316624,
               0.02244744822382927,
               0.01860673725605011,
               0.008424699306488037,
               -0.016420157626271248,
               -0.0012766644358634949,
               -0.012124747037887573,
               0.01233966276049614
            ],
            [
               0.008164145052433014,
               -0.019476689398288727,
               0.017264988273382187,
               -0.002028394490480423,
               0.020658284425735474,
               0.012891501188278198,
               0.021924849599599838,
               -0.0025846529752016068
            ],
            [
               0.014392548240721226,
               -0.028439102694392204,
               -0.020197520032525063,
               0.039378296583890915,
               -0.008260175585746765,
               0.00899547804147005,
               0.021536914631724358,
               0.03884517028927803
            ],
            [
               -0.014243998564779758,
               -0.013203255832195282,
               0.004860935732722282,
               -0.008806520141661167,
               0.0020953919738531113,
               -0.008604452945291996,
               0.0006326399743556976,
               0.011071223765611649
            ],
            [
               -0.01981789618730545,
               0.006863294169306755,
               -0.0047890860587358475,
               0.01639220118522644,
               0.016001001000404358,
               -0.0037375856190919876,
               0.0162496455013752,
               0.018870964646339417
            ],
            [
               -0.0039992555975914,
               -0.01669245958328247,
               0.013822749257087708,
               -0.0034997165203094482,
               -0.008369439281523228,
               0.008563127368688583,
               0.012479253113269806,
               0.013382725417613983
            ],
            [
               -0.014426760375499725,
               -0.02222668193280697,
               -0.010457430966198444,
               -0.017516672611236572,
               -0.020026983693242073,
               0.01745438575744629,
               0.018132057040929794,
               -0.016148988157510757
            ],
            [
               0.016425440087914467,
               -0.004256468266248703,
               -0.004701344296336174,
               0.023945868015289307,
               -0.003182952059432864,
               -0.001928679645061493,
               0.011097594164311886,
               0.010709108784794807
            ],
            [
               -0.0039925407618284225,
               -0.014252266846597195,
               0.007473617326468229,
               -0.003804344218224287,
               0.010933192446827888,
               0.022082466632127762,
               -0.010041773319244385,
               0.026547951623797417
            ],
            [
               -0.028361167758703232,
               -0.02637392096221447,
               -0.017893431708216667,
               -0.03771824762225151,
               -0.015416396781802177,
               0.025672325864434242,
               -0.025191068649291992,
               0.012940233573317528
            ],
            [
               -0.014473461546003819,
               -0.0022456813603639603,
               0.0005118902772665024,
               0.0195491760969162,
               0.013305425643920898,
               0.011070679873228073,
               0.016303952783346176,
               -0.006017971783876419
            ],
            [
               0.013583794236183167,
               -0.006982097402215004,
               0.0020557865500450134,
               -0.008108912035822868,
               0.0013932082802057266,
               0.004790717735886574,
               0.012310158461332321,
               0.008492540568113327
            ],
            [
               0.006239555776119232,
               -0.008566590026021004,
               0.004856976680457592,
               0.005170720163732767,
               -0.017896629869937897,
               -0.026673614978790283,
               -0.0071624210104346275,
               0.006730047985911369
            ],
            [
               -2.136826515197754e-05,
               0.013399884104728699,
               -0.004609702154994011,
               -0.016636835411190987,
               -0.005976064130663872,
               -0.018098769709467888,
               -0.02058350294828415,
               -0.012191052548587322
            ],
            [
               -0.007272561080753803,
               -0.0016777906566858292,
               -0.004580749198794365,
               -0.012253043241798878,
               0.009719129651784897,
               -0.013525828719139099,
               0.008718807250261307,
               -0.007146837189793587
            ],
            [
               -0.007201776839792728,
               -0.011534362100064754,
               -0.014294122345745564,
               0.004709688946604729,
               0.006557399407029152,
               0.005005206912755966,
               0.015882648527622223,
               0.008540540933609009
            ],
            [
               0.008770082145929337,
               0.00788254477083683,
               -0.0032001491636037827,
               -0.009378671646118164,
               0.013988014310598373,
               3.386102616786957e-05,
               0.02238732948899269,
               -0.021528806537389755
            ],
            [
               -0.005271728150546551,
               0.00025946422829292715,
               0.00276474142447114,
               0.045070212334394455,
               0.00046077516162768006,
               -0.019178709015250206,
               -0.013677755370736122,
               0.014747905544936657
            ],
            [
               -0.010223854333162308,
               0.005462801083922386,
               -0.015538835898041725,
               0.002265002578496933,
               0.013458024710416794,
               0.0034410543739795685,
               0.0055510513484478,
               -0.019036652520298958
            ],
            [
               -0.01583842933177948,
               0.0002533774822950363,
               0.017789941281080246,
               -0.002643335610628128,
               -0.019724836573004723,
               -0.01930856890976429,
               -0.0007039029151201248,
               -0.018701164051890373
            ],
            [
               0.0008957255631685257,
               0.011218678206205368,
               -0.004189373925328255,
               -0.015909496694803238,
               -0.01196582242846489,
               0.015189927071332932,
               0.00509115494787693,
               -0.00593307800590992
            ],
            [
               -0.005123594775795937,
               0.000978739932179451,
               0.0005790069699287415,
               -0.0026243403553962708,
               -0.014906608499586582,
               -0.0032882578670978546,
               0.022348038852214813,
               0.016905561089515686
            ],
            [
               0.0024301097728312016,
               -0.017906565219163895,
               0.002150596585124731,
               0.011852935887873173,
               0.00920030102133751,
               0.012235541827976704,
               -0.003769552567973733,
               0.02408069558441639
            ],
            [
               0.013529293239116669,
               -0.003931617364287376,
               0.008939336985349655,
               -0.016645921394228935,
               -0.0021164603531360626,
               -0.0037142373621463776,
               0.02218841388821602,
               -6.5676867961883545e-06
            ],
            [
               -0.00753179844468832,
               -0.013867493718862534,
               0.017539236694574356,
               -0.019973676651716232,
               0.01376202329993248,
               0.002902703359723091,
               -0.00932835228741169,
               -0.019244177266955376
            ],
            [
               0.0050543081015348434,
               -0.0020345766097307205,
               -0.013688377104699612,
               -0.013754927553236485,
               0.013728119432926178,
               -0.01001996360719204,
               -0.02002806030213833,
               -0.01882535219192505
            ],
            [
               0.01699398085474968,
               0.0006854087114334106,
               0.014949094504117966,
               -0.002906953915953636,
               -0.022633416578173637,
               -0.003439541906118393,
               -0.004392318427562714,
               0.004403792321681976
            ],
            [
               -0.00367907015606761,
               0.001042687799781561,
               -0.0023891835007816553,
               0.01360202208161354,
               -0.024372374638915062,
               -0.014522661454975605,
               -0.006676958873867989,
               0.02627873420715332
            ],
            [
               -0.02157488279044628,
               0.019905582070350647,
               0.010579150170087814,
               0.015317469835281372,
               -0.014350008219480515,
               0.00034873373806476593,
               -0.020760171115398407,
               0.017148468643426895
            ],
            [
               0.0046393293887376785,
               -0.01062481664121151,
               0.0020909514278173447,
               -0.010685180313885212,
               0.0190725214779377,
               0.001996999606490135,
               -0.022171661257743835,
               0.014223054051399231
            ],
            [
               -0.01184142753481865,
               0.014461223036050797,
               0.011945966631174088,
               -0.003617396578192711,
               -0.009955181740224361,
               0.014346055686473846,
               -0.020874347537755966,
               0.0033162031322717667
            ],
            [
               0.015281077474355698,
               -0.017459377646446228,
               0.0195065476000309,
               -1.4217570424079895e-05,
               0.008470963686704636,
               0.004268532618880272,
               -0.014602689072489738,
               0.017650634050369263
            ],
            [
               -0.007143810857087374,
               0.014186552725732327,
               -0.012231048196554184,
               0.03493836522102356,
               0.0010489722480997443,
               0.00458501698449254,
               -0.013195542618632317,
               0.01624968834221363
            ],
            [
               -0.019017940387129784,
               -0.020381951704621315,
               0.0038995034992694855,
               0.0019692014902830124,
               -0.007451280020177364,
               0.01817576214671135,
               0.012821346521377563,
               -0.008170886896550655
            ],
            [
               -0.021973395720124245,
               0.010082617402076721,
               -0.015832439064979553,
               -0.009577212855219841,
               -0.009251664392650127,
               0.01915864273905754,
               -0.02064518816769123,
               -0.012330003082752228
            ],
            [
               -0.020786462351679802,
               -0.009538553655147552,
               0.01525907963514328,
               0.02090902253985405,
               -0.005438055843114853,
               0.016117658466100693,
               0.02019130066037178,
               0.00768103264272213
            ],
            [
               -0.007056450471282005,
               -0.0075580403208732605,
               -0.01691034995019436,
               -0.018162420019507408,
               -0.0014669839292764664,
               0.013481516391038895,
               0.005985405296087265,
               -0.0008791778236627579
            ],
            [
               -0.010219029150903225,
               -0.002617820166051388,
               -0.022206345573067665,
               0.03500136733055115,
               -0.012625678442418575,
               -0.014680569060146809,
               0.0236166100949049,
               0.04240173473954201
            ],
            [
               0.0020830463618040085,
               -0.018409263342618942,
               -0.020859504118561745,
               -0.021848434582352638,
               -0.007004894316196442,
               -0.004408935084939003,
               0.016531288623809814,
               -0.004643719643354416
            ],
            [
               -0.012086822651326656,
               0.004353730008006096,
               0.020439013838768005,
               0.003570200875401497,
               -0.022357100620865822,
               0.02032705768942833,
               0.021864965558052063,
               0.017132598906755447
            ],
            [
               0.012943588197231293,
               0.018793433904647827,
               -0.01924387365579605,
               -0.014352140948176384,
               -0.0052340067923069,
               -0.01942353881895542,
               0.006577504798769951,
               0.020631976425647736
            ],
            [
               0.004109781235456467,
               0.004206400364637375,
               0.00472639873623848,
               -0.014498529024422169,
               -0.005809532478451729,
               0.004724396392703056,
               0.00716753676533699,
               0.018578965216875076
            ],
            [
               0.021643079817295074,
               0.008169090375304222,
               -0.02160031907260418,
               0.015946000814437866,
               -0.0028231616597622633,
               0.009999082423746586,
               0.002044759225100279,
               0.030802574008703232
            ],
            [
               -0.01705140620470047,
               0.019650347530841827,
               -0.012385312467813492,
               -0.006602892652153969,
               0.001653037965297699,
               0.020563658326864243,
               0.006882093846797943,
               0.015432994812726974
            ],
            [
               0.011310912668704987,
               -0.0036773681640625,
               -0.022643810138106346,
               0.011918779462575912,
               -0.004596501588821411,
               0.010058682411909103,
               0.004866806790232658,
               -0.004064891487360001
            ],
            [
               0.0016229059547185898,
               -0.0141756571829319,
               -0.015168936923146248,
               0.01778355985879898,
               -0.0015089251101016998,
               0.006998501718044281,
               0.017329562455415726,
               -0.011359946802258492
            ],
            [
               0.005406562238931656,
               -0.016673818230628967,
               0.0054848697036504745,
               -0.0005453433841466904,
               0.00975136086344719,
               -0.002798657864332199,
               0.016704842448234558,
               0.017546482384204865
            ],
            [
               0.004653035197407007,
               -0.0010265015298500657,
               -0.021858276799321175,
               0.022902218624949455,
               -0.002476801397278905,
               0.01134916115552187,
               0.02383946068584919,
               0.03800947591662407
            ],
            [
               0.006412196904420853,
               0.022179093211889267,
               -0.012819514609873295,
               0.02174728363752365,
               -0.01512821577489376,
               -0.022565685212612152,
               0.004096461459994316,
               0.001668643206357956
            ],
            [
               0.013657819479703903,
               0.002660965546965599,
               0.005877213552594185,
               0.0019481927156448364,
               0.013956576585769653,
               0.0014253165572881699,
               -0.006849354133009911,
               0.0005581621080636978
            ],
            [
               -0.013634596951305866,
               0.004755284637212753,
               -0.0017713401466608047,
               -0.00035195983946323395,
               0.006157258525490761,
               0.011983506381511688,
               0.007986066862940788,
               0.016584105789661407
            ],
            [
               -0.011669585481286049,
               -0.009289387613534927,
               0.013476010411977768,
               -0.01741555891931057,
               0.017137844115495682,
               0.01653674989938736,
               -0.010236004367470741,
               0.010477971285581589
            ],
            [
               0.0023013672325760126,
               -0.014632834121584892,
               0.011587359011173248,
               0.03495742008090019,
               0.01273188553750515,
               0.00977411586791277,
               0.014898866415023804,
               0.01813923753798008
            ],
            [
               -0.019121218472719193,
               -0.00551542267203331,
               0.008481331169605255,
               -0.008905456401407719,
               -0.017763366922736168,
               -0.005286606028676033,
               -0.004811236634850502,
               0.00815831683576107
            ],
            [
               0.02203051745891571,
               -0.0029287077486515045,
               0.013241160660982132,
               0.010273613035678864,
               0.006819222122430801,
               -0.0028005409985780716,
               -0.021411174908280373,
               0.018532928079366684
            ],
            [
               -0.0014081764966249466,
               0.018376916646957397,
               0.007830042392015457,
               0.021360017359256744,
               -0.022478122264146805,
               -0.017661215737462044,
               -0.018772277981042862,
               -0.011679297313094139
            ],
            [
               -0.020248372107744217,
               -0.018121851608157158,
               -0.008357664570212364,
               -0.014921256341040134,
               -0.020781874656677246,
               -0.010537165217101574,
               0.021314386278390884,
               -0.011575997807085514
            ],
            [
               -0.0006148656248115003,
               -0.025413276627659798,
               -0.023950891569256783,
               0.045984040945768356,
               -0.0046519143506884575,
               0.013022852130234241,
               -0.007289042696356773,
               0.03127998858690262
            ],
            [
               -0.011146670207381248,
               0.0029045436531305313,
               0.00945143774151802,
               0.015288636088371277,
               -0.012876227498054504,
               0.016734551638364792,
               0.022435881197452545,
               -0.011289135552942753
            ],
            [
               -0.0045226383954286575,
               -0.011883731931447983,
               0.0018977262079715729,
               0.002408502623438835,
               -0.01311409194022417,
               0.009992387145757675,
               -0.011585650034248829,
               0.006821474060416222
            ],
            [
               0.019602205604314804,
               0.01067529246211052,
               0.0026492122560739517,
               0.00830063596367836,
               0.017036128789186478,
               0.007848918437957764,
               0.008457619696855545,
               -0.01481833215802908
            ],
            [
               -0.0002780091017484665,
               0.011717107146978378,
               0.006851976737380028,
               0.014407530426979065,
               -0.004875278100371361,
               0.010038871318101883,
               -0.007736574858427048,
               0.004661789163947105
            ],
            [
               -0.006340638734400272,
               -0.004389328882098198,
               -0.021549129858613014,
               0.04320765659213066,
               0.017259802669286728,
               -0.007233828771859407,
               0.007923493161797523,
               0.0033718168269842863
            ],
            [
               0.0023765023797750473,
               0.01023096963763237,
               0.005136501044034958,
               -0.016140058636665344,
               -0.017641987651586533,
               -0.014157500118017197,
               -0.019247448071837425,
               -0.011506122536957264
            ],
            [
               0.01141558587551117,
               -0.008138424716889858,
               -0.02233641780912876,
               0.021916449069976807,
               -0.019817184656858444,
               -0.008010519668459892,
               -0.019097909331321716,
               0.020166032016277313
            ],
            [
               -0.012506388127803802,
               -0.019940288737416267,
