[
   {
      "config": {
         "name": "conv2d_18",
         "trainable": true,
         "batch_input_shape": [
            null,
            96,
            96,
            1
         ],
         "dtype": "float32",
         "filters": 5,
         "kernel_size": [
            2,
            2
         ],
         "strides": [
            1,
            1
         ],
         "padding": "same",
         "data_format": "channels_last",
         "dilation_rate": [
            1,
            1
         ],
         "groups": 1,
         "activation": "relu",
         "use_bias": true,
         "kernel_initializer": {
            "class_name": "HeUniform",
            "config": {
               "seed": null
            }
         },
         "bias_initializer": {
            "class_name": "Zeros",
            "config": {}
         },
         "kernel_regularizer": null,
         "bias_regularizer": null,
         "activity_regularizer": null,
         "kernel_constraint": null,
         "bias_constraint": null
      },
      "weights_biases": [
         [
            [
               [
                  [
                     -0.35482192039489746,
                     -0.40707600116729736,
                     -0.9565306305885315,
                     1.1751806735992432,
                     -0.022947637364268303
                  ]
               ],
               [
                  [
                     -0.8741417527198792,
                     -0.3974948823451996,
                     1.3125171661376953,
                     -1.3996409177780151,
                     0.9645674824714661
                  ]
               ]
            ],
            [
               [
                  [
                     0.09026724100112915,
                     0.2773357033729553,
                     0.08419296890497208,
                     -0.23464901745319366,
                     -0.3517090082168579
                  ]
               ],
               [
                  [
                     0.7588944435119629,
                     0.5912564992904663,
                     -1.4390360116958618,
                     -0.23562179505825043,
                     -0.8059500455856323
                  ]
               ]
            ]
         ],
         [
            0.25623372197151184,
            -0.07940929383039474,
            0.48793959617614746,
            0.4532415568828583,
            0.17753680050373077
         ]
      ]
   },
   {
      "config": {
         "name": "max_pooling2d_18",
         "trainable": true,
         "dtype": "float32",
         "pool_size": [
            2,
            2
         ],
         "padding": "valid",
         "strides": [
            2,
            2
         ],
         "data_format": "channels_last"
      },
      "weights_biases": []
   },
   {
      "config": {
         "name": "flatten_18",
         "trainable": true,
         "dtype": "float32",
         "data_format": "channels_last"
      },
      "weights_biases": []
   },
   {
      "config": {
         "name": "dense_36",
         "trainable": true,
         "dtype": "float32",
         "units": 8,
         "activation": "relu",
         "use_bias": true,
         "kernel_initializer": {
            "class_name": "HeUniform",
            "config": {
               "seed": null
            }
         },
         "bias_initializer": {
            "class_name": "Zeros",
            "config": {}
         },
         "kernel_regularizer": null,
         "bias_regularizer": null,
         "activity_regularizer": null,
         "kernel_constraint": null,
         "bias_constraint": null
      },
      "weights_biases": [
         [
            [
               -0.03874516859650612,
               0.022034700959920883,
               -0.007339410483837128,
               -0.011853637173771858,
               -0.052566107362508774,
               -0.00011599436402320862,
               0.009090934880077839,
               0.015302065759897232
            ],
            [
               -0.008336198516190052,
               -0.015828769654035568,
               -0.02176833339035511,
               0.00660890294238925,
               0.012882819399237633,
               -0.007561890408396721,
               -0.022937318310141563,
               -0.014436202123761177
            ],
            [
               -0.004480838775634766,
               -0.017264997586607933,
               0.01731497049331665,
               0.004952998831868172,
               -0.0023759212344884872,
               0.0027326419949531555,
               -0.014540251344442368,
               -0.015445493161678314
            ],
            [
               0.018519315868616104,
               0.009143631905317307,
               -0.009925962425768375,
               0.0026571843773126602,
               -0.022320574149489403,
               0.015166427940130234,
               0.0158480703830719,
               0.020096231251955032
            ],
            [
               0.033238813281059265,
               -0.0017772690625861287,
               0.018311046063899994,
               -0.0077312542125582695,
               0.030942099168896675,
               0.003715723752975464,
               -0.035423606634140015,
               0.009977605193853378
            ],
            [
               -0.0227537602186203,
               0.0075797829777002335,
               0.011400189250707626,
               -0.01442020945250988,
               -0.06223485991358757,
               -0.011290588416159153,
               -0.0023456469643861055,
               0.008621308952569962
            ],
            [
               -0.010084182024002075,
               0.0035899828653782606,
               -0.003859021235257387,
               0.009256858378648758,
               -0.015110716223716736,
               -0.022351643070578575,
               -0.018491236492991447,
               0.008975123055279255
            ],
            [
               0.019739195704460144,
               -0.016465123742818832,
               0.013061661273241043,
               -0.019234513863921165,
               0.010132338851690292,
               0.017816156148910522,
               -0.001688281074166298,
               0.016571369022130966
            ],
            [
               0.010646361857652664,
               -0.009206513874232769,
               0.0005298908799886703,
               -0.004125136882066727,
               -0.00066409632563591,
               -0.00041933171451091766,
               -0.003804212436079979,
               0.01033296063542366
            ],
            [
               0.038274455815553665,
               -0.030506417155265808,
               0.01603338122367859,
               -0.006955945864319801,
               0.013126589357852936,
               0.016514889895915985,
               -0.008913075551390648,
               0.02229750156402588
            ],
            [
               -0.039483845233917236,
               0.019658856093883514,
               -0.008816231973469257,
               0.020729362964630127,
               -0.060861390084028244,
               0.022067643702030182,
               0.020209742709994316,
               -0.004882095381617546
            ],
            [
               -0.007002619560807943,
               -0.015259834937751293,
               -0.02786865457892418,
               -0.013749336823821068,
               0.015168704092502594,
               0.00835099071264267,
               -0.018882034346461296,
               0.001988797215744853
            ],
            [
               -0.0028518065810203552,
               -0.003665393218398094,
               -0.021784361451864243,
               -0.011511210352182388,
               -0.014388264156877995,
               -0.011595313437283039,
               -0.0010289791971445084,
               0.005399269983172417
            ],
            [
               0.00034496746957302094,
               -0.008690711110830307,
               0.006590040400624275,
               0.021120939403772354,
               0.01448032259941101,
               -0.022525258362293243,
               0.016214434057474136,
               0.021811608225107193
            ],
            [
               0.02099188044667244,
               -0.034135039895772934,
               0.007552279159426689,
               0.011535897850990295,
               0.00175726437009871,
               -0.01331022847443819,
               -0.04358964040875435,
               0.01595354825258255
            ],
            [
               -0.012564954347908497,
               0.014526307582855225,
               0.018233325332403183,
               0.003872748464345932,
               -0.0364329032599926,
               -0.015958189964294434,
               0.01764620654284954,
               0.014073174446821213
            ],
            [
               -0.02495630644261837,
               -0.029617510735988617,
               0.013667556457221508,
               -0.00378286000341177,
               -0.004222523886710405,
               0.0011343024671077728,
               -0.04911394789814949,
               0.0080653615295887
            ],
            [
               0.010827139019966125,
               -0.016580045223236084,
               0.016769565641880035,
               -0.0038003604859113693,
               0.0010926835238933563,
               -0.02060859650373459,
               -0.015772130340337753,
               0.0032005347311496735
            ],
            [
               0.00999431312084198,
               -0.004715928807854652,
               -0.0038533080369234085,
               -0.009751438163220882,
               0.0033006519079208374,
               -0.022492121905088425,
               -0.003944121301174164,
               -0.00983243528753519
            ],
            [
               0.05263957008719444,
               -0.035877835005521774,
               0.00882922112941742,
               -0.009524907916784286,
               0.015009863302111626,
               -0.014730185270309448,
               -0.019945159554481506,
               -0.01995823346078396
            ],
            [
               -0.006289632525295019,
               0.012685157358646393,
               0.0012109074741601944,
               -0.02067749761044979,
               -0.049084629863500595,
               0.02010217308998108,
               0.006679154932498932,
               0.016425952315330505
            ],
            [
               -0.006575881969183683,
               -0.012832875363528728,
               -0.02404470182955265,
               -0.005566849838942289,
               0.013907471671700478,
               -0.015648799017071724,
               -0.005602509249001741,
               0.010979367420077324
            ],
            [
               -0.010351094417273998,
               0.018169552087783813,
               -0.020978061482310295,
               0.0114666186273098,
               0.002690516412258148,
               -0.021074673160910606,
               0.017997514456510544,
               -0.001192186027765274
            ],
            [
               -0.0062857624143362045,
               0.011678874492645264,
               0.01327577605843544,
               0.015495438128709793,
               -0.0068254414945840836,
               -0.015162941068410873,
               -0.0019376203417778015,
               0.012157142162322998
            ],
            [
               0.04879504442214966,
               -0.007204554043710232,
               0.014138370752334595,
               0.019150134176015854,
               0.012700464576482773,
               -0.007502008229494095,
               -0.02961968258023262,
               0.017555788159370422
            ],
            [
               -0.022708289325237274,
               -0.018565848469734192,
               0.0168595127761364,
               -0.015595058910548687,
               -0.0690026506781578,
               -0.02219633013010025,
               0.004538982640951872,
               0.016674455255270004
            ],
            [
               -0.01591026969254017,
               -0.030300863087177277,
               0.005953433457762003,
               -0.010282169096171856,
               -0.01781412772834301,
               -0.02424541488289833,
               -0.011450422927737236,
               -0.013014798983931541
            ],
            [
               -0.005611518397927284,
               -0.012096469290554523,
               -0.015547966584563255,
               -0.0049835070967674255,
               -0.012263762764632702,
               -0.014708997681736946,
               0.008222516626119614,
               -0.004070589318871498
            ],
            [
               0.004458880051970482,
               0.02224927395582199,
               0.016362912952899933,
               0.0008902847766876221,
               0.0012764949351549149,
               -0.020221248269081116,
               0.021480359137058258,
               -0.001789649948477745
            ],
            [
               0.022072283551096916,
               -0.0074972109869122505,
               0.010296057909727097,
               -0.01580492965877056,
               0.017768722027540207,
               -0.008211967535316944,
               -0.010052252560853958,
               0.015564680099487305
            ],
            [
               -0.001273076399229467,
               -0.01083863154053688,
               0.018690578639507294,
               -0.011272605508565903,
               -0.05809061601758003,
               -0.01915617845952511,
               -0.00841353740543127,
               0.014651317149400711
            ],
            [
               -0.022322943434119225,
               -0.029517535120248795,
               0.005535452160984278,
               -0.010234293527901173,
               0.017153531312942505,
               0.003540870500728488,
               -0.030678657814860344,
               -0.009102283045649529
            ],
            [
               -0.012975881807506084,
               0.01917741447687149,
               -0.01771879941225052,
               0.009296867996454239,
               0.0013957768678665161,
               0.014434240758419037,
               0.019622832536697388,
               0.00512002594769001
            ],
            [
               -0.01153565663844347,
               -0.010306749492883682,
               0.005249258130788803,
               -0.017756115645170212,
               0.005297727882862091,
               -0.01754002645611763,
               -0.004154067486524582,
               0.004266632720828056
            ],
            [
               0.01868215762078762,
               -0.0017244034679606557,
               -0.01913817971944809,
               0.016276255249977112,
               0.01608721911907196,
               -0.01515568234026432,
               -0.02577938884496689,
               0.005228571593761444
            ],
            [
               0.0032986775040626526,
               0.016986366361379623,
               0.01889040693640709,
               0.00848919153213501,
               -0.037492942065000534,
               0.006471369415521622,
               0.022505933418869972,
               0.011087004095315933
            ],
            [
               -0.02095324732363224,
               -0.007776674814522266,
               -0.009207168594002724,
               -0.016736354678869247,
               -0.0002567016636021435,
               0.010755229741334915,
               -0.009251870214939117,
               -0.022803472355008125
            ],
            [
               -0.0027906764298677444,
               0.0017359554767608643,
               0.00263870507478714,
               -0.010255157016217709,
               -0.022528566420078278,
               -0.020677868276834488,
               0.01694101095199585,
               -0.020569082349538803
            ],
            [
               -0.01490781083703041,
               0.010911107063293457,
               -0.0153939388692379,
               0.016137849539518356,
               0.018217027187347412,
               0.018408510833978653,
               0.018310945481061935,
               -0.009723944589495659
            ],
            [
               0.05731310695409775,
               -0.032949551939964294,
               0.00816560909152031,
               -0.009640640579164028,
               0.0031202747486531734,
               0.01872575655579567,
               -0.03670420125126839,
               0.018137864768505096
            ],
            [
               -0.031339868903160095,
               0.021320607513189316,
               -0.018267691135406494,
               -0.020137758925557137,
               -0.0456034280359745,
               -0.014847561717033386,
               -0.0031974937301129103,
               -0.004279414191842079
            ],
            [
               -0.002928355010226369,
               -0.017061995342373848,
               0.0008359746425412595,
               0.005803573410958052,
               0.004248297773301601,
               0.0034269255120307207,
               -0.04998525232076645,
               -0.006658448837697506
            ],
            [
               -0.008463113568723202,
               0.019173230975866318,
               -0.0028312020003795624,
               -0.01352110505104065,
               0.0004167482256889343,
               -0.013148512691259384,
               0.0018765442073345184,
               -0.015399189665913582
            ],
            [
               -0.0029920917004346848,
               0.016788799315690994,
               -0.018138037994503975,
               -0.00311487540602684,
               0.003987295553088188,
               0.004419164732098579,
               0.018094025552272797,
               -0.008074931800365448
            ],
            [
               0.03713727742433548,
               -0.01835598796606064,
               -0.013461432419717312,
               0.008384734392166138,
               -0.00010248775652144104,
               0.007708793506026268,
               -0.004725201055407524,
               0.018865838646888733
            ],
            [
               -0.034389570355415344,
               2.0295381546020508e-05,
               -0.003553992137312889,
               -0.01685813069343567,
               -0.029954683035612106,
               0.002531563863158226,
               0.018938539549708366,
               -0.01028970256447792
            ],
            [
               -0.012891203165054321,
               -0.026161380112171173,
               0.010157842189073563,
               0.005108505021780729,
               0.01647317036986351,
               -0.025977887213230133,
               -0.017145132645964622,
               -0.018293265253305435
            ],
            [
               0.01457718014717102,
               -0.013302099891006947,
               0.010968439280986786,
               0.006952153518795967,
               0.001267649233341217,
               0.021069642156362534,
               -0.016840649768710136,
               0.004155144095420837
            ],
            [
               -0.006155392155051231,
               -0.01490001380443573,
               -0.018177758902311325,
               0.01821030303835869,
               -0.012918385677039623,
               0.013115491718053818,
               -0.009516228921711445,
               -0.009925402700901031
            ],
            [
               0.043474581092596054,
               -0.009621147997677326,
               0.015157178044319153,
               0.0009929202497005463,
               -0.005516750272363424,
               -0.02159580960869789,
               -0.012991135008633137,
               0.018656648695468903
            ],
            [
               -0.006222726311534643,
               0.0023247357457876205,
               -0.00755996722728014,
               -0.020420514047145844,
               -0.0642283484339714,
               -0.012867477722465992,
               0.02418099157512188,
               0.0077023617923259735
            ],
            [
               -0.02371901273727417,
               -0.014127478934824467,
               0.001985703594982624,
               -0.022513700649142265,
               0.018960092216730118,
               -0.0046666464768350124,
               -0.021701091900467873,
               -0.003278889926150441
            ],
            [
               -0.015375313349068165,
               -0.014630096033215523,
               0.019356902688741684,
               -0.02132466621696949,
               -0.0026619117707014084,
               -0.003167262300848961,
               0.022775962948799133,
               -0.010920743457973003
            ],
            [
               -0.021558750420808792,
               -0.006310345605015755,
               -0.017761941999197006,
               0.0012849941849708557,
               0.0015643760561943054,
               -0.013831304386258125,
               0.004872830584645271,
               0.016608349978923798
            ],
            [
               0.02021164260804653,
               -0.015325474552810192,
               -0.00634341686964035,
               -0.017688274383544922,
               0.0014122197171673179,
               0.019658591598272324,
               -0.025382380932569504,
               0.004532448947429657
            ],
            [
               -0.005042539443820715,
               -0.011322549544274807,
               -0.0034399721771478653,
               -0.021521592512726784,
               -0.048632796853780746,
               -0.00686909444630146,
               -0.003036378649994731,
               0.004883114248514175
            ],
            [
               0.01430112961679697,
               -0.031209681183099747,
               -0.012078512459993362,
               -0.023867569863796234,
               -0.01371505856513977,
               0.001779383746907115,
               -0.0191719438880682,
               -0.004772447980940342
            ],
            [
               -0.007975876331329346,
               0.011170882731676102,
               0.019543416798114777,
               -0.002873554825782776,
               0.01972557231783867,
               0.02109745517373085,
               0.015052452683448792,
               0.0026824306696653366
            ],
            [
               0.018436066806316376,
               0.018621381372213364,
               0.010701905936002731,
               -0.021669885143637657,
               -0.015984345227479935,
               0.006549635902047157,
               -0.0069048646837472916,
               -0.005479009822010994
            ],
            [
               0.03212299570441246,
               -0.035764049738645554,
               -0.00727082509547472,
               -1.504458487033844e-05,
               0.02443874254822731,
               0.0009845197200775146,
               -0.04334304854273796,
               -0.0008189231157302856
            ],
            [
               -0.018075359985232353,
               0.021655600517988205,
               0.019625894725322723,
               -0.016309387981891632,
               -0.030457258224487305,
               -0.0009019766002893448,
               0.01847044937312603,
               0.015027303248643875
            ],
            [
               -0.024028755724430084,
               -0.00615546153858304,
               0.0012116089928895235,
               -0.028464317321777344,
               0.0050361971370875835,
               -0.026743918657302856,
               -0.026969697326421738,
               -0.02231472171843052
            ],
            [
               0.018261726945638657,
               0.022076599299907684,
               -0.009279011748731136,
               0.013199448585510254,
               0.009313106536865234,
               -0.00357622466981411,
               -0.015929361805319786,
               -0.016165290027856827
            ],
            [
               0.021659240126609802,
               -0.01597123220562935,
               -0.010052844882011414,
               0.009349338710308075,
               -0.022710159420967102,
               -0.013997574336826801,
               -0.00020478852093219757,
               0.0030726678669452667
            ],
            [
               0.04124367982149124,
               -0.0014996567042544484,
               -0.01502197701483965,
               0.01810668781399727,
               0.028558045625686646,
               0.0012360680848360062,
               -0.03231101110577583,
               -0.009467389434576035
            ],
            [
               0.0010036539752036333,
               -0.001180628314614296,
               0.0012095756828784943,
               0.020789340138435364,
               -0.02925286814570427,
               -0.0026165377348661423,
               -0.003437749342992902,
               0.004778007045388222
            ],
            [
               0.014163756743073463,
               -0.004756954498589039,
               -0.023561082780361176,
               0.0014972003409639,
               0.012757183983922005,
               -0.014672785997390747,
               -0.011506068520247936,
               0.01071175280958414
            ],
            [
               0.019073523581027985,
               0.007286060601472855,
               -0.021702291443943977,
               -0.0044667962938547134,
               -0.006816752254962921,
               0.014454293996095657,
               -0.008625661954283714,
               0.015213187783956528
            ],
            [
               0.001312021166086197,
               0.01838204637169838,
               0.013909097760915756,
               -0.013649282045662403,
               0.013539612293243408,
               -0.017030827701091766,
               -0.0065599847584962845,
               -0.01492952648550272
            ],
            [
               0.04486558586359024,
               0.0002099853300023824,
               0.012094669044017792,
               0.018707431852817535,
               -0.009290982037782669,
               -0.00848359428346157,
               -0.01609872840344906,
               0.011831693351268768
            ],
            [
               -0.010436656884849072,
               -0.013436904177069664,
               0.02196969836950302,
               0.014397934079170227,
               -0.031022172421216965,
               0.021705910563468933,
               0.009834101423621178,
               0.012973938137292862
            ],
            [
               0.004182474222034216,
               -0.021672390401363373,
               -0.012613615021109581,
               -0.026547519490122795,
               0.018670909106731415,
               -0.02480461075901985,
               -0.013433116488158703,
               0.008181292563676834
            ],
            [
               -0.008283681236207485,
               -0.016296057030558586,
               -0.02050592191517353,
               0.02181345969438553,
               -0.019354263320565224,
               0.01765827089548111,
               0.004716146737337112,
               -0.022289080545306206
            ],
            [
               -0.008136090822517872,
               0.010111048817634583,
               0.007497556507587433,
               0.021797984838485718,
               0.007869496941566467,
               0.01774117350578308,
               0.019885502755641937,
               0.007759330794215202
            ],
            [
               0.026943478733301163,
               -0.03255046159029007,
               -0.009745006449520588,
               -0.016726776957511902,
               0.009353565983474255,
               -0.02019844949245453,
               -0.012804140336811543,
               -0.008682364597916603
            ],
            [
               -0.016992058604955673,
               0.006539247930049896,
               -0.02092512883245945,
               -0.006249371916055679,
               -0.052108604460954666,
               0.018792815506458282,
               -0.005906292237341404,
               0.009628213942050934
            ],
            [
               0.0027817876543849707,
               -0.00654797675088048,
               0.0057419040240347385,
               -0.022288726642727852,
               -0.01121123880147934,
               -0.0036109788343310356,
               -0.008697383105754852,
               0.010875439271330833
            ],
            [
               0.004868634045124054,
               0.007772933691740036,
               0.004847995936870575,
               -0.009954659268260002,
               -0.019099416211247444,
               -0.02049250528216362,
               -0.01610764116048813,
               0.02205491065979004
            ],
            [
               0.014369197189807892,
               0.020958423614501953,
               -0.01678098738193512,
               0.014016412198543549,
               0.0033093467354774475,
               0.006561366841197014,
               -0.010676681064069271,
               -0.003054153174161911
            ],
            [
               0.054262902587652206,
               0.008832798339426517,
               0.016858845949172974,
               0.01172502338886261,
               0.027433546259999275,
               0.020901687443256378,
               -0.004252529237419367,
               0.013629861176013947
            ],
            [
               -0.016349639743566513,
               0.006402000784873962,
               0.0019346494227647781,
               0.005365824326872826,
               -0.047982294112443924,
               -0.02059013396501541,
               0.01752413995563984,
               -0.0063822269439697266
            ],
            [
               -0.01836395636200905,
               -0.0009025261388160288,
               -0.007089780643582344,
               -0.011473316699266434,
               0.008023016154766083,
               0.00973181426525116,
               -0.026599500328302383,
               -0.01067002210766077
            ],
            [
               0.013820525258779526,
               -0.001995787024497986,
               0.011821739375591278,
               0.007119752466678619,
               0.0012731216847896576,
               0.002794327214360237,
               -0.0033575166016817093,
               0.0002621375024318695
            ],
            [
               0.01306435838341713,
               0.009931083768606186,
               -0.0037607867270708084,
               -0.0209761131554842,
               -0.002415841445326805,
               0.011651124805212021,
               -0.0205970611423254,
               0.019276868551969528
            ],
            [
               0.03197549656033516,
               -0.003261704696342349,
               0.01859983429312706,
               0.012194659560918808,
               0.014750913716852665,
               0.008458815515041351,
               -0.03797122836112976,
               0.022371847182512283
            ],
            [
               -0.038477517664432526,
               -0.02040029875934124,
               0.021706368774175644,
               0.017771843820810318,
               -0.04320138320326805,
               0.006374364718794823,
               0.009929904714226723,
               -0.009964066557586193
            ],
            [
               0.005559110548347235,
               -0.007343568839132786,
               -0.01926308311522007,
               -0.018543986603617668,
               -0.0042196777649223804,
               -0.0086066210642457,
               -0.007919734343886375,
               -0.018183859065175056
            ],
            [
               0.010598842054605484,
               0.007816853001713753,
               -0.009778442792594433,
               0.01531173288822174,
               0.011424209922552109,
               0.007875144481658936,
               0.01227429136633873,
               -0.011417252942919731
            ],
            [
               0.013216506689786911,
               -0.0019187405705451965,
               -0.01686372607946396,
               0.00997650995850563,
               0.018544737249612808,
               -0.017434880137443542,
               -0.016695544123649597,
               -0.004766080528497696
            ],
            [
               0.022447185590863228,
               -0.0363926962018013,
               -0.015537725761532784,
               -0.01947878859937191,
               0.02501438744366169,
               0.017835158854722977,
               -0.042481809854507446,
               -0.0015412289649248123
            ],
            [
               -0.03041946515440941,
               -0.014637081883847713,
               -0.001725105568766594,
               -0.02013363502919674,
               -0.030275706201791763,
               0.0036317557096481323,
               0.013037644326686859,
               -0.01875508576631546
            ],
            [
               -0.021144600585103035,
               -0.006045025307685137,
               0.0012730129528790712,
               -0.01837828755378723,
               0.011079195886850357,
               0.013232763856649399,
               -0.03634802997112274,
               0.014791627414524555
            ],
            [
               -0.010111292824149132,
               -0.003555046394467354,
               0.011866755783557892,
               0.00907033309340477,
               -0.012677925638854504,
               0.0006655491888523102,
               0.016130711883306503,
               0.020935378968715668
            ],
            [
               0.02280314266681671,
               0.016608193516731262,
               0.02059171348810196,
               -0.01740582473576069,
               0.001804068684577942,
               -0.012111465446650982,
               0.0203285850584507,
               -0.0018224585801362991
            ],
            [
               0.022543182596564293,
               -0.03324548900127411,
               -0.016670292243361473,
               0.015884924679994583,
               0.013796753250062466,
               -0.017551559954881668,
               -0.01860751584172249,
               -0.018394386395812035
            ],
            [
               -0.005884119775146246,
               0.01655864715576172,
               -0.021102139726281166,
               -0.012249968945980072,
               -0.05183927342295647,
               0.011507101356983185,
               0.0005168606294319034,
               0.019768211990594864
            ],
            [
               0.008664488792419434,
               -0.0031488174572587013,
               -0.015395030379295349,
               -0.0036514897365123034,
               0.02031947299838066,
               0.017120350152254105,
               -0.03103964775800705,
               0.007541285362094641
            ],
            [
               -0.0004611462354660034,
               0.020256061106920242,
               -0.012646214105188847,
               -0.0011177565902471542,
               0.021465029567480087,
               0.019837431609630585,
               0.002625495195388794,
               0.012780208140611649
            ],
            [
               0.007738174870610237,
               -0.005517952144145966,
               0.02281172201037407,
               -0.00934283621609211,
               0.013128019869327545,
               0.004374580457806587,
               -0.000870363786816597,
               0.007115937769412994
            ],
            [
               0.014430125243961811,
               -0.0025833777617663145,
               0.014476589858531952,
               -0.02023821324110031,
               -0.004767743404954672,
               -0.014520026743412018,
               -0.04377727210521698,
               -0.0163442213088274
            ],
            [
               0.0018284628167748451,
               -0.014337721280753613,
               0.017693400382995605,
               -0.010889440774917603,
               -0.029512327164411545,
               0.0006240010261535645,
               -0.00588096771389246,
               -0.021824901923537254
            ],
            [
               -0.011927763000130653,
               -0.006538372952491045,
               -0.02110147848725319,
               -0.027668403461575508,
               -0.0028427601791918278,
               -0.012091482989490032,
               -0.03651084378361702,
               -0.02432258240878582
            ],
            [
               -0.014126153662800789,
               0.010743331164121628,
               0.003878701478242874,
               0.010729998350143433,
               0.015719052404165268,
               0.010072525590658188,
               -0.019595924764871597,
               0.004598934203386307
            ],
            [
               0.003911653533577919,
               -0.0065102409571409225,
               -0.011632345616817474,
               0.012406706809997559,
               -0.01717020757496357,
               -0.008423034101724625,
               -0.003169286996126175,
               -0.006547801196575165
            ],
            [
               0.03376748412847519,
               -0.013074924238026142,
               -0.016492193564772606,
               -0.012546124868094921,
               0.018079232424497604,
               -0.016735069453716278,
               -0.001983068184927106,
               -0.00692174956202507
            ],
            [
               -0.0012816371163353324,
               0.0129682756960392,
               0.021447177976369858,
               -0.001220734789967537,
               -0.04306047782301903,
               -0.0032289326190948486,
               0.032846201211214066,
               -0.005149245262145996
            ],
            [
               -0.01128067634999752,
               -0.028725966811180115,
               -0.00020500688697211444,
               0.0019350037910044193,
               0.01328149251639843,
               0.009886924177408218,
               -0.022014746442437172,
               -0.014561228454113007
            ],
            [
               0.002521112561225891,
               -0.0016403980553150177,
               -0.003018556162714958,
               0.014485012739896774,
               -0.022474857047200203,
               -0.007819117046892643,
               -0.009631368331611156,
               0.021369587630033493
            ],
            [
               0.0067016612738370895,
               0.020533178001642227,
               -0.009573682211339474,
               -0.0018701553344726562,
               -0.00554402731359005,
               -0.01587104983627796,
               0.00824558176100254,
               -0.010375340469181538
            ],
            [
               0.025167785584926605,
               -0.019510256126523018,
               0.011549901217222214,
               0.013561893254518509,
               0.00355941872112453,
               -0.01946146972477436,
               -0.023317791521549225,
               0.009389184415340424
            ],
            [
               -0.016681652516126633,
               -0.0001198742538690567,
               -0.0043885912746191025,
               0.0049520861357450485,
               -0.06370443850755692,
               -0.012426387518644333,
               0.01783236674964428,
               0.01290181651711464
            ],
            [
               0.01485108770430088,
               0.004442465491592884,
               -0.02580392360687256,
               -0.0035048676654696465,
               -0.016763415187597275,
               -0.012523205019533634,
               -0.044371191412210464,
               0.008996275253593922
            ],
            [
               0.0011067967861890793,
               0.008438635617494583,
               0.0030637606978416443,
               -0.010323595255613327,
               -0.005725624039769173,
               0.0016779471188783646,
               -0.005456434562802315,
               -0.011965757235884666
            ],
            [
               0.0002444591373205185,
               -0.019553696736693382,
               0.006962170824408531,
               0.006258273497223854,
               0.004635792225599289,
               0.005994612351059914,
               0.013385113328695297,
               -0.001229582354426384
            ],
            [
               0.025629382580518723,
               -0.028081277385354042,
               -0.012343736365437508,
               -0.020273901522159576,
               0.006638861261308193,
               -0.0030488260090351105,
               -0.035875339061021805,
               -0.011752589605748653
            ],
            [
               -0.030929286032915115,
               -0.004244590178132057,
               -0.0166932325810194,
               0.021048475056886673,
               -0.06044084206223488,
               -0.009979095309972763,
               0.01057774480432272,
               -0.012191765010356903
            ],
            [
               -0.001793661736883223,
               -0.01660413108766079,
               0.006506567820906639,
               -0.00019401474855840206,
               -0.0008299400797113776,
               0.01154340524226427,
               -0.028923973441123962,
               -0.024530503898859024
            ],
            [
               -6.219185888767242e-05,
               -0.01678888127207756,
               -0.0027446113526821136,
               0.018911845982074738,
               0.021405790001153946,
               -0.0014912355691194534,
               -0.006028266623616219,
               0.01083197072148323
            ],
            [
               -0.0146285779774189,
               0.007610008120536804,
               -0.003191111609339714,
               -0.010946203023195267,
               0.011353682726621628,
               0.013967838138341904,
               -0.0047387611120939255,
               0.006109539419412613
            ],
            [
               0.0572085939347744,
               -0.03381241858005524,
               -0.014733945019543171,
               -0.005568871274590492,
               0.025418581441044807,
               -0.009073179215192795,
               -0.015867380425333977,
               -0.018984200432896614
            ],
            [
               0.002020597690716386,
               -0.0026635117828845978,
               -0.01240964513272047,
               0.01662377640604973,
               -0.06206488236784935,
               0.01591164618730545,
               0.017364410683512688,
               -0.017032606527209282
            ],
            [
               0.01128782331943512,
               -0.03411230444908142,
               0.017068052664399147,
               -0.01537797600030899,
               0.013944325968623161,
               -0.02563553676009178,
               -0.024049969390034676,
               -0.007395918481051922
            ],
            [
               -0.014047290198504925,
               -0.006140418350696564,
               0.0027504395693540573,
               0.014325246214866638,
               0.00579034723341465,
               0.018011461943387985,
               -0.02154526673257351,
               0.010740559548139572
            ],
            [
               0.004113476723432541,
               0.0011380184441804886,
               -0.012076206505298615,
               0.019238822162151337,
               0.0037190038710832596,
               0.004685409367084503,
               -0.007076544687151909,
               0.005789469927549362
            ],
            [
               0.032958026975393295,
               -0.005931144114583731,
               0.0010694880038499832,
               0.006684210151433945,
               0.002181051764637232,
               0.010950323194265366,
               -0.020480617880821228,
               0.013597805052995682
            ],
            [
               -0.004857347812503576,
               -0.0018517710268497467,
               -0.016265712678432465,
               0.020788203924894333,
               -0.05627981945872307,
               -0.01098403986543417,
               0.002803663956001401,
               -0.01591322384774685
            ],
            [
               -0.008020338602364063,
               -0.03571072220802307,
               0.013957548886537552,
               0.0061943125911056995,
               0.010136047378182411,
               0.009967483580112457,
               -0.015987025573849678,
               -0.02646740712225437
            ],
            [
               0.016471538692712784,
               0.0029301494359970093,
               -0.02152678370475769,
               0.019548457115888596,
               -0.006318327039480209,
               0.010106515139341354,
               -0.01028071902692318,
               0.004513654857873917
            ],
            [
               0.0051846615970134735,
               0.014165166765451431,
               -0.007725921459496021,
               -0.011160893365740776,
               0.001261107623577118,
               0.0006064418703317642,
               0.014692679047584534,
               -0.00941662397235632
            ],
            [
               0.028976857662200928,
               -0.018769949674606323,
               -0.007806058973073959,
               0.020281106233596802,
               0.012387220747768879,
               0.015349570661783218,
               -0.013992811553180218,
               -0.0034683365374803543
            ],
            [
               -0.03974658250808716,
               -0.007397445850074291,
               -0.017976295202970505,
               0.02176714316010475,
               -0.029393162578344345,
               -0.010095111094415188,
               0.014694634824991226,
               0.0033420808613300323
            ],
            [
               -0.0011043078266084194,
               0.004179243464022875,
               -0.0009231532458215952,
               0.016705745831131935,
               0.020936932414770126,
               -0.007670169696211815,
               -0.042982421815395355,
               0.0052484432235360146
            ],
            [
               0.015936028212308884,
               -0.00482700951397419,
               -0.006652254611253738,
               -0.01366574689745903,
               -0.01850917935371399,
               0.021569229662418365,
               -0.009590799920260906,
               -0.0004184022545814514
            ],
            [
               -0.012963595800101757,
               0.0214768648147583,
               -0.012045545503497124,
               -0.018786229193210602,
               0.0026232413947582245,
               0.012544035911560059,
               0.02174222841858864,
               -0.022474052384495735
            ],
            [
               0.04664631932973862,
               -0.026981400325894356,
               -0.012928375042974949,
               0.016897879540920258,
               -0.012195313349366188,
               0.003425177186727524,
               -0.014956077560782433,
               0.021933164447546005
            ],
            [
               -0.024380598217248917,
               -0.007863114587962627,
               -0.0104744341224432,
               -0.01651783660054207,
               -0.07102732360363007,
               0.005485778674483299,
               -0.007699351757764816,
               0.019078213721513748
            ],
            [
               -0.014802955090999603,
               -0.026467394083738327,
               0.011091277003288269,
               0.0047319079749286175,
               -0.0023180446587502956,
               -0.024204974994063377,
               -0.005722042638808489,
               0.006082766689360142
            ],
            [
               -0.009384864009916782,
               -0.00015557743608951569,
               -0.0029427241533994675,
               0.0019341986626386642,
               -0.01361470390111208,
               -0.004224985837936401,
               0.013497356325387955,
               0.017255738377571106
            ],
            [
               -0.015745168551802635,
               -0.016809051856398582,
               -0.02078796923160553,
               -0.002589147537946701,
               -0.019964246079325676,
               0.015221882611513138,
               0.02164582535624504,
               0.002084139734506607
            ],
            [
               0.03387753665447235,
               0.004551263060420752,
               -0.02045343816280365,
               0.022702351212501526,
               0.026912732049822807,
               0.01179235428571701,
               -0.042891085147857666,
               0.006249295547604561
            ],
            [
               0.0024473373778164387,
               -0.0037508290261030197,
               -0.001476304605603218,
               -0.01576441526412964,
               -0.03581896796822548,
               0.015058334916830063,
               0.010514448396861553,
               -0.0013743434101343155
            ],
            [
               0.0014112312346696854,
               -0.03209076449275017,
               0.011019829660654068,
               0.006200012285262346,
               0.017356399446725845,
               -0.027407746762037277,
               -0.04755634069442749,
               0.009979263879358768
            ],
            [
               0.00041358545422554016,
               -0.010312647558748722,
               0.0007027667015790939,
               -0.021520771086215973,
               0.00783798098564148,
               0.014398559927940369,
               -0.01379185076802969,
               0.020534079521894455
            ],
            [
               0.008430924266576767,
               -0.007423176430165768,
               0.011216457933187485,
               0.009759005159139633,
               -0.010250118561089039,
               -0.004639780148863792,
               -0.003668505698442459,
               -0.0010962970554828644
            ],
            [
               0.025315800681710243,
               0.008619270287454128,
               0.004251273348927498,
               0.016360383480787277,
               0.012332298792898655,
               0.02259093150496483,
               -0.005146840587258339,
               0.014710929244756699
            ],
            [
               -0.01522592268884182,
               0.0009499732404947281,
               -0.014360427856445312,
               0.021775197237730026,
               -0.06650666147470474,
               -0.013265029527246952,
               0.011383439414203167,
               0.02082470804452896
            ],
            [
               -0.016657982021570206,
               -0.03617382049560547,
               -0.00828004814684391,
               -0.016264358535408974,
               0.010442860424518585,
               -0.0003690662269946188,
               -0.005614925641566515,
               0.007391890976577997
            ],
            [
               -0.0007666386663913727,
               0.019474301487207413,
               -0.00037334859371185303,
               0.01213543489575386,
               -0.009749555960297585,
               -0.011038794182240963,
               -0.013168786652386189,
               -0.01819368451833725
            ],
            [
               -0.007503580302000046,
               0.015667840838432312,
               0.022138264030218124,
               -0.0021044183522462845,
               0.014750849455595016,
               -0.012647547759115696,
               0.001370420679450035,
               -0.0028766952455043793
            ],
            [
               0.05170062184333801,
               -0.0036056609824299812,
               -0.008062172681093216,
               0.02170335128903389,
               0.026061106473207474,
               -0.008993188850581646,
               -0.01667659729719162,
               -0.017049038782715797
            ],
            [
               -0.03399205952882767,
               0.022340454161167145,
               -0.0019366852939128876,
               -0.012136287987232208,
               -0.06382959336042404,
               0.0066028498113155365,
               -0.0032769280951470137,
               0.004939652979373932
            ],
            [
               0.0005746016395278275,
               -0.02845913916826248,
               0.014359341003000736,
               -0.01623775064945221,
               -0.002660738304257393,
               -0.02087290585041046,
               -0.007548903580754995,
               0.015621516853570938
            ],
            [
               0.01775064691901207,
               0.014178220182657242,
               -0.019947471097111702,
               -0.022473376244306564,
               0.008696261793375015,
               0.01796027645468712,
               0.016666166484355927,
               -0.01188258919864893
            ],
            [
               -0.0016914084553718567,
               -0.005809487774968147,
               -0.006691839545965195,
               5.1701441407203674e-05,
               -0.019177159294486046,
               0.0016540717333555222,
               -0.015360556542873383,
               -0.020967554301023483
            ],
            [
               0.01736549660563469,
               -0.024800583720207214,
               -0.01125419232994318,
               0.01954934000968933,
               0.011295660398900509,
               -0.017424307763576508,
               -0.023972492665052414,
               -0.02022099681198597
            ],
            [
               -0.0065596564672887325,
               0.022805847227573395,
               0.020135164260864258,
               -0.009407928213477135,
               -0.03405498340725899,
               -0.014369356445968151,
               0.002092178212478757,
               0.01328849047422409
            ],
            [
               -0.02636503241956234,
               -0.018596189096570015,
               -0.008159059099853039,
               -0.018500886857509613,
               0.006184131372720003,
               -0.0178751852363348,
               -0.014185183681547642,
               -0.0028093636501580477
            ],
            [
               0.02111382782459259,
               0.009326718747615814,
               -0.014482439495623112,
               0.005330320447683334,
               -0.004365894943475723,
               0.01580224558711052,
               -0.005438767373561859,
               0.008744653314352036
            ],
            [
               0.014664944261312485,
               -0.02025635913014412,
               0.008356582373380661,
               -0.0214112289249897,
               0.006899865344166756,
               0.0038483403623104095,
               -0.0006249416619539261,
               -0.019734282046556473
            ],
            [
               0.03959837183356285,
               -0.03443186357617378,
               0.011725932359695435,
               -0.017484307289123535,
               0.020583517849445343,
               0.004750441759824753,
               -0.02408871427178383,
               0.012484803795814514
            ],
            [
               -0.0005549376364797354,
               -0.01146338228136301,
               -0.021836839616298676,
               -0.01306005660444498,
               -0.07126497477293015,
               0.005430556833744049,
               0.022182131186127663,
               0.014732617884874344
            ],
            [
               -0.020158981904387474,
               -0.005951599217951298,
               -0.020558981224894524,
               -0.003555574454367161,
               0.023986924439668655,
               -0.021088898181915283,
               -0.018362460657954216,
               -0.017673056572675705
            ],
            [
               -0.0022978447377681732,
               0.007353112101554871,
               0.012776311486959457,
               -0.0058002714067697525,
               -0.015426754020154476,
               -0.02260977029800415,
               0.011641841381788254,
               -0.0026886221021413803
            ],
            [
               -0.012540269643068314,
               0.0172182135283947,
               0.0076262615621089935,
               0.011095382273197174,
               -0.007952822372317314,
               -0.008495314046740532,
               0.021591827273368835,
               0.01614788919687271
            ],
            [
               0.057992175221443176,
               -0.03580205887556076,
               -0.01547958143055439,
               -0.020207062363624573,
               -0.0022283890284597874,
               0.016158368438482285,
               -0.0307004451751709,
               -0.007680738344788551
            ],
            [
               -0.016697075217962265,
               -0.0100480942055583,
               0.0033600032329559326,
               -0.0003080274909734726,
               -0.05484546348452568,
               -0.015941426157951355,
               0.01376955583691597,
               0.01198943704366684
            ],
            [
               -0.024323392659425735,
               -0.015344143845140934,
               0.010331034660339355,
               0.015758218243718147,
               0.020026639103889465,
               0.007115666754543781,
               -0.03838158771395683,
               -0.0007368050282821059
            ],
            [
               0.022442273795604706,
               -0.002485852688550949,
               0.012016348540782928,
               -0.012486184947192669,
               0.016696449369192123,
               0.002324076369404793,
               0.013447768986225128,
               -0.011942741461098194
            ],
            [
               0.014094959944486618,
               0.002739034593105316,
               -0.012362448498606682,
               0.0032183602452278137,
               -0.010219821706414223,
               -0.021815821528434753,
               0.012126900255680084,
               0.012570109218358994
            ],
            [
               0.03782397881150246,
               -0.02369873784482479,
               0.02221374213695526,
               0.00043116696178913116,
               0.008857403881847858,
               0.0029124654829502106,
               -0.0031812337692826986,
               -0.019110070541501045
            ],
            [
               -0.0053749773651361465,
               7.026083767414093e-05,
               0.0014750752598047256,
               -0.015282955020666122,
               -0.02626492828130722,
               -0.011960968375205994,
               0.010130515322089195,
               -0.006668632850050926
            ],
            [
               -0.02700834348797798,
               -0.027741380035877228,
               -0.019020935520529747,
               0.00017703896446619183,
               -0.011075323447585106,
               0.013332587666809559,
               -0.03947233036160469,
               -0.02551937662065029
            ],
            [
               0.016496550291776657,
               -0.0032663941383361816,
               -0.0007722228765487671,
               -0.012813926674425602,
               -0.018438253551721573,
               -0.015084538608789444,
               0.012831050902605057,
               -0.007490864954888821
            ],
            [
               -0.0011696480214595795,
               0.010264217853546143,
               0.007250545546412468,
               -0.018370408564805984,
               0.008084356784820557,
               -0.018887070938944817,
               0.009083352982997894,
               0.0018693339079618454
            ],
            [
               0.05939081311225891,
               -0.0362880565226078,
               0.008626256138086319,
               0.02132480964064598,
               0.0008790814899839461,
               -0.021660123020410538,
               -0.005334814544767141,
               -0.011643745005130768
            ],
            [
               -0.020159639418125153,
               0.01302511990070343,
               -0.018828442320227623,
               0.014817718416452408,
               -0.05443529412150383,
               -0.013490156270563602,
               -0.002532250015065074,
               0.007267022505402565
            ],
            [
               -0.005659105721861124,
               -0.029498528689146042,
               -0.014306618832051754,
               -0.008483856916427612,
               0.01466323807835579,
               0.0070194946601986885,
               -0.012457705102860928,
               -0.02408457174897194
            ],
            [
               -0.012199502438306808,
               0.0035155825316905975,
               0.012760717421770096,
               -0.0027395300567150116,
               0.0034527480602264404,
               0.0046875812113285065,
               0.007480716332793236,
               0.008855260908603668
            ],
            [
               -0.021446852013468742,
               -0.014579095877707005,
               -0.0179432462900877,
               0.010462507605552673,
               0.018107622861862183,
               0.014726035296916962,
               -0.004033736884593964,
               0.01892228052020073
            ],
            [
               0.057086408138275146,
               -0.020162178203463554,
               0.01446722075343132,
               0.015803828835487366,
               0.032091956585645676,
               -0.01025679986923933,
               -0.03405758738517761,
               0.019352614879608154
            ],
            [
               -0.03455224260687828,
               -0.018430199474096298,
               0.0037187058478593826,
               0.018470399081707,
               -0.03875207528471947,
               -0.014386828057467937,
               0.009933451190590858,
               -0.003137793391942978
            ],
            [
               -0.016637783497571945,
               -0.004378583747893572,
               0.005775513593107462,
               0.013076573610305786,
               0.01606435887515545,
               -0.005737248808145523,
               -0.0410376638174057,
               0.0021683003287762403
            ],
            [
               -0.012115583755075932,
               -0.013966880738735199,
               -0.004155220463871956,
               -0.008733554743230343,
               0.018437370657920837,
               -0.02090742439031601,
               0.003847578540444374,
               0.015580769628286362
            ],
            [
               0.012137077748775482,
               -0.0008155442774295807,
               -0.016847770661115646,
               -0.02027725800871849,
               -0.020976684987545013,
               -0.012761088088154793,
               -0.006134139373898506,
               -0.013068843632936478
            ],
            [
               0.04433175176382065,
               -0.019857188686728477,
               -0.003143446519970894,
               -0.018673207610845566,
               0.011010305024683475,
               -0.014265582896769047,
               -0.01761472038924694,
               0.019254647195339203
            ],
            [
               -0.019651416689157486,
               -0.009271111339330673,
               0.015472464263439178,
               0.015110999345779419,
               -0.04059169813990593,
               0.016993407160043716,
               -0.010327965021133423,
               0.0019511207938194275
            ],
            [
               0.005201207008212805,
               0.0032358611933887005,
               -0.02449415624141693,
               0.008573941886425018,
               -0.00926392711699009,
               0.009251639246940613,
               -0.044412922114133835,
               -0.02162177301943302
            ],
            [
               -0.011284325271844864,
               -0.020320096984505653,
               0.018781159073114395,
               0.016736164689064026,
               -0.014059282839298248,
               0.00972852110862732,
               0.011502031236886978,
               -0.02070128172636032
            ],
            [
               -0.01932922750711441,
               0.02129732444882393,
               0.0033819694072008133,
               0.013849522918462753,
               -0.01081426627933979,
               0.02204205095767975,
               0.01612279564142227,
               -0.01706145517528057
            ],
            [
               0.037728097289800644,
               -0.023087268695235252,
               -0.012202326208353043,
               -0.005534367635846138,
               -0.012208806350827217,
               0.008623190224170685,
               -0.0262147169560194,
               -0.007962698116898537
            ],
            [
               -0.037476420402526855,
               -0.02237589843571186,
               -0.0184740349650383,
               -0.00016544945538043976,
               -0.026864543557167053,
               -0.012238330207765102,
               0.017415540292859077,
               0.014385625720024109
            ],
            [
               -0.026535796001553535,
               -0.02828862890601158,
               -0.019328223541378975,
               0.01046852394938469,
               0.0017039099475368857,
               -0.01771855168044567,
               -0.02505512535572052,
               -0.011061853729188442
            ],
            [
               -0.01232104655355215,
               -0.011008253321051598,
               -0.0062947459518909454,
               -0.02243060991168022,
               -0.00905484240502119,
               0.0022082626819610596,
               -0.021956464275717735,
               0.00412643700838089
            ],
            [
               0.0061146169900894165,
               0.01652558147907257,
               -0.01940201409161091,
               -0.007787417620420456,
               0.0044769104570150375,
               0.019428636878728867,
               -0.018887566402554512,
               0.012227118015289307
            ],
            [
               0.04005776718258858,
               -0.015214470215141773,
               0.005353478714823723,
               0.019198495894670486,
               0.010349282063543797,
               -0.003497861325740814,
               -0.03564957156777382,
               0.004290105774998665
            ],
            [
               -0.027465742081403732,
               -0.004244280979037285,
               -0.021749846637248993,
               0.0036287959665060043,
               -0.05657648667693138,
               -0.02212892659008503,
               0.030823441222310066,
               -0.016371741890907288
            ],
            [
               0.006209284532815218,
               -0.036466602236032486,
               0.006292210891842842,
               -0.0008715923759154975,
               -0.001672812388278544,
               -0.01214680913835764,
               -0.021886689588427544,
               -0.021841002628207207
            ],
            [
               0.019246459007263184,
               0.009028147906064987,
               0.013456068933010101,
               0.011419761925935745,
               0.01837964728474617,
               -0.01673165336251259,
               0.015775226056575775,
               0.000986369326710701
            ],
            [
               -0.013044995255768299,
               -0.001927679404616356,
               0.020819228142499924,
               -0.012184985913336277,
               -0.011177723295986652,
               -0.011463502421975136,
               0.01749563217163086,
               -0.0021227337419986725
            ],
            [
               0.037738487124443054,
               -0.006652164272964001,
               0.005305541679263115,
               -0.00731853861361742,
               -0.0028843311592936516,
               0.016834422945976257,
               -0.04165847226977348,
               -0.014176963828504086
            ],
            [
               -0.02499711513519287,
               0.022270288318395615,
               -0.014933695085346699,
               -0.0175347737967968,
               -0.07017650455236435,
               -0.01112077571451664,
               -0.0019374629482626915,
               0.015770476311445236
            ],
            [
               -0.018625685945153236,
               -0.00841093622148037,
               0.008676201105117798,
               -0.015852084383368492,
               -0.005256036762148142,
               -0.0031410823576152325,
               -0.027145007625222206,
               -0.016209615394473076
            ],
            [
               0.014642946422100067,
               -0.005370916798710823,
               -0.010952520184218884,
               -0.01696726493537426,
               -0.004626106470823288,
               -0.020251380279660225,
               0.0034135226160287857,
               -0.005396386608481407
            ],
            [
               0.015138965100049973,
               -0.006080614402890205,
               0.02268822118639946,
               -0.007280036807060242,
               -0.0007649045437574387,
               0.018085144460201263,
               -0.0012125466018915176,
               -0.01615459844470024
            ],
            [
               0.05525994300842285,
               -0.0025936374440789223,
               -0.017554830759763718,
               0.014416757971048355,
               0.02968667633831501,
               0.021015707403421402,
               -0.03645076975226402,
               0.01714777573943138
            ],
            [
               -0.008805771358311176,
               -0.01880844682455063,
               0.016666527837514877,
               -0.0032187569886446,
               -0.05421875789761543,
               0.01685292273759842,
               0.015126414597034454,
               0.018903017044067383
            ],
            [
               -0.018159158527851105,
               -0.0257301963865757,
               -0.021281106397509575,
               -0.005976246204227209,
               -0.007466494105756283,
               0.006787669379264116,
               -0.014250666834414005,
               -0.028060631826519966
            ],
            [
               0.004593471065163612,
               -0.010418766178190708,
               0.014187242835760117,
               0.006446443498134613,
               -0.015205087140202522,
               0.0068456437438726425,
               -0.0025347843766212463,
               0.014935217797756195
            ],
            [
               0.016412921249866486,
               0.002902895212173462,
               -0.014656299725174904,
               0.008383983746170998,
               0.002245616167783737,
               -0.00741883460432291,
               0.009920597076416016,
               -0.016628673300147057
            ],
            [
               0.045601800084114075,
               0.006848422810435295,
               -0.01057041622698307,
               0.0012942776083946228,
               0.018830958753824234,
               0.019301816821098328,
               -0.03452232480049133,
               0.015477634966373444
            ],
            [
               0.0037387467455118895,
               0.01317131519317627,
               -0.007654550485312939,
               0.011182419955730438,
               -0.035957012325525284,
               -0.017354242503643036,
               0.019938284531235695,
               0.008115202188491821
            ],
            [
               -0.003905513556674123,
               0.003276172559708357,
               -0.011511866003274918,
               0.003442574990913272,
               0.0005794494645670056,
               0.0011190026998519897,
               -0.03759157657623291,
               0.007839210331439972
            ],
            [
               0.01072748377919197,
               0.005692869424819946,
               -0.006511976942420006,
               -0.019155161455273628,
               -0.022097116336226463,
               0.00574873760342598,
               0.004860086366534233,
               -0.014181011356413364
            ],
            [
               -0.015042778104543686,
               -0.014688130468130112,
               0.0210723839700222,
               0.014155454933643341,
               0.010740015655755997,
               -0.013794767670333385,
               0.010484088212251663,
               -0.016077209264039993
            ],
            [
               0.03467508405447006,
               -0.024207064881920815,
               0.0021705348044633865,
               -0.010135169140994549,
               0.006056932266801596,
               -0.02199450321495533,
               -0.038968734443187714,
               -0.006655193865299225
            ],
            [
               -0.015097713097929955,
               -0.001025572419166565,
               0.00779314711689949,
               -0.010259362868964672,
               -0.05874566361308098,
               -0.002231284976005554,
               0.017780335620045662,
               -0.021107027307152748
            ],
            [
               -0.019118936732411385,
               -0.002001820830628276,
               0.004470932763069868,
               -0.012792037799954414,
               -0.00484468275681138,
               -0.004719903226941824,
               -0.041316092014312744,
               0.009955150075256824
            ],
            [
               -0.0193479023873806,
               -0.010522457771003246,
               -0.018409475684165955,
               -0.0028286613523960114,
               0.017017818987369537,
               0.0024638380855321884,
               0.008375521749258041,
               0.010938096791505814
            ],
            [
               -0.00013871118426322937,
               0.020038768649101257,
               0.015997301787137985,
               0.008163465186953545,
               0.00035199709236621857,
               0.010163869708776474,
               0.00960392877459526,
               0.009220078587532043
            ],
            [
               0.028067616745829582,
               -0.012719104997813702,
               0.015389733016490936,
               -0.014572761952877045,
               0.03232218697667122,
               -0.02065657079219818,
               -0.015993671491742134,
               0.022612936794757843
            ],
            [
               -0.02238791435956955,
               0.022475939244031906,
               0.004569601267576218,
               -0.011543797329068184,
               -0.0651693269610405,
               0.002008991315960884,
               0.02650669403374195,
               -0.010725771076977253
            ],
            [
               0.009197693318128586,
               -0.03708116337656975,
               -0.012898588553071022,
               -0.0038078418001532555,
               -0.004914040211588144,
               0.015996679663658142,
               -0.034100402146577835,
               -0.027054402977228165
            ],
            [
               -0.017179828137159348,
               0.012231182307004929,
               -0.016307298094034195,
               0.00531901977956295,
               -0.01006823219358921,
               0.012677807360887527,
               -0.016171537339687347,
               -0.020961623638868332
            ],
            [
               0.006354646757245064,
               0.006197761744260788,
               -0.011747344397008419,
               -0.01736554503440857,
               -0.01805754192173481,
               -0.014921991154551506,
               -0.005596864968538284,
               -0.01968494802713394
            ],
            [
               0.04749743640422821,
               0.0007211063639260828,
               -0.0027542579919099808,
               0.0027469899505376816,
               0.022047530859708786,
               0.005001796409487724,
               -0.02012348361313343,
               -0.007314256392419338
            ],
            [
               -0.009655704721808434,
               0.0186135433614254,
               -0.011928267776966095,
               0.018209457397460938,
               -0.032760754227638245,
               0.006334841251373291,
               -0.00893054436892271,
               -0.008405742235481739
            ],
            [
               0.010135358199477196,
               -0.038189105689525604,
               -0.009395437315106392,
               -0.025036515668034554,
               -0.0018958674045279622,
               -0.01705697923898697,
               -0.03994758427143097,
               -0.02731453813612461
            ],
            [
               0.017442502081394196,
               -0.012148486450314522,
               -0.02266971580684185,
               0.019563566893339157,
               -0.012053740210831165,
               0.017818007618188858,
               0.005769032984972,
               -0.004126550629734993
            ],
            [
               0.017840921878814697,
               -0.01018425915390253,
               0.01766124740242958,
               0.017066575586795807,
               -0.011937038972973824,
               -0.013953659683465958,
               0.022562533617019653,
               -0.010855117812752724
            ],
            [
               0.04867317155003548,
               -0.012785202823579311,
               -0.010710829868912697,
               -0.013020846992731094,
               -0.012174347415566444,
               -0.021511999890208244,
               -0.027675526216626167,
               -0.012641317211091518
            ],
            [
               -0.004464970901608467,
               -0.004109563305974007,
               0.02212492749094963,
               0.006165044382214546,
               -0.045550379902124405,
               -0.009710554033517838,
               -0.0016878562746569514,
               0.019960302859544754
            ],
            [
               -0.012257196009159088,
               -0.025025352835655212,
               0.009179461747407913,
               0.007591689936816692,
               0.024456951767206192,
               -9.213953308062628e-05,
               -0.04225918650627136,
               0.0035802889615297318
            ],
            [
               0.021367695182561874,
               0.0004146099090576172,
               -0.01690906099975109,
               0.0037453994154930115,
               -0.021565109491348267,
               -0.0018017292022705078,
               -0.006672190502285957,
               0.01219424232840538
            ],
            [
               0.002981392666697502,
               -0.021661777049303055,
               0.019581809639930725,
               0.01371043547987938,
               -0.010729982517659664,
               -0.010462839156389236,
               0.009962603449821472,
               -0.0037332121282815933
            ],
            [
               0.033205244690179825,
               -0.03321494162082672,
               0.007340526208281517,
               0.01435578241944313,
               0.016826774924993515,
               0.02240922674536705,
               -0.007588518317788839,
               -0.00473182275891304
            ],
            [
               -0.0171061921864748,
               -0.015144838951528072,
               -0.014032691717147827,
               0.01663295179605484,
               0.020781973376870155,
               0.012253966182470322,
               -0.024557853117585182,
               -0.009389194659888744
            ],
            [
               0.016017913818359375,
               -0.020392607897520065,
               0.016565242782235146,
               0.00846656784415245,
               -0.013855533674359322,
               -0.014272084459662437,
               -0.03684837743639946,
               -0.015249374322593212
            ],
            [
               0.006472332403063774,
               -0.0034506376832723618,
               -0.004041342064738274,
               0.014232132583856583,
               0.01336977630853653,
               -0.006526021286845207,
               -0.017874116078019142,
               0.010138031095266342
            ],
            [
               -0.02934253215789795,
               0.002371382201090455,
               -0.008925490081310272,
               -0.0085354745388031,
               0.05352874845266342,
               0.009604847058653831,
               -0.02282814122736454,
               -0.022502444684505463
            ],
            [
               0.034221768379211426,
               -0.020814554765820503,
               -0.0057961419224739075,
               -0.006195815280079842,
               -0.0038073663599789143,
               -0.013059517368674278,
               -0.027914004400372505,
               -0.019650081172585487
            ],
            [
               -0.02985462173819542,
               0.009646408259868622,
               -0.018458880484104156,
               -0.007743942551314831,
               -0.04199736937880516,
               -0.0033813659101724625,
               -0.00920345913618803,
               -0.008553131483495235
            ],
            [
               -0.025103678926825523,
               -0.0368524007499218,
               0.0003248295106459409,
               -0.028556669130921364,
               0.003331161104142666,
               -0.02143627591431141,
               -0.03208458796143532,
               -0.01684868149459362
            ],
            [
               -0.0008099246770143509,
               0.010371390730142593,
               0.0187397263944149,
               0.010268643498420715,
               0.013638481497764587,
               -0.01073943916708231,
               -0.011409417726099491,
               -0.022289777174592018
            ],
            [
               -0.017730481922626495,
               -0.01844153366982937,
               0.0072885677218437195,
               0.003542400896549225,
               -0.014004506170749664,
               0.0027785543352365494,
               -0.00823617447167635,
               0.0072660744190216064
            ],
            [
               0.052678391337394714,
               -0.02500232867896557,
               0.008057352155447006,
               -0.01311405934393406,
               0.00667996983975172,
               -0.017547328025102615,
               -0.0034139303024858236,
               0.007820505648851395
            ],
            [
               0.0031289085745811462,
               0.010517943650484085,
               -0.002107802778482437,
               -0.01427482720464468,
               -0.04435348883271217,
               -0.00865316204726696,
               0.012721788138151169,
               0.014965221285820007
            ],
            [
               -0.018516885116696358,
               -0.024939902126789093,
               0.01138278841972351,
               -0.013939492404460907,
               -0.005469389725476503,
               -0.014992806129157543,
               -0.03901737183332443,
               -0.02500477060675621
            ],
            [
               -0.005878787487745285,
               -0.02091227099299431,
               -0.016313038766384125,
               0.01408509910106659,
               0.010905705392360687,
               -0.013057020492851734,
               0.016068648546934128,
               -0.011158940382301807
            ],
            [
               0.016635295003652573,
               0.015155427157878876,
               -0.020761873573064804,
               0.004200838506221771,
               0.00017208606004714966,
               0.01692885532975197,
               0.003620138391852379,
               0.002972416579723358
            ],
            [
               0.041266657412052155,
               -0.035033877938985825,
               -0.004826052114367485,
               0.013173818588256836,
               -0.006494461093097925,
               -0.01656806468963623,
               -0.02811918593943119,
               0.00374719500541687
            ],
            [
               -0.038616303354501724,
               0.005744587630033493,
               0.009700655937194824,
               -0.0013738702982664108,
               -0.05647377297282219,
               -0.014862731099128723,
               -0.007083464413881302,
               0.0003440268337726593
            ],
            [
               0.003801706014201045,
               -0.036413535475730896,
               0.012637642212212086,
               -0.02243119291961193,
               -0.017904605716466904,
               0.00201505608856678,
               -0.042346108704805374,
               -0.0027316093910485506
            ],
            [
               -0.016992049291729927,
               -0.015556395053863525,
               0.010283015668392181,
               0.0003354512155056,
               -0.0208960622549057,
               0.02060074359178543,
               -0.015528100542724133,
               -0.007726928219199181
            ],
            [
               0.015795860439538956,
               0.009667214006185532,
               0.0011741593480110168,
               -0.015167081728577614,
               -0.01794923096895218,
               -0.012514816597104073,
               -0.022729279473423958,
               -0.005948232486844063
            ],
            [
               0.04871479421854019,
               -0.011085274629294872,
               -0.009673042222857475,
               0.010834027081727982,
               -0.0013429936952888966,
               -0.006940331310033798,
               -0.014045949093997478,
               0.01915803551673889
            ],
            [
               -0.02370506152510643,
               -0.0035720989108085632,
               -0.004752803593873978,
               -0.002563323825597763,
               -0.05339135602116585,
               0.0028307605534791946,
               -0.004632853902876377,
               0.021001987159252167
            ],
            [
               -0.013634264469146729,
               -0.02798355743288994,
               -0.0026176765095442533,
               0.0030249436385929585,
               -0.006388509180396795,
               0.0037759505212306976,
               -0.020597612485289574,
               0.0018533418187871575
            ],
            [
               0.012495409697294235,
               0.014696303755044937,
               -0.002853553742170334,
               -0.010818379931151867,
               0.021770883351564407,
               -0.010370981879532337,
               -0.01493997871875763,
               0.0225389301776886
            ],
            [
               -0.0023504775017499924,
               0.019688613712787628,
               0.016397006809711456,
               0.01763271540403366,
               0.004467818886041641,
               -0.009922855533659458,
               -0.019268831238150597,
               -0.0059983991086483
            ],
            [
               0.027857203036546707,
               -0.00491977808997035,
               0.008934609591960907,
               -0.01655016839504242,
               0.00352335418574512,
               0.021943360567092896,
               -0.028858669102191925,
               -0.022496981546282768
            ],
            [
               -0.005165154114365578,
               -0.01661146804690361,
               0.0020673591643571854,
               -0.0072807008400559425,
               -0.03687448427081108,
               -0.00919005461037159,
               -0.008797029964625835,
               0.012978557497262955
            ],
            [
               0.005314977373927832,
               -0.021079428493976593,
               -0.016890501603484154,
               -0.023561103269457817,
               -0.004275590647011995,
               0.0062190936878323555,
               -0.04816126450896263,
               -0.003984670154750347
            ],
            [
               -0.020450547337532043,
               0.019433800131082535,
               0.02138950675725937,
               0.02015634998679161,
               -0.0107421875,
               -0.012079776264727116,
               0.0034754108637571335,
               -0.0076280031353235245
            ],
            [
               -0.022149596363306046,
               0.02016078680753708,
               0.019274860620498657,
               -0.003520496189594269,
               -0.00711064413189888,
               0.01267346739768982,
               0.02206243947148323,
               -0.014270425774157047
            ],
            [
               0.04396084323525429,
               -0.03261003643274307,
               -0.008781425654888153,
               0.018448684364557266,
               0.03154647722840309,
               0.01125258207321167,
               -0.014744744636118412,
               -0.0004272162914276123
            ],
            [
               -0.002234888030216098,
               0.007226131856441498,
               0.019573941826820374,
               -0.009097565896809101,
               -0.04515734687447548,
               -0.00088534876704216,
               0.015808606520295143,
               -0.010846015065908432
            ],
            [
               0.008128751069307327,
               0.004476902075111866,
               -0.00939902849495411,
               -0.007919992320239544,
               -0.005500894505530596,
               0.0021437015384435654,
               -0.005768608767539263,
               0.007774363737553358
            ],
            [
               0.013606641441583633,
               0.0037482455372810364,
               -0.011558020487427711,
               -0.008561075665056705,
               0.011456847190856934,
               0.018406063318252563,
               -0.01496549230068922,
               0.021638844162225723
            ],
            [
               -0.013540084473788738,
               0.0035088136792182922,
               -0.002109430730342865,
               0.013460516929626465,
               0.008654732257127762,
               0.0036676842719316483,
               -0.013370304368436337,
               -0.015880800783634186
            ],
            [
               0.029427189379930496,
               -1.8054650354315527e-05,
               -0.009247839450836182,
               -0.0197577066719532,
               -0.013067676685750484,
               0.0142752043902874,
               -0.02168961428105831,
               0.015328720211982727
            ],
            [
               -0.011951242573559284,
               -0.0026218537241220474,
               0.009490273892879486,
               0.012498319149017334,
               -0.06630651652812958,
               0.0015669167041778564,
               -0.004991181660443544,
               -0.017636392265558243
            ],
            [
               -0.007389404345303774,
               -0.02250269427895546,
               -0.012818408198654652,
               -0.016171395778656006,
               0.009554745629429817,
               0.002393083181232214,
               -0.02838679403066635,
               -0.011890463531017303
            ],
            [
               -0.013620259240269661,
               0.003038182854652405,
               -0.013134616427123547,
               0.018079139292240143,
               0.02259817346930504,
               0.00818207859992981,
               0.002266503870487213,
               -0.0014470908790826797
            ],
            [
               -0.02060249261558056,
               0.008559633046388626,
               0.021577607840299606,
               0.01419302448630333,
               0.022022955119609833,
               -0.008535981178283691,
               0.009748663753271103,
               0.017059780657291412
            ],
            [
               0.043498411774635315,
               -0.017205439507961273,
               -0.02253846451640129,
               -0.00421084463596344,
               0.014542735181748867,
               0.0036557354032993317,
               -0.03983493894338608,
               -0.011036645621061325
            ],
            [
               -0.024099521338939667,
               -0.01527877151966095,
               -0.008747336454689503,
               -0.019496342167258263,
               -0.041186098009347916,
               0.01927664503455162,
               -0.0075353337451815605,
               0.01208789274096489
            ],
            [
               -0.01962728425860405,
               -0.03368754684925079,
               -0.0059751421213150024,
               -0.026655031368136406,
               -0.001957165077328682,
               -0.01100142765790224,
               -0.037731435149908066,
               -0.0026793975848704576
            ],
            [
               -0.006523376330733299,
               0.022663675248622894,
               -0.017295565456151962,
               -0.020169926807284355,
               0.0036582443863153458,
               -0.013958425261080265,
               -0.003117438405752182,
               0.013068534433841705
            ],
            [
               0.014420241117477417,
               0.004086580127477646,
               0.018502861261367798,
               0.01721516251564026,
               -0.020222030580043793,
               0.012401971966028214,
               0.010910268872976303,
               -0.01688717119395733
            ],
            [
               0.026185793802142143,
               -0.03142105042934418,
               0.020163457840681076,
               -0.010150681249797344,
               -0.006342219654470682,
               -0.019702380523085594,
               -0.02410668507218361,
               0.00043931789696216583
            ],
            [
               -0.011358673684298992,
               0.021384987980127335,
               -0.021926842629909515,
               -0.017935780808329582,
               -0.06899935752153397,
               -0.015249226242303848,
               0.032175056636333466,
               0.0001229420304298401
            ],
            [
               0.0066513726487755775,
               -0.037732694298028946,
               -0.022300247102975845,
               -0.02010452002286911,
               0.007338775787502527,
               0.0016955941682681441,
               -0.03482833132147789,
               0.013202308677136898
            ],
            [
               -0.004613712430000305,
               -0.003911174833774567,
               -0.012871945276856422,
               0.00199115090072155,
               0.0023481324315071106,
               -0.006223853677511215,
               -0.01216948963701725,
               0.010299306362867355
            ],
            [
               -0.017632801085710526,
               0.011395569890737534,
               -0.0007685981690883636,
               -0.006804127246141434,
               -0.007499531842768192,
               0.011770207434892654,
               0.020740360021591187,
               -0.012403452768921852
            ],
            [
               0.03936363011598587,
               0.0035118614323437214,
               -0.015521451830863953,
               0.0048755500465631485,
               0.01810825988650322,
               0.018834613263607025,
               -0.03505348041653633,
               0.022743429988622665
            ],
            [
               -0.026984509080648422,
               -0.014723791740834713,
               -0.007662548683583736,
               -0.018892452120780945,
               -0.0485173799097538,
               -0.005238903686404228,
               -0.005766377784311771,
               -0.013454168103635311
            ],
            [
               0.00548103591427207,
               -0.025719422847032547,
               -0.005737408995628357,
               -0.01818496361374855,
               0.01864650845527649,
               -0.027573473751544952,
               -0.04272289201617241,
               0.001123367459513247
            ],
            [
               0.0006166491657495499,
               -0.009952869266271591,
               -0.00956679880619049,
               0.010149821639060974,
               -0.00850654486566782,
               0.020142581313848495,
               -0.013391160406172276,
               0.017347462475299835
            ],
            [
               -0.016626965254545212,
               0.0017034448683261871,
               0.000523790717124939,
               -0.007210754789412022,
               0.010748445987701416,
               -0.0012658964842557907,
               0.017032064497470856,
               -0.0005985405296087265
            ],
            [
               0.025556134060025215,
               0.005091739818453789,
               0.019960634410381317,
               0.0058465320616960526,
               0.027960900217294693,
               0.005169637501239777,
               -0.00978841632604599,
               0.0009168591350317001
            ],
            [
               -0.007929478771984577,
               -0.003411630168557167,
               0.01382218673825264,
               0.022612571716308594,
               -0.026479288935661316,
               -0.006825702264904976,
               0.003269153879955411,
               -0.022517651319503784
            ],
            [
               0.0050920420326292515,
               -0.038692131638526917,
               -0.017502905800938606,
               -0.01753099262714386,
               -0.000772002269513905,
               -0.01930946111679077,
               -0.02014545537531376,
               -0.022282782942056656
            ],
            [
               0.005857190117239952,
               -0.02242947742342949,
               0.009253405034542084,
               -0.00834752805531025,
               -0.001880701631307602,
               0.011951413005590439,
               -0.010283923707902431,
               -0.011641585268080235
            ],
            [
               -0.004492158070206642,
               0.020884990692138672,
               0.019529227167367935,
               0.00974515825510025,
               -0.01811204105615616,
               0.0020323842763900757,
               -0.018402183428406715,
               -0.005543118342757225
            ],
            [
