[
   {
      "config": {
         "name": "conv2d_4",
         "trainable": true,
         "batch_input_shape": [
            null,
            96,
            96,
            1
         ],
         "dtype": "float32",
         "filters": 5,
         "kernel_size": [
            2,
            2
         ],
         "strides": [
            1,
            1
         ],
         "padding": "same",
         "data_format": "channels_last",
         "dilation_rate": [
            1,
            1
         ],
         "groups": 1,
         "activation": "relu",
         "use_bias": true,
         "kernel_initializer": {
            "class_name": "HeUniform",
            "config": {
               "seed": null
            }
         },
         "bias_initializer": {
            "class_name": "Zeros",
            "config": {}
         },
         "kernel_regularizer": null,
         "bias_regularizer": null,
         "activity_regularizer": null,
         "kernel_constraint": null,
         "bias_constraint": null
      },
      "weights_biases": [
         [
            [
               [
                  [
                     -1.0537642240524292,
                     -0.9876894950866699,
                     0.18283076584339142,
                     -1.177649736404419,
                     -1.0811798572540283
                  ]
               ],
               [
                  [
                     0.06088033318519592,
                     0.9090592861175537,
                     -1.2198280096054077,
                     1.065044641494751,
                     1.2086026668548584
                  ]
               ]
            ],
            [
               [
                  [
                     -0.9761091470718384,
                     -0.7819792628288269,
                     -0.3453373908996582,
                     0.892433226108551,
                     -1.2485334873199463
                  ]
               ],
               [
                  [
                     0.6586586236953735,
                     0.7076182961463928,
                     1.2063261270523071,
                     -1.2283587455749512,
                     -0.20852982997894287
                  ]
               ]
            ]
         ],
         [
            0.3227991759777069,
            0.11490663141012192,
            0.15791553258895874,
            0.1601807177066803,
            0.18803688883781433
         ]
      ]
   },
   {
      "config": {
         "name": "max_pooling2d_4",
         "trainable": true,
         "dtype": "float32",
         "pool_size": [
            2,
            2
         ],
         "padding": "valid",
         "strides": [
            2,
            2
         ],
         "data_format": "channels_last"
      },
      "weights_biases": []
   },
   {
      "config": {
         "name": "flatten_4",
         "trainable": true,
         "dtype": "float32",
         "data_format": "channels_last"
      },
      "weights_biases": []
   },
   {
      "config": {
         "name": "dense_8",
         "trainable": true,
         "dtype": "float32",
         "units": 8,
         "activation": "relu",
         "use_bias": true,
         "kernel_initializer": {
            "class_name": "HeUniform",
            "config": {
               "seed": null
            }
         },
         "bias_initializer": {
            "class_name": "Zeros",
            "config": {}
         },
         "kernel_regularizer": null,
         "bias_regularizer": null,
         "activity_regularizer": null,
         "kernel_constraint": null,
         "bias_constraint": null
      },
      "weights_biases": [
         [
            [
               -0.01948000118136406,
               0.012530189007520676,
               -0.01971018873155117,
               -0.015117969363927841,
               0.002716861665248871,
               -0.007779783569276333,
               -0.007042896002531052,
               0.022383738309144974
            ],
            [
               -0.01566973328590393,
               0.007237880490720272,
               0.014543499797582626,
               -0.003370717167854309,
               -0.015951860696077347,
               0.02451448328793049,
               0.01394867617636919,
               -0.001986939925700426
            ],
            [
               -0.02300293557345867,
               0.03152400255203247,
               0.04193204268813133,
               -0.00236707367002964,
               0.002970084547996521,
               0.012878927402198315,
               -0.008881263434886932,
               0.01922772452235222
            ],
            [
               -0.002075532451272011,
               -0.021289914846420288,
               0.005177587270736694,
               0.016319043934345245,
               -0.021720753982663155,
               0.01353830099105835,
               -0.004361819475889206,
               -0.00995698757469654
            ],
            [
               0.006487855687737465,
               0.022821512073278427,
               -0.0045676641166210175,
               -0.010633043944835663,
               0.014810919761657715,
               -0.017646001651883125,
               -0.017324088141322136,
               -0.0005136486142873764
            ],
            [
               -0.006488639861345291,
               0.012163154780864716,
               -0.005088804289698601,
               -0.014590228907763958,
               0.003910934552550316,
               -0.004690801724791527,
               -0.02088119275867939,
               -0.021651428192853928
            ],
            [
               -0.005335228983312845,
               -0.015697471797466278,
               0.006620695348829031,
               0.011622566729784012,
               -0.017091790214180946,
               -0.004505315329879522,
               0.005613768473267555,
               0.03038954921066761
            ],
            [
               -0.01910063438117504,
               0.050700414925813675,
               0.047639574855566025,
               -0.004934592172503471,
               0.009007934480905533,
               -0.007357574068009853,
               -0.017608564347028732,
               -0.012511298060417175
            ],
            [
               -0.011628026142716408,
               0.0030712150037288666,
               0.002083703875541687,
               -0.017310986295342445,
               0.0027206987142562866,
               -0.003086734563112259,
               -0.0127944964915514,
               -0.02201339416205883
            ],
            [
               0.01820572093129158,
               0.00625871866941452,
               0.009080488234758377,
               -0.002806607633829117,
               0.01383330300450325,
               0.0038042720407247543,
               0.01845524087548256,
               -0.007057353854179382
            ],
            [
               -0.0021087341010570526,
               -0.014853551983833313,
               -0.006606690585613251,
               0.005706721916794777,
               -0.004376240074634552,
               -0.011058365926146507,
               0.0004357472062110901,
               -0.004117937758564949
            ],
            [
               -0.015473875217139721,
               -0.021613972261548042,
               0.017262693494558334,
               -0.007864365354180336,
               0.0010839352617040277,
               0.00028436214779503644,
               0.016604546457529068,
               0.013244611211121082
            ],
            [
               -0.01740673929452896,
               0.0204162560403347,
               0.05480131879448891,
               0.018769845366477966,
               -0.0014516146620735526,
               -0.0013116061454638839,
               0.0026509808376431465,
               0.018739163875579834
            ],
            [
               -0.0015206877142190933,
               -0.02157018706202507,
               -0.0037318505346775055,
               -0.0010610204190015793,
               -0.011010897345840931,
               0.017593197524547577,
               -0.018907686695456505,
               -0.012599355541169643
            ],
            [
               -0.008693104609847069,
               -0.002043716609477997,
               -0.012260470539331436,
               0.0014230906963348389,
               0.016646679490804672,
               -0.00954487081617117,
               -0.0033246632665395737,
               0.02252209186553955
            ],
            [
               -0.01366876158863306,
               -0.010621573776006699,
               -0.008800556883215904,
               0.0024434998631477356,
               -0.006213519722223282,
               0.01028718426823616,
               0.007967263460159302,
               -0.01811216026544571
            ],
            [
               0.01786429062485695,
               0.006879777647554874,
               -0.005478698294609785,
               -0.017354335635900497,
               -0.020005671307444572,
               -0.00736427353695035,
               -0.020490724593400955,
               0.0239171851426363
            ],
            [
               -0.004516844172030687,
               0.023743389174342155,
               0.05631469562649727,
               0.00651867501437664,
               -0.020727509632706642,
               0.033971305936574936,
               -0.021358640864491463,
               -0.012509791180491447
            ],
            [
               -0.006726935505867004,
               -0.008297094143927097,
               0.0012717843055725098,
               0.0024496912956237793,
               0.006737157702445984,
               -0.0033360961824655533,
               -0.017164353281259537,
               -0.01385259535163641
            ],
            [
               -0.022545913234353065,
               -0.002109026536345482,
               0.010414216667413712,
               0.002912437543272972,
               0.020006023347377777,
               0.0005084741860628128,
               0.011717770248651505,
               -0.022810956463217735
            ],
            [
               0.01769479736685753,
               0.013608243316411972,
               -0.0014319755136966705,
               -0.0027976352721452713,
               -0.008155668154358864,
               -0.003188787028193474,
               0.006833139806985855,
               0.013659670948982239
            ],
            [
               -0.021690838038921356,
               -0.005150659009814262,
               -0.007806810084730387,
               0.015445150434970856,
               -0.005706665571779013,
               0.019870007410645485,
               0.017230607569217682,
               0.018958987668156624
            ],
            [
               -0.02894425392150879,
               0.05061521381139755,
               0.01670076698064804,
               -0.014613309875130653,
               0.017389846965670586,
               0.021499011665582657,
               -0.019703233614563942,
               0.0022829354275017977
            ],
            [
               0.008983336389064789,
               0.021028511226177216,
               0.0035822633653879166,
               0.0008228514343500137,
               -0.0028974469751119614,
               -0.01864209957420826,
               0.010784383863210678,
               0.002387329936027527
            ],
            [
               -0.014830285683274269,
               -0.014238834381103516,
               -0.007889661937952042,
               0.0021350421011447906,
               -0.008668815717101097,
               -0.016485679894685745,
               -0.00485689751803875,
               0.016050901263952255
            ],
            [
               0.01647729054093361,
               0.014212500303983688,
               0.009458895772695541,
               -0.01928727701306343,
               0.019585352391004562,
               -0.019477587193250656,
               -0.0017551258206367493,
               0.011455878615379333
            ],
            [
               0.007968028075993061,
               -0.01227659359574318,
               0.02707797847688198,
               0.02210594341158867,
               -0.020030533894896507,
               -0.006794154178351164,
               0.010676838457584381,
               0.0023758814204484224
            ],
            [
               -0.03071017749607563,
               0.006121787242591381,
               0.029732175171375275,
               -0.010498903691768646,
               0.021845931187272072,
               0.024228740483522415,
               -0.0001673019287409261,
               0.010184129700064659
            ],
            [
               -0.0029364004731178284,
               0.0038242898881435394,
               -0.015125386416912079,
               0.01225874200463295,
               0.007935639470815659,
               0.015180554240942001,
               0.001807691529393196,
               -0.01931900531053543
            ],
            [
               -0.018581904470920563,
               0.015936747193336487,
               -0.017875971272587776,
               0.020720336586236954,
               -0.022320959717035294,
               -0.0024252068251371384,
               -0.015869013965129852,
               0.00846538320183754
            ],
            [
               0.005367439240217209,
               0.006493357941508293,
               0.01932511106133461,
               0.01043611392378807,
               0.015405584126710892,
               0.02199748530983925,
               0.0035781599581241608,
               -0.0027609076350927353
            ],
            [
               -0.009952737018465996,
               -0.023214997723698616,
               0.0055482410825788975,
               0.00500389002263546,
               0.012066901661455631,
               0.017665725201368332,
               0.0057615675032138824,
               0.030860790982842445
            ],
            [
               0.004307059571146965,
               0.037512343376874924,
               0.05707184597849846,
               -0.00915270671248436,
               0.01985834166407585,
               -0.0011794999008998275,
               -0.03240891918540001,
               0.02510167472064495
            ],
            [
               0.017246708273887634,
               0.016801849007606506,
               -0.0016898103058338165,
               -0.014097174629569054,
               0.0034724511206150055,
               0.00788038969039917,
               -0.008943391963839531,
               -0.014907713048160076
            ],
            [
               -0.0012340974062681198,
               -0.013554013334214687,
               -0.012325242161750793,
               0.0015602726489305496,
               -0.01650463230907917,
               0.012614209204912186,
               0.017605513334274292,
               -0.01839422434568405
            ],
            [
               -0.00342407263815403,
               0.006925296038389206,
               -0.0002004466950893402,
               0.010558884590864182,
               -0.010748662054538727,
               -0.01973096840083599,
               0.0012043565511703491,
               0.018706437200307846
            ],
            [
               -0.0044914670288562775,
               0.008735796436667442,
               0.03059486113488674,
               -0.021861592307686806,
               -0.017377497628331184,
               -0.0015536077553406358,
               0.0090222442522645,
               0.04184612259268761
            ],
            [
               0.007214289624243975,
               0.04979995638132095,
               0.05643090978264809,
               -0.002246137708425522,
               -0.006438162177801132,
               -0.010217718780040741,
               -0.035267557948827744,
               -0.007024399936199188
            ],
            [
               0.013268928974866867,
               -0.007462581619620323,
               -0.01732640154659748,
               0.007304036989808083,
               0.018789086490869522,
               -0.017876282334327698,
               0.020375508815050125,
               0.018868621438741684
            ],
            [
               -0.013590539805591106,
               -0.017209328711032867,
               -0.005617721006274223,
               0.0133771151304245,
               -0.007595600560307503,
               -0.014842147938907146,
               -0.018211739137768745,
               -0.007057646289467812
            ],
            [
               0.0013983175158500671,
               0.020093578845262527,
               0.005246592685580254,
               0.0067064594477415085,
               -0.020816616714000702,
               0.015717048197984695,
               0.02163558453321457,
               0.012015216052532196
            ],
            [
               -0.017841337248682976,
               -0.016380269080400467,
               0.005212361458688974,
               -0.012667451053857803,
               -0.02082289196550846,
               0.00883400160819292,
               0.006513386964797974,
               0.0348968431353569
            ],
            [
               -0.0036616576835513115,
               0.026469843462109566,
               0.05423147603869438,
               -0.014673352241516113,
               -0.018501486629247665,
               0.03226405382156372,
               -0.018074849620461464,
               -0.0002909853064920753
            ],
            [
               0.02049154043197632,
               -0.0002724975347518921,
               -0.02106180600821972,
               0.01694340631365776,
               0.011574316769838333,
               -0.01819036528468132,
               -0.0003644246608018875,
               0.019546162337064743
            ],
            [
               0.003195175901055336,
               -0.004026863723993301,
               -0.005493374541401863,
               0.02101694419980049,
               -0.01427213940769434,
               0.006861276924610138,
               -0.022620555013418198,
               0.019258584827184677
            ],
            [
               0.02000397816300392,
               -0.01734747923910618,
               -0.0021479204297065735,
               -0.003527803346514702,
               0.015454988926649094,
               0.002073686569929123,
               0.002245752140879631,
               -0.02080279029905796
            ],
            [
               -0.002420594450086355,
               -0.030370859429240227,
               0.003937965724617243,
               0.011918909847736359,
               -0.011494632810354233,
               0.007675052620470524,
               0.012792703695595264,
               0.04014211893081665
            ],
            [
               -0.01535759400576353,
               0.009185069240629673,
               0.024219000712037086,
               -0.001609688624739647,
               0.01898651197552681,
               -0.0089738629758358,
               -0.002658585784956813,
               0.019978875294327736
            ],
            [
               0.02177383378148079,
               0.010882694274187088,
               0.014331817626953125,
               0.02151544764637947,
               -0.022268349304795265,
               -0.00994415208697319,
               -0.007067980244755745,
               0.014652810990810394
            ],
            [
               -0.019373714923858643,
               -0.009973453357815742,
               0.01673278585076332,
               0.011118065565824509,
               -0.013438552618026733,
               -0.013547717593610287,
               0.0029013436287641525,
               0.006360223516821861
            ],
            [
               -0.011076794937252998,
               -0.007266809232532978,
               -0.0013144798576831818,
               3.8914382457733154e-05,
               -0.008842365816235542,
               0.010095831006765366,
               0.022773530334234238,
               -0.002553144469857216
            ],
            [
               0.018225189298391342,
               -0.025906303897500038,
               0.031624067574739456,
               0.010260462760925293,
               -0.006016330327838659,
               -0.007665152661502361,
               -0.010743159800767899,
               0.02697421796619892
            ],
            [
               0.0034700066316872835,
               0.010299413464963436,
               0.041330356150865555,
               -0.0006597917526960373,
               0.006060427986085415,
               0.00641041062772274,
               -0.026580480858683586,
               0.0013488801196217537
            ],
            [
               0.022246018052101135,
               -0.005452653393149376,
               -0.010482117533683777,
               0.01956288143992424,
               -0.016059748828411102,
               0.00466260127723217,
               0.010853402316570282,
               0.022079069167375565
            ],
            [
               -0.018661100417375565,
               -0.005776232108473778,
               0.0015466101467609406,
               0.022582586854696274,
               0.004227021709084511,
               -0.020610610023140907,
               0.01646886020898819,
               0.019602809101343155
            ],
            [
               0.010952722281217575,
               -0.015397192910313606,
               -0.020338144153356552,
               0.007769107818603516,
               0.009988825768232346,
               0.009562581777572632,
               -0.021993888542056084,
               0.011174511164426804
            ],
            [
               0.008052409626543522,
               0.012914301827549934,
               0.029083358123898506,
               0.014090243726968765,
               0.016078786924481392,
               0.0165267214179039,
               -0.015305019915103912,
               0.03377006947994232
            ],
            [
               -0.03578418493270874,
               0.03829076141119003,
               0.05322029069066048,
               -0.009616302326321602,
               0.01763324998319149,
               0.006064245477318764,
               -0.025420719757676125,
               -0.014448990114033222
            ],
            [
               -0.015880946069955826,
               -0.010522888042032719,
               0.0006563812494277954,
               0.0004081074148416519,
               0.015636999160051346,
               0.004539724439382553,
               -0.015650972723960876,
               -0.0045036431401968
            ],
            [
               0.015162341296672821,
               -0.01856061816215515,
               0.01426175981760025,
               -0.014495971612632275,
               -0.015156297013163567,
               -0.021987680345773697,
               -0.0023413803428411484,
               -0.020395494997501373
            ],
            [
               -0.005118547007441521,
               0.022605959326028824,
               -0.02045004814863205,
               -0.012431181035935879,
               0.011476472020149231,
               0.0101710744202137,
               0.016351163387298584,
               -0.02084142342209816
            ],
            [
               0.010075830854475498,
               0.010877665132284164,
               0.009601888246834278,
               -0.007170800119638443,
               -0.00637632142752409,
               0.0072438642382621765,
               -0.0173528790473938,
               0.026397282257676125
            ],
            [
               -0.01521384995430708,
               0.04373150318861008,
               0.05177222564816475,
               0.019596941769123077,
               0.019870039075613022,
               -0.010266672819852829,
               -0.00652155838906765,
               -0.006151424255222082
            ],
            [
               0.01275394856929779,
               -0.013046099804341793,
               -0.016046009957790375,
               -0.01264694333076477,
               0.016591381281614304,
               0.0017420779913663864,
               -0.016120683401823044,
               -0.017718669027090073
            ],
            [
               -0.0020093247294425964,
               0.005111444741487503,
               0.019943837076425552,
               0.01358814537525177,
               -0.013971162959933281,
               -0.010583088733255863,
               0.020604461431503296,
               0.020063303411006927
            ],
            [
               -0.009926920756697655,
               0.011661101132631302,
               0.0221056267619133,
               0.02098976820707321,
               -0.0013975612819194794,
               -0.0011581666767597198,
               -0.009576037526130676,
               -0.0036707092076539993
            ],
            [
               0.008665935136377811,
               -0.0015658969059586525,
               -1.672849612077698e-05,
               0.008144719526171684,
               -0.005777997430413961,
               0.004546226002275944,
               -0.02243664115667343,
               0.025652064010500908
            ],
            [
               -0.031034860759973526,
               0.02405817061662674,
               0.03028755448758602,
               0.020089637488126755,
               0.019757363945245743,
               0.018209926784038544,
               0.0036508420016616583,
               -0.01979411020874977
            ],
            [
               0.020555857568979263,
               0.005996501073241234,
               -0.020269103348255157,
               0.015444841235876083,
               -0.00056455098092556,
               -0.0009450539946556091,
               0.010577689856290817,
               0.009995251893997192
            ],
            [
               -0.01840250939130783,
               0.00850263237953186,
               -0.005373148247599602,
               0.01440507173538208,
               0.015541620552539825,
               -0.013650495558977127,
               -0.006237661466002464,
               0.009091634303331375
            ],
            [
               0.011658255010843277,
               -0.005052398890256882,
               0.020239662379026413,
               -0.0075336480513215065,
               -0.011084244586527348,
               -0.0047989170998334885,
               0.016497347503900528,
               0.013133756816387177
            ],
            [
               0.02018429897725582,
               -0.02373610995709896,
               0.02450263313949108,
               -0.009894425980746746,
               -0.005583041813224554,
               0.019721845164895058,
               -0.001545183826237917,
               0.016630785539746284
            ],
            [
               -0.034356310963630676,
               0.03958674520254135,
               0.04083489254117012,
               0.003517666831612587,
               -0.015134045854210854,
               0.030830059200525284,
               -0.011328758671879768,
               -0.0077496543526649475
            ],
            [
               -0.004788057878613472,
               -0.004187513142824173,
               0.008350932970643044,
               -0.01988193765282631,
               0.016521967947483063,
               -0.007229853421449661,
               -0.01143879909068346,
               0.006412366405129433
            ],
            [
               -0.013661138713359833,
               0.021094072610139847,
               -0.01946074143052101,
               -0.008246616460382938,
               0.002654142677783966,
               -0.011057255789637566,
               -0.014822477474808693,
               -0.005940984934568405
            ],
            [
               0.000552373006939888,
               -0.017987340688705444,
               0.00873544067144394,
               0.004903964698314667,
               0.0008917413651943207,
               -0.0128779960796237,
               0.0103493332862854,
               -0.02170501835644245
            ],
            [
               -0.014968170784413815,
               0.009091002866625786,
               0.007997902110219002,
               -0.004547705873847008,
               0.012954030185937881,
               0.01623494178056717,
               0.01671251282095909,
               0.021654877811670303
            ],
            [
               -0.035059019923210144,
               0.006397936027497053,
               0.026369651779532433,
               0.006392957642674446,
               0.021584490314126015,
               0.013182065449655056,
               -0.022049302235245705,
               0.01111099123954773
            ],
            [
               -0.017847411334514618,
               -0.0040379539132118225,
               -0.009044401347637177,
               -0.004948500543832779,
               0.012544352561235428,
               0.012268349528312683,
               -0.018335655331611633,
               -0.021872669458389282
            ],
            [
               -0.0019378811120986938,
               0.005918104201555252,
               0.0219867005944252,
               0.009835727512836456,
               0.004858372732996941,
               0.015798427164554596,
               0.006516743451356888,
               -0.005616301670670509
            ],
            [
               0.0150911845266819,
               0.0030578896403312683,
               -0.019320271909236908,
               0.009366005659103394,
               0.012265417724847794,
               0.010418221354484558,
               -0.001349184662103653,
               -0.0008269269019365311
            ],
            [
               0.015964221209287643,
               0.006705314852297306,
               0.019329512491822243,
               -0.014222957193851471,
               0.0015195392770692706,
               0.008346465416252613,
               -0.016064047813415527,
               0.0014684615889564157
            ],
            [
               -0.026973048225045204,
               0.02954939566552639,
               0.017414312809705734,
               0.018494021147489548,
               0.02306257374584675,
               -0.00023312722623813897,
               -0.007118858862668276,
               0.014223935082554817
            ],
            [
               -0.012210401706397533,
               -0.013081217184662819,
               0.0033431313931941986,
               0.015544846653938293,
               0.017476826906204224,
               -0.0004871003329753876,
               0.019998766481876373,
               0.02116783708333969
            ],
            [
               0.007420973852276802,
               0.01683754101395607,
               -0.015677154064178467,
               0.017028864473104477,
               0.01101156696677208,
               -0.011740428395569324,
               0.008264180272817612,
               0.011090938001871109
            ],
            [
               -0.00678534060716629,
               0.004968028515577316,
               -0.008741955272853374,
               0.004549507051706314,
               -0.01180247962474823,
               -0.00696643628180027,
               0.0058641936630010605,
               -0.007645131088793278
            ],
            [
               0.007263259030878544,
               0.00036042340798303485,
               -0.004259866196662188,
               0.00805668719112873,
               0.0071464464999735355,
               0.019336963072419167,
               -0.007653276436030865,
               0.041194554418325424
            ],
            [
               -0.018135515972971916,
               0.024764087051153183,
               0.03904542699456215,
               0.00833226554095745,
               0.0052288006991147995,
               0.005535702221095562,
               -0.014695204794406891,
               -0.002873695222660899
            ],
            [
               0.016621652990579605,
               -0.009516560472548008,
               0.019667379558086395,
               -0.008041322231292725,
               0.017668724060058594,
               0.016737282276153564,
               0.0018441900610923767,
               -0.0005349442362785339
            ],
            [
               0.020542055368423462,
               -0.005489712581038475,
               0.006957655772566795,
               0.00627615861594677,
               0.0201282761991024,
               0.00840207003057003,
               0.02246852219104767,
               -0.00118173286318779
            ],
            [
               0.0051057059317827225,
               0.012639831751585007,
               0.019723113626241684,
               0.008346281945705414,
               -0.006847810000181198,
               -0.02221292071044445,
               -0.02233186922967434,
               0.021264661103487015
            ],
            [
               -0.0005721806664951146,
               -0.020483586937189102,
               -0.010890061035752296,
               -0.017354661598801613,
               -0.02406749688088894,
               0.021716004237532616,
               -0.01385813020169735,
               0.011678912676870823
            ],
            [
               -0.004028223920613527,
               0.03312121331691742,
               0.013962429948151112,
               0.02055516466498375,
               0.009275753051042557,
               0.021775659173727036,
               -0.013707078993320465,
               -0.006931900046765804
            ],
            [
               0.002835778519511223,
               0.006539978086948395,
               -0.014293311163783073,
               0.005479233339428902,
               -0.01372016966342926,
               0.022703342139720917,
               5.099363625049591e-05,
               -0.0016304142773151398
            ],
            [
               -0.00804872252047062,
               0.008321698755025864,
               0.019710134714841843,
               -0.006641171872615814,
               0.0074503012001514435,
               -0.008548839017748833,
               0.020714905112981796,
               0.0103713758289814
            ],
            [
               0.008889447897672653,
               0.0012484844774007797,
               0.010939933359622955,
               0.001080462709069252,
               0.01802964136004448,
               0.02248159795999527,
               -0.0020016636699438095,
               0.0004661045968532562
            ],
            [
               -0.0005555415991693735,
               -0.005407681688666344,
               0.005642081145197153,
               0.015538714826107025,
               -0.01885204203426838,
               0.0242821853607893,
               -0.007615192793309689,
               0.03210696950554848
            ],
            [
               -0.02104313112795353,
               0.022317267954349518,
               0.042885731905698776,
               -0.020919084548950195,
               0.02115064673125744,
               0.0040702964179217815,
               -0.0018792025512084365,
               0.0033922402653843164
            ],
            [
               -0.021399900317192078,
               -0.007608632557094097,
               -0.012121215462684631,
               -0.007407533936202526,
               -0.0176310446113348,
               0.018796104937791824,
               -0.0011279955506324768,
               -0.008592776022851467
            ],
            [
               -0.007937232963740826,
               -0.010184841230511665,
               0.0019436441361904144,
               0.007107552140951157,
               -0.009977963753044605,
               -0.00792709644883871,
               -0.008041050285100937,
               0.01489226147532463
            ],
            [
               0.018982350826263428,
               0.01684993878006935,
               0.004089469090104103,
               0.0008359644562005997,
               -0.013718330301344395,
               -0.019339006394147873,
               -0.018477875739336014,
               0.01580166071653366
            ],
            [
               0.0071381074376404285,
               0.011381166987121105,
               0.018245408311486244,
               0.004011748358607292,
               -0.0039757611230015755,
               0.012356702238321304,
               0.019337061792612076,
               0.0350700207054615
            ],
            [
               -0.027283204719424248,
               0.03892897069454193,
               0.04469061270356178,
               0.01854391023516655,
               -0.005774224177002907,
               0.01729637198150158,
               -0.020060433074831963,
               0.016084466129541397
            ],
            [
               -0.020996157079935074,
               -0.022520681843161583,
               -0.008057733066380024,
               0.008576218038797379,
               -0.004841146990656853,
               -0.0053994059562683105,
               0.0022751186043024063,
               -0.015555023215711117
            ],
            [
               0.019787952303886414,
               0.008683200925588608,
               -0.02168096788227558,
               -0.006933050230145454,
               0.007883567363023758,
               -0.020495153963565826,
               0.00247042253613472,
               0.005578495562076569
            ],
            [
               0.013139106333255768,
               -0.013632327318191528,
               0.002143317833542824,
               -0.012597369030117989,
               0.012271113693714142,
               -0.0007010418921709061,
               0.0037910565733909607,
               0.019459962844848633
            ],
            [
               0.011620329692959785,
               -0.0035457706544548273,
               0.011570497415959835,
               0.015827227383852005,
               -0.018682492896914482,
               -0.018644453957676888,
               0.022812573239207268,
               0.011254089884459972
            ],
            [
               -0.02631090022623539,
               0.007924824021756649,
               0.04074263945221901,
               -0.002860061824321747,
               -0.019419876858592033,
               0.004114832263439894,
               -0.0007895149756222963,
               0.023021643981337547
            ],
            [
               -0.009942905977368355,
               -0.020029550418257713,
               0.014134559780359268,
               0.02083437517285347,
               0.0030336007475852966,
               -0.011756502091884613,
               0.019179902970790863,
               -0.013557403348386288
            ],
            [
               0.00744984857738018,
               0.01582248881459236,
               0.009554143995046616,
               0.006883470341563225,
               -0.015503245405852795,
               0.003567170351743698,
               0.00931917130947113,
               0.017247695475816727
            ],
            [
               -0.010104709304869175,
               -0.02085934579372406,
               -0.011887464672327042,
               0.017546549439430237,
               0.02058727666735649,
               -0.0047602578997612,
               0.010095823556184769,
               0.003323739394545555
            ],
            [
               0.01786230504512787,
               -0.00793741550296545,
               0.002394255716353655,
               -0.004907893016934395,
               -0.005447809584438801,
               0.020414385944604874,
               0.002394045703113079,
               0.01979575678706169
            ],
            [
               -0.02899577096104622,
               0.05058543384075165,
               0.01752864196896553,
               0.016783028841018677,
               -0.018268708139657974,
               0.015158186666667461,
               -0.025808265432715416,
               0.0023430651053786278
            ],
            [
               0.0103926882147789,
               0.011087529361248016,
               0.0035573597997426987,
               0.013990011066198349,
               -0.000735526904463768,
               -0.022535210475325584,
               -0.0015676934272050858,
               -0.014844878576695919
            ],
            [
               -0.0036376919597387314,
               -0.0057100579142570496,
               -0.015161155723035336,
               0.01870187744498253,
               0.018647056072950363,
               -0.012276571244001389,
               -0.012547980062663555,
               0.0011263694614171982
            ],
            [
               -0.002409890294075012,
               -0.02230101265013218,
               -0.015753939747810364,
               -0.01230256911367178,
               0.004226667806506157,
               -0.02254272997379303,
               0.010270249098539352,
               -0.008577954024076462
            ],
            [
               0.020158613100647926,
               0.0023071374744176865,
               0.02741396240890026,
               0.0026774294674396515,
               0.016782013699412346,
               -0.0017094028880819678,
               0.01791384443640709,
               0.017513195052742958
            ],
            [
               -0.0023043130058795214,
               0.04845109209418297,
               0.037161897867918015,
               0.009682152420282364,
               -0.006871046498417854,
               0.027255818247795105,
               -0.0031667007133364677,
               -0.013671192340552807
            ],
            [
               0.01993652805685997,
               0.017029359936714172,
               -0.017915839329361916,
               0.0048528555780649185,
               0.01587119698524475,
               0.0012417640537023544,
               -0.013465306721627712,
               0.0071237944066524506
            ],
            [
               0.01540476456284523,
               0.012737847864627838,
               0.012866780161857605,
               0.00881819799542427,
               -0.02074228599667549,
               -0.01768619567155838,
               0.011408809572458267,
               0.009483076632022858
            ],
            [
               0.014760501682758331,
               -0.009720043279230595,
               -0.007523739710450172,
               -0.020549630746245384,
               0.022630080580711365,
               -0.009396007284522057,
               -0.012458457611501217,
               -0.0011733751744031906
            ],
            [
               0.021750131621956825,
               -0.01606898196041584,
               0.007940145209431648,
               -0.013501636683940887,
               -0.006821645889431238,
               -0.00916019082069397,
               0.00846505630761385,
               0.006068611517548561
            ],
            [
               -0.007680801674723625,
               0.00726343085989356,
               0.035026807337999344,
               0.019384149461984634,
               -0.011373864486813545,
               0.023761702701449394,
               -0.010492704808712006,
               -0.005692639388144016
            ],
            [
               0.002104576677083969,
               0.006513413041830063,
               0.019726108759641647,
               0.012711770832538605,
               -0.009591033682227135,
               -0.007536205463111401,
               0.019865676760673523,
               -0.014940229244530201
            ],
            [
               0.014494583010673523,
               -0.008339224383234978,
               -0.021627623587846756,
               0.018131650984287262,
               -0.008130263537168503,
               -0.011433178558945656,
               -0.003359917551279068,
               0.00962740182876587
            ],
            [
               0.011971551924943924,
               -0.022445235401391983,
               -0.01755679026246071,
               -0.007833709940314293,
               -0.01081173587590456,
               -0.009577654302120209,
               0.008181404322385788,
               0.017076991498470306
            ],
            [
               -0.022685913369059563,
               -0.026267731562256813,
               0.01580897904932499,
               -0.005956834182143211,
               0.009552694857120514,
               -0.012994587421417236,
               0.0025254327338188887,
               0.04085083305835724
            ],
            [
               0.0016739050624892116,
               0.020754896104335785,
               0.029051683843135834,
               -0.016446346417069435,
               -0.018214024603366852,
               0.03340107202529907,
               0.0025028856471180916,
               0.015215793624520302
            ],
            [
               -0.0010821223258972168,
               -0.004233544692397118,
               -0.022465785965323448,
               -0.01512109860777855,
               0.01758924499154091,
               -9.459443390369415e-05,
               0.014107361435890198,
               -0.0008844789117574692
            ],
            [
               0.012479063123464584,
               0.019520580768585205,
               0.011349696666002274,
               0.011232521384954453,
               -0.013818517327308655,
               0.021584365516901016,
               0.021861102432012558,
               0.015299063175916672
            ],
            [
               -0.013039091601967812,
               0.018521476536989212,
               0.0007248017936944962,
               -0.008954796008765697,
               -0.009846054017543793,
               0.012941308319568634,
               -0.0012580342590808868,
               0.01080024242401123
            ],
            [
               0.0040990025736391544,
               0.01206618919968605,
               0.004426598083227873,
               -0.0066469889134168625,
               -0.008664235472679138,
               -0.011182388290762901,
               0.0058464668691158295,
               0.02052202820777893
            ],
            [
               -0.034669216722249985,
               0.01897873356938362,
               0.05395703390240669,
               -0.02234676107764244,
               -0.018707256764173508,
               0.022899745032191277,
               -0.007992100901901722,
               -0.010906675830483437
            ],
            [
               0.00629311241209507,
               -0.019444357603788376,
               0.02115430310368538,
               -0.013218535110354424,
               0.016163863241672516,
               -0.00010995939373970032,
               -0.003036990761756897,
               0.017971187829971313
            ],
            [
               -0.005369845777750015,
               -0.004303980618715286,
               -0.009267307817935944,
               -0.013142048381268978,
               -0.00039108656346797943,
               0.021447215229272842,
               -0.017683394253253937,
               -0.00552728958427906
            ],
            [
               0.022325530648231506,
               0.010681293904781342,
               0.004004359245300293,
               0.00790281780064106,
               0.014838192611932755,
               0.022025983780622482,
               -0.019112497568130493,
               -0.0025478545576334
            ],
            [
               0.0027298973873257637,
               -0.02365797944366932,
               0.027344414964318275,
               0.0038376767188310623,
               -0.008893749676644802,
               0.023128138855099678,
               0.005541959777474403,
               0.01887306198477745
            ],
            [
               -0.019791610538959503,
               0.019399702548980713,
               0.03224590793251991,
               -0.014030084945261478,
               0.02087944559752941,
               0.01886582188308239,
               -0.02980136312544346,
               0.011009538546204567
            ],
            [
               -0.00836373120546341,
               -0.021539835259318352,
               -0.001472359523177147,
               -0.0026886165142059326,
               -0.0035914257168769836,
               0.013246767222881317,
               -0.0019039679318666458,
               0.0015773791819810867
            ],
            [
               -0.0019736401736736298,
               -0.01716795563697815,
               0.01681424304842949,
               -0.009553984738886356,
               -0.004337623715400696,
               0.014836229383945465,
               0.020226407796144485,
               0.018445581197738647
            ],
            [
               -0.020254084840416908,
               -0.017343176528811455,
               -0.01737186685204506,
               -0.011447564698755741,
               -0.009693670086562634,
               0.006049579009413719,
               0.00046091899275779724,
               0.0009152088314294815
            ],
            [
               -0.015016046352684498,
               0.005979342386126518,
               -0.007353958673775196,
               0.013339046388864517,
               -0.0010761350858956575,
               0.0022337979171425104,
               -0.01619132235646248,
               0.00979884248226881
            ],
            [
               -0.03174753114581108,
               0.042578503489494324,
               0.048375654965639114,
               0.02168549969792366,
               0.00798873882740736,
               0.023393703624606133,
               -0.018844349309802055,
               -0.0016690888442099094
            ],
            [
               -0.0036357343196868896,
               -0.01581336185336113,
               -0.015574839897453785,
               -0.02173100970685482,
               -0.006313741207122803,
               0.01776125654578209,
               0.019630324095487595,
               -0.02053166925907135
            ],
            [
               3.308802843093872e-05,
               0.01395980641245842,
               -0.0008355788886547089,
               -0.003810938447713852,
               0.008616521954536438,
               -0.008561505936086178,
               -0.00015722215175628662,
               -0.014576565474271774
            ],
            [
               -0.014907381497323513,
               0.009126871824264526,
               -0.01134417299181223,
               0.0016168393194675446,
               0.017311498522758484,
               0.004623435437679291,
               0.012862946838140488,
               -0.0023220088332891464
            ],
            [
               -0.02202255092561245,
               -0.005556007847189903,
               0.014483228325843811,
               -0.017031002789735794,
               -0.024478236213326454,
               -0.011818315833806992,
               0.015304690226912498,
               0.008605319075286388
            ],
            [
               -0.0035720421001315117,
               0.03241095319390297,
               0.03764909878373146,
               -0.0017056316137313843,
               -0.003178263083100319,
               0.029170332476496696,
               0.005926565267145634,
               0.0052360910922288895
            ],
            [
               0.008060099557042122,
               0.010995734483003616,
               0.0071257371455430984,
               -0.004783518612384796,
               0.0017344914376735687,
               0.012482713907957077,
               0.009190589189529419,
               0.006019521504640579
            ],
            [
               -0.008093350566923618,
               0.015142425894737244,
               0.010064255446195602,
               0.010909143835306168,
               -0.016739901155233383,
               0.007497731596231461,
               -0.012745770625770092,
               -0.007852802984416485
            ],
            [
               -0.005174262449145317,
               -0.011649235151708126,
               -0.005533743649721146,
               -0.010392948053777218,
               -0.0041051339358091354,
               -0.008767099119722843,
               0.0032823532819747925,
               0.0070601776242256165
            ],
            [
               0.014085877686738968,
               0.0018962954636663198,
               0.010138348676264286,
               -0.005584694445133209,
               0.01758425123989582,
               0.02013299986720085,
               -0.004019198007881641,
               0.03167879581451416
            ],
            [
               -0.03188643231987953,
               0.05042847990989685,
               0.01587691158056259,
               0.006074689328670502,
               0.00664424616843462,
               0.0023269287776201963,
               -0.009905552491545677,
               0.0016641574911773205
            ],
            [
               0.010929461568593979,
               0.015548694878816605,
               0.007865175604820251,
               -0.0011580586433410645,
               0.0072695352137088776,
               -0.01502944715321064,
               -0.013107165694236755,
               -0.002712791785597801
            ],
            [
               -0.014400011859834194,
               -0.017735237255692482,
               -0.008898355066776276,
               -0.0019961409270763397,
               -0.018425384536385536,
               -0.015353025868535042,
               0.0025355853140354156,
               0.005330631509423256
            ],
            [
               -0.0031983312219381332,
               0.00215722993016243,
               0.0005885511636734009,
               -0.010946812108159065,
               0.02054179087281227,
               0.022789016366004944,
               0.00960492342710495,
               0.004109486937522888
            ],
            [
               0.01199138630181551,
               0.0013275562087073922,
               0.02429296262562275,
               0.011535722762346268,
               -0.008416752330958843,
               0.01873094215989113,
               0.005648955702781677,
               0.02524813637137413
            ],
            [
               -0.02005922794342041,
               0.016787303611636162,
               0.04039989039301872,
               -0.018136808648705482,
               -0.012069719843566418,
               0.022755691781640053,
               -0.03524231165647507,
               -0.004710203502327204
            ],
            [
               0.01203223317861557,
               0.004015209153294563,
               -0.011298853904008865,
               0.008813418447971344,
               -0.01962846890091896,
               -0.002962164580821991,
               -0.002808190882205963,
               -0.011571981944143772
            ],
            [
               0.0050001852214336395,
               -0.013557451777160168,
               0.0022038333117961884,
               0.020569786429405212,
               -0.0010011475533246994,
               0.0023697931319475174,
               0.00385221466422081,
               0.011707581579685211
            ],
            [
               -0.019315864890813828,
               0.01312827318906784,
               -0.016748208552598953,
               -0.020134929567575455,
               0.005105502903461456,
               0.010958231985569,
               -0.016848647966980934,
               0.011645257472991943
            ],
            [
               -0.01731608435511589,
               0.0032082698307931423,
               0.000510272744577378,
               -0.02067181095480919,
               -0.000929923087824136,
               0.010872771963477135,
               -0.010576024651527405,
               0.0007290057837963104
            ],
            [
               -0.03606589511036873,
               0.04493648186326027,
               0.03234289959073067,
               -0.006457140669226646,
               0.0205370020121336,
               0.011047507636249065,
               0.005909287370741367,
               -0.0075417207553982735
            ],
            [
               0.008183455094695091,
               -0.018933957442641258,
               -0.012855899520218372,
               0.005486061796545982,
               0.009330164641141891,
               -0.014354643411934376,
               -0.005869243294000626,
               -0.008309581317007542
            ],
            [
               -0.005042755976319313,
               -0.0072410134598612785,
               0.0033646393567323685,
               0.014859389513731003,
               0.01052909716963768,
               -0.019568925723433495,
               0.02217881754040718,
               0.017507918179035187
            ],
            [
               0.009452681988477707,
               -0.020139679312705994,
               -0.02008628100156784,
               -0.016181912273168564,
               -0.006092313677072525,
               -0.004430362954735756,
               -0.008898790925741196,
               -0.0006506554782390594
            ],
            [
               -0.021967893466353416,
               -0.005581662058830261,
               0.0064704944379627705,
               0.0021576546132564545,
               0.00905826035887003,
               -0.018625181168317795,
               -0.013797344639897346,
               0.025526519864797592
            ],
            [
               -0.025720974430441856,
               0.009157286025583744,
               0.05346345528960228,
               0.0017480235546827316,
               0.018265826627612114,
               0.033649422228336334,
               -0.035753995180130005,
               -0.008986422792077065
            ],
            [
               -0.021002648398280144,
               0.013337463140487671,
               0.0005395654588937759,
               0.01982809230685234,
               0.010116316378116608,
               -0.014226439408957958,
               0.02266128733754158,
               0.01762574538588524
            ],
            [
               -0.011752399615943432,
               0.010017972439527512,
               -0.022802097722887993,
               -0.018664784729480743,
               0.01425931602716446,
               0.012097306549549103,
               0.0053140632808208466,
               0.018121305853128433
            ],
            [
               0.017644882202148438,
               -0.01694968342781067,
               -0.005137214437127113,
               0.022185683250427246,
               0.01895923539996147,
               -0.018626559525728226,
               0.006455166265368462,
               0.0029416028410196304
            ],
            [
               -0.009303100407123566,
               -0.01940646395087242,
               -0.004943348933011293,
               -0.0019667968153953552,
               -0.011572681367397308,
               0.020473619922995567,
               -0.02150128036737442,
               0.031154407188296318
            ],
            [
               -0.01784486323595047,
               0.014240321703255177,
               0.026463015004992485,
               0.011510133743286133,
               0.005730445496737957,
               0.020993733778595924,
               -0.028635380789637566,
               0.006934515666216612
            ],
            [
               0.001762937754392624,
               0.006281550973653793,
               0.003302900120615959,
               0.0019504409283399582,
               -0.017328571528196335,
               0.011407416313886642,
               0.006942549720406532,
               0.022081445902585983
            ],
            [
               -0.01667603850364685,
               0.012726444751024246,
               -0.019962308928370476,
               0.019455060362815857,
               -0.01344121340662241,
               -0.009812787175178528,
               -0.004891030490398407,
               -0.0031191296875476837
            ],
            [
               0.016544047743082047,
               0.014894623309373856,
               0.014983121305704117,
               -0.018102824687957764,
               0.003077838569879532,
               -0.017433907836675644,
               -0.002998223528265953,
               0.015560563653707504
            ],
            [
               0.018971597775816917,
               0.0055208103731274605,
               0.004182509146630764,
               0.007934339344501495,
               -0.006663462612777948,
               0.010170813649892807,
               -0.0016271272907033563,
               0.0031812258530408144
            ],
            [
               -0.0276041179895401,
               0.04633783921599388,
               0.013819611631333828,
               -0.021126560866832733,
               -0.02118864841759205,
               0.027905091643333435,
               -0.026568802073597908,
               0.011052621528506279
            ],
            [
               0.019456833600997925,
               -0.010374976322054863,
               -0.0034312941133975983,
               0.010198846459388733,
               0.0019150562584400177,
               0.0169772170484066,
               -0.01663236692547798,
               0.0056874435395002365
            ],
            [
               0.0025759097188711166,
               -0.00745069794356823,
               0.020927969366312027,
               0.008816879242658615,
               -0.013327542692422867,
               -0.0045234933495521545,
               -0.02094857022166252,
               0.011887166649103165
            ],
            [
               0.006754614412784576,
               -0.0009404625743627548,
               -0.011526994407176971,
               -0.014658579602837563,
               -0.002578064799308777,
               -0.011912134476006031,
               -0.009099764749407768,
               -0.006311269477009773
            ],
            [
               0.017779912799596786,
               -0.009524783119559288,
               -0.0015676900511607528,
               0.019861038774251938,
               0.0009891882073134184,
               0.00946788489818573,
               -0.01386004127562046,
               0.035355277359485626
            ],
            [
               -0.03239944577217102,
               0.008048615418374538,
               0.042920421808958054,
               0.0045200493186712265,
               0.02304938994348049,
               0.01008713897317648,
               -0.03496529906988144,
               0.007348936051130295
            ],
            [
               0.00866994634270668,
               -0.005360115319490433,
               -0.009222946129739285,
               -0.00951650645583868,
               0.003491384908556938,
               -0.01971309445798397,
               0.012476149946451187,
               -0.020543048158288002
            ],
            [
               -0.020361095666885376,
               0.019502729177474976,
               -0.011874361895024776,
               -0.015200620517134666,
               0.002076543867588043,
               -0.01115079503506422,
               -0.020396888256072998,
               0.015245873481035233
            ],
            [
               -0.01372312381863594,
               -0.0051908306777477264,
               0.00930050015449524,
               0.008088970556855202,
               -0.011086806654930115,
               0.0017207972705364227,
               -0.0016584638506174088,
               0.0022961758077144623
            ],
            [
               -0.015416535548865795,
               -0.02262791432440281,
               -0.003973782528191805,
               0.017757747322320938,
               0.0007581622921861708,
               -0.018771467730402946,
               -0.019470911473035812,
               0.009651067666709423
            ],
            [
               0.000223614348215051,
               0.03384612873196602,
               0.03101113997399807,
               -0.004739386960864067,
               0.018053380772471428,
               0.02846240997314453,
               -0.03636002168059349,
               0.007339518517255783
            ],
            [
               -0.01166846975684166,
               0.014127194881439209,
               -0.01691550388932228,
               0.004415225237607956,
               0.006281457841396332,
               -0.01580018550157547,
               -0.0026804935187101364,
               -0.006434010341763496
            ],
            [
               -0.008488317020237446,
               0.022592391818761826,
               -0.016098054125905037,
               -0.007162351161241531,
               -0.015156999230384827,
               -0.010139924474060535,
               -0.0018954239785671234,
               -0.001675330102443695
            ],
            [
               0.005264014005661011,
               0.010338906198740005,
               -0.011086431331932545,
               0.0013615675270557404,
               0.009906336665153503,
               -0.005386060103774071,
               0.007149906828999519,
               0.004549125209450722
            ],
            [
               0.015487438067793846,
               0.012092411518096924,
               0.015354251489043236,
               0.007995372638106346,
               -0.00736341904848814,
               0.01957506127655506,
               -0.005723587237298489,
               -0.002637646859511733
            ],
            [
               -0.03308337926864624,
               0.007175452075898647,
               0.018298843875527382,
               0.004490699619054794,
               -0.0005058036767877638,
               0.01440360490232706,
               -0.010987686924636364,
               -0.005439914297312498
            ],
            [
               -0.004811018705368042,
               0.004576109349727631,
               0.014735184609889984,
               -0.007125796750187874,
               -0.021620387211441994,
               0.015201114118099213,
               0.014735572040081024,
               0.019550912082195282
            ],
            [
               0.017892345786094666,
               -0.007736951112747192,
               -0.0015727002173662186,
               0.003828665241599083,
               0.010238859802484512,
               0.0021973755210638046,
               0.00023868680000305176,
               0.0069708451628685
            ],
            [
               -0.017644140869379044,
               -0.004878787323832512,
               -0.00044857338070869446,
               -0.018068958073854446,
               0.011206872761249542,
               0.009828578680753708,
               0.013794586062431335,
               -0.022328756749629974
            ],
            [
               0.0006858559208922088,
               -0.0035406837705522776,
               0.005753705743700266,
               -0.017566921189427376,
               -0.018515950068831444,
               -0.008649993687868118,
               0.02122318558394909,
               0.041108209639787674
            ],
            [
               -0.015994809567928314,
               0.04680547118186951,
               0.05272636190056801,
               0.019869085401296616,
               -0.009274586103856564,
               0.01819184608757496,
               -0.0190585907548666,
               -0.0033427129965275526
            ],
            [
               -0.0033583231270313263,
               -0.005097700282931328,
               0.014496542513370514,
               -0.0024615805596113205,
               0.009054254740476608,
               0.015417035669088364,
               -0.0018267463892698288,
               -0.004295350983738899
            ],
            [
               0.0027951225638389587,
               -0.008679872378706932,
               0.00888826698064804,
               -0.00028383173048496246,
               -0.004608189687132835,
               -0.005885262042284012,
               -0.019060827791690826,
               0.001179257407784462
            ],
            [
               -0.007713129743933678,
               0.01750970631837845,
               0.0013414472341537476,
               0.018001824617385864,
               0.00403960794210434,
               -0.0008897781372070312,
               -0.01679270714521408,
               0.01886840909719467
            ],
            [
               -0.007861440069973469,
               -0.02526736631989479,
               0.00515637407079339,
               0.012575414031744003,
               0.0007803463959135115,
               0.02112460322678089,
               -0.0191409420222044,
               0.0005910322652198374
            ],
            [
               0.00028822902822867036,
               0.03828560188412666,
               0.013210008852183819,
               -0.009936262853443623,
               0.005235634744167328,
               -0.0046431561931967735,
               -0.028669586405158043,
               0.010915359482169151
            ],
            [
               -0.011042810045182705,
               -0.019798031076788902,
               -0.00863388366997242,
               0.02105221152305603,
               0.012434989213943481,
               -0.017421795055270195,
               0.01970602571964264,
               -0.012848123908042908
            ],
            [
               -0.01734156534075737,
               -0.02089504525065422,
               0.0063165705651044846,
               -0.019595125690102577,
               -0.017310431227087975,
               -0.007261144928634167,
               0.010656755417585373,
               0.010296378284692764
            ],
            [
               0.005561541765928268,
               0.018628284335136414,
               -0.008465638384222984,
               -0.006799366325139999,
               -0.01758938655257225,
               -0.015360116958618164,
               -0.02192717418074608,
               -0.014635732397437096
            ],
            [
               0.0034592472948133945,
               -0.02911783941090107,
               0.02763855643570423,
               -0.01173469889909029,
               -0.02297457493841648,
               0.024166511371731758,
               -0.014978770166635513,
               0.038051486015319824
            ],
            [
               -0.02111067622900009,
               0.020502649247646332,
               0.03303971514105797,
               0.015046890825033188,
               -0.0015833446523174644,
               0.02457275614142418,
               -0.004525742493569851,
               -0.0045844754204154015
            ],
            [
               0.013488464057445526,
               0.008214736357331276,
               -0.020581679418683052,
               0.016668304800987244,
               -0.02105453610420227,
               -0.0158170685172081,
               0.01905391365289688,
               -0.007125992327928543
            ],
            [
               -0.011553057469427586,
               -0.004627717658877373,
               -0.017306862398982048,
               0.019907642155885696,
               -0.009200360625982285,
               -0.01556534506380558,
               -0.013463260605931282,
               0.004122273996472359
            ],
            [
               0.006090262904763222,
               0.019669048488140106,
               -0.014906363561749458,
               -0.0015724766999483109,
               0.020543869584798813,
               -0.01212509535253048,
               -0.005520489066839218,
               -0.0022568143904209137
            ],
            [
               0.009540368802845478,
               -0.012417064979672432,
               0.02278740145266056,
               -0.022110801190137863,
               -0.009720823727548122,
               -0.011783873662352562,
               0.00983962882310152,
               -0.0031648429576307535
            ],
            [
               -0.02748238295316696,
               0.02862594835460186,
               0.04734944924712181,
               0.014727655798196793,
               -0.0016352753154933453,
               0.015033301897346973,
               -0.0054941619746387005,
               0.016421467065811157
            ],
            [
               0.018591605126857758,
               0.011836841702461243,
               0.007954388856887817,
               0.021039992570877075,
               0.009484753012657166,
               -0.008218512870371342,
               0.0009959228336811066,
               0.009960677474737167
            ],
            [
               -0.012381943874061108,
               0.020697597414255142,
               -0.01415308192372322,
               0.0011877715587615967,
               0.015150975435972214,
               0.01039852574467659,
               -0.012101475149393082,
               0.009147733449935913
            ],
            [
               0.0016165617853403091,
               -0.005377886816859245,
               -0.003868548199534416,
               -0.00034661032259464264,
               0.017239898443222046,
               0.007340798154473305,
               -0.002459397539496422,
               0.011871080845594406
            ],
            [
               0.010545064695179462,
               -0.028924154117703438,
               0.0017009315779432654,
               -0.002413300797343254,
               -0.018231229856610298,
               -0.014293348416686058,
               -0.005822670646011829,
               0.031064609065651894
            ],
            [
               0.003248184220865369,
               0.0360906720161438,
               0.03339598700404167,
               -0.013789059594273567,
               0.011734019964933395,
               0.0039453268982470036,
               -0.004746133927255869,
               0.0018133425619453192
            ],
            [
               -0.011370404623448849,
               -0.016999155282974243,
               0.0003128480166196823,
               0.020134925842285156,
               -0.002152279019355774,
               -0.009609169326722622,
               -0.003121720626950264,
               -0.017135323956608772
            ],
            [
               0.007071070373058319,
               0.01705063506960869,
               0.01561952754855156,
               0.008964180946350098,
               -0.004837777465581894,
               -0.0025369394570589066,
               -0.0003460776060819626,
               0.011595934629440308
            ],
            [
               -0.007443477399647236,
               -0.020143678411841393,
               0.021704550832509995,
               0.009676642715930939,
               -0.0014962684363126755,
               -0.00825007725507021,
               0.016280926764011383,
               0.010542131960391998
            ],
            [
               0.021875588223338127,
               -0.009800187312066555,
               0.031598884612321854,
               -0.0017308294773101807,
               -0.023136204108595848,
               0.007533669471740723,
               -0.011153959669172764,
               0.02606426179409027
            ],
            [
               -0.012139423750340939,
               0.03488452732563019,
               0.03303859755396843,
               0.0006057024002075195,
               0.012492086738348007,
               0.02345024235546589,
               -0.033241551369428635,
               -0.01271945983171463
            ],
            [
               0.02221588045358658,
               -0.008946808986365795,
               0.010864842683076859,
               0.005295703187584877,
               0.02226622775197029,
               0.013237878680229187,
               -0.022554492577910423,
               -0.011217236518859863
            ],
            [
               0.012975804507732391,
               0.00399823859333992,
               0.0015992317348718643,
               -0.0009620189666748047,
               0.020336639136075974,
               0.020989518612623215,
               0.010200455784797668,
               0.007764939218759537
            ],
            [
               -0.010960904881358147,
               -0.012653457000851631,
               -0.01785324513912201,
               -0.00920187309384346,
               -0.004080083221197128,
               0.00714515708386898,
               -0.005595091730356216,
               -0.01020306907594204
            ],
            [
               -0.017923422157764435,
               -0.02511395886540413,
               -0.0017694184789434075,
               0.0030638258904218674,
               -0.0032026576809585094,
               -0.016127541661262512,
               0.005994424223899841,
               0.020620794966816902
            ],
            [
               -0.020999008789658546,
               0.008636216633021832,
               0.0124214431270957,
               0.01783275231719017,
               0.007967338897287846,
               0.0010201004333794117,
               -0.007226152811199427,
               0.013921014964580536
            ],
            [
               0.018022410571575165,
               0.005984382703900337,
               0.016663555055856705,
               0.02222169190645218,
               0.0196002796292305,
               -0.012569923885166645,
               0.02017882838845253,
               -0.01308573316782713
            ],
            [
               -0.014280655421316624,
               0.02244744822382927,
               0.01860673725605011,
               0.008424699306488037,
               -0.016420157626271248,
               -0.0012766644358634949,
               -0.012124747037887573,
               0.01233966276049614
            ],
            [
               0.008164145052433014,
               -0.019476689398288727,
               0.017264988273382187,
               -0.002028394490480423,
               0.020658284425735474,
               0.012891501188278198,
               0.021924849599599838,
               -0.0025846529752016068
            ],
            [
               0.009012800641357899,
               -0.029743213206529617,
               -0.005474704783409834,
               0.013436522334814072,
               -0.0073179579339921474,
               0.015582611784338951,
               0.017100073397159576,
               0.03563781827688217
            ],
            [
               -0.029738202691078186,
               0.015132858417928219,
               0.03925982490181923,
               -0.008806520141661167,
               0.003080947557464242,
               0.0031056152656674385,
               -0.014479806646704674,
               0.013681122101843357
            ],
            [
               -0.01981789618730545,
               0.006863294169306755,
               -0.0047890860587358475,
               0.01639220118522644,
               0.016001001000404358,
               -0.0037375856190919876,
               0.0162496455013752,
               0.018870964646339417
            ],
            [
               -0.0039992555975914,
               -0.01669245958328247,
               0.013822749257087708,
               -0.0034997165203094482,
               -0.008369439281523228,
               0.008563127368688583,
               0.012479253113269806,
               0.013382725417613983
            ],
            [
               -0.014426760375499725,
               -0.02222668193280697,
               -0.010457430966198444,
               -0.017516672611236572,
               -0.020026983693242073,
               0.01745438575744629,
               0.018132057040929794,
               -0.016148988157510757
            ],
            [
               0.011045695282518864,
               -0.005560573190450668,
               0.01002145279198885,
               -0.0019959062337875366,
               -0.0022407250944525003,
               0.004658450372517109,
               0.006660733371973038,
               0.007501744665205479
            ],
            [
               -0.005701444111764431,
               0.031048262491822243,
               0.05180717632174492,
               -0.006154777482151985,
               0.005588068161159754,
               -0.002961402293294668,
               -0.012591036967933178,
               0.016640756279230118
            ],
            [
               -0.01725081354379654,
               0.017260055989027023,
               -0.00678941048681736,
               -0.011776095256209373,
               0.020319752395153046,
               -0.014690595678985119,
               -0.01755952648818493,
               -0.017383359372615814
            ],
            [
               -0.014473461546003819,
               -0.0022456813603639603,
               0.0005118902772665024,
               0.0195491760969162,
               0.013305425643920898,
               0.011070679873228073,
               0.016303952783346176,
               -0.006017971783876419
            ],
            [
               0.013583794236183167,
               -0.006982097402215004,
               0.0020557865500450134,
               -0.008108912035822868,
               0.0013932082802057266,
               0.004790717735886574,
               0.012310158461332321,
               0.008492540568113327
            ],
            [
               0.0008598139975219965,
               -0.00987070519477129,
               0.019579770043492317,
               -0.020771052688360214,
               -0.01695442385971546,
               -0.020086491480469704,
               -0.01159927248954773,
               0.003522677579894662
            ],
            [
               -0.015515572391450405,
               0.041735995560884476,
               0.02978917583823204,
               -0.016636835411190987,
               -0.004990505985915661,
               -0.006388705689460039,
               -0.035695940256118774,
               -0.009581155143678188
            ],
            [
               -0.007272561080753803,
               -0.0016777906566858292,
               -0.004580749198794365,
               -0.012253043241798878,
               0.009719129651784897,
               -0.013525828719139099,
               0.008718807250261307,
               -0.007146837189793587
            ],
            [
               -0.007201776839792728,
               -0.011534362100064754,
               -0.014294122345745564,
               0.004709688946604729,
               0.006557399407029152,
               0.005005206912755966,
               0.015882648527622223,
               0.008540540933609009
            ],
            [
               0.008770082145929337,
               0.00788254477083683,
               -0.0032001491636037827,
               -0.009378671646118164,
               0.013988014310598373,
               3.386102616786957e-05,
               0.02238732948899269,
               -0.021528806537389755
            ],
            [
               -0.010651487857103348,
               -0.0010446368250995874,
               0.017487531527876854,
               0.019128434360027313,
               0.0014029954327270389,
               -0.012591585516929626,
               -0.018114609643816948,
               0.011540538631379604
            ],
            [
               -0.02571805752813816,
               0.033798910677433014,
               0.018860045820474625,
               0.002265002578496933,
               0.014443580061197281,
               0.01515111792832613,
               -0.009561394341289997,
               -0.016426749527454376
            ],
            [
               -0.01583842933177948,
               0.0002533774822950363,
               0.017789941281080246,
               -0.002643335610628128,
               -0.019724836573004723,
               -0.01930856890976429,
               -0.0007039029151201248,
               -0.018701164051890373
            ],
            [
               0.0008957255631685257,
               0.011218678206205368,
               -0.004189373925328255,
               -0.015909496694803238,
               -0.01196582242846489,
               0.015189927071332932,
               0.00509115494787693,
               -0.00593307800590992
            ],
            [
               -0.005123594775795937,
               0.000978739932179451,
               0.0005790069699287415,
               -0.0026243403553962708,
               -0.014906608499586582,
               -0.0032882578670978546,
               0.022348038852214813,
               0.016905561089515686
            ],
            [
               -0.0029496527276933193,
               -0.019210681319236755,
               0.016873393207788467,
               -0.014088833704590797,
               0.010142512619495392,
               0.018822673708200455,
               -0.008206406608223915,
               0.020873328670859337
            ],
            [
               -0.0019649064633995295,
               0.0244044978171587,
               0.04333822801709175,
               -0.016645921394228935,
               -0.0011309045366942883,
               0.007995826192200184,
               0.0070759630762040615,
               0.002603325294330716
            ],
            [
               -0.00753179844468832,
               -0.013867493718862534,
               0.017539236694574356,
               -0.019973676651716232,
               0.01376202329993248,
               0.002902703359723091,
               -0.00932835228741169,
               -0.019244177266955376
            ],
            [
               0.0050543081015348434,
               -0.0020345766097307205,
               -0.013688377104699612,
               -0.013754927553236485,
               0.013728119432926178,
               -0.01001996360719204,
               -0.02002806030213833,
               -0.01882535219192505
            ],
            [
               0.01699398085474968,
               0.0006854087114334106,
               0.014949094504117966,
               -0.002906953915953636,
               -0.022633416578173637,
               -0.003439541906118393,
               -0.004392318427562714,
               0.004403792321681976
            ],
            [
               -0.009058834053575993,
               -0.0002614113036543131,
               0.012333611957728863,
               -0.01233974751085043,
               -0.023430144414305687,
               -0.007935529574751854,
               -0.011113808490335941,
               0.023071371018886566
            ],
            [
               -0.037069063633680344,
               0.048241693526506424,
               0.04497804120182991,
               0.015317469835281372,
               -0.0133644575253129,
               0.012058797292411327,
               -0.03587260842323303,
               0.01975836046040058
            ],
            [
               0.0046393293887376785,
               -0.01062481664121151,
               0.0020909514278173447,
               -0.010685180313885212,
               0.0190725214779377,
               0.001996999606490135,
               -0.022171661257743835,
               0.014223054051399231
            ],
            [
               -0.01184142753481865,
               0.014461223036050797,
               0.011945966631174088,
               -0.003617396578192711,
               -0.009955181740224361,
               0.014346055686473846,
               -0.020874347537755966,
               0.0033162031322717667
            ],
            [
               0.015281077474355698,
               -0.017459377646446228,
               0.0195065476000309,
               -1.4217570424079895e-05,
               0.008470963686704636,
               0.004268532618880272,
               -0.014602689072489738,
               0.017650634050369263
            ],
            [
               -0.012523571960628033,
               0.012882450595498085,
               0.0024917537812143564,
               0.008996590971946716,
               0.0019911876879632473,
               0.01117214746773243,
               -0.017632395029067993,
               0.013042326085269451
            ],
            [
               -0.034512124955654144,
               0.007954162545502186,
               0.038298387080430984,
               0.0019692014902830124,
               -0.00646571908146143,
               0.02988583594560623,
               -0.002291097305715084,
               -0.005560991354286671
            ],
            [
               -0.021973395720124245,
               0.010082617402076721,
               -0.015832439064979553,
               -0.009577212855219841,
               -0.009251664392650127,
               0.01915864273905754,
               -0.02064518816769123,
               -0.012330003082752228
            ],
            [
               -0.020786462351679802,
               -0.009538553655147552,
               0.01525907963514328,
               0.02090902253985405,
               -0.005438055843114853,
               0.016117658466100693,
               0.02019130066037178,
               0.00768103264272213
            ],
            [
               -0.007056450471282005,
               -0.0075580403208732605,
               -0.01691034995019436,
               -0.018162420019507408,
               -0.0014669839292764664,
               0.013481516391038895,
               0.005985405296087265,
               -0.0008791778236627579
            ],
            [
               -0.015598791651427746,
               -0.003921927884221077,
               -0.007483532652258873,
               0.009059593081474304,
               -0.011683456599712372,
               -0.008093437179923058,
               0.01917976886034012,
               0.03919435292482376
            ],
            [
               -0.013411157764494419,
               0.009926852770149708,
               0.013539387844502926,
               -0.021848434582352638,
               -0.006019335240125656,
               0.00730113172903657,
               0.0014188449131324887,
               -0.0020338285248726606
            ],
            [
               -0.012086822651326656,
               0.004353730008006096,
               0.020439013838768005,
               0.003570200875401497,
               -0.022357100620865822,
               0.02032705768942833,
               0.021864965558052063,
               0.017132598906755447
            ],
            [
               0.012943588197231293,
               0.018793433904647827,
               -0.01924387365579605,
               -0.014352140948176384,
               -0.0052340067923069,
               -0.01942353881895542,
               0.006577504798769951,
               0.020631976425647736
            ],
            [
               0.004109781235456467,
               0.004206400364637375,
               0.00472639873623848,
               -0.014498529024422169,
               -0.005809532478451729,
               0.004724396392703056,
               0.00716753676533699,
               0.018578965216875076
            ],
            [
               0.016263332217931747,
               0.006864984519779682,
               -0.006877506617456675,
               -0.009995766915380955,
               -0.0018809358589351177,
               0.016586214303970337,
               -0.002392103662714362,
               0.027595214545726776
            ],
            [
               -0.03254559263586998,
               0.047986458986997604,
               0.02201356738805771,
               -0.006602892652153969,
               0.0026385942474007607,
               0.03227370232343674,
               -0.008230351842939854,
               0.01804288849234581
            ],
            [
               0.011310912668704987,
               -0.0036773681640625,
               -0.022643810138106346,
               0.011918779462575912,
               -0.004596501588821411,
               0.010058682411909103,
               0.004866806790232658,
               -0.004064891487360001
            ],
            [
               0.0016229059547185898,
               -0.0141756571829319,
               -0.015168936923146248,
               0.01778355985879898,
               -0.0015089251101016998,
               0.006998501718044281,
               0.017329562455415726,
               -0.011359946802258492
            ],
            [
               0.005406562238931656,
               -0.016673818230628967,
               0.0054848697036504745,
               -0.0005453433841466904,
               0.00975136086344719,
               -0.002798657864332199,
               0.016704842448234558,
               0.017546482384204865
            ],
            [
               -0.0007267093169502914,
               -0.0023306068032979965,
               -0.007135463412851095,
               -0.0030395537614822388,
               -0.0015345748979598284,
               0.01793629303574562,
               0.01940261200070381,
               0.03480212390422821
            ],
            [
               -0.009082006290555,
               0.050515204668045044,
               0.02157936431467533,
               0.02174728363752365,
               -0.014142664149403572,
               -0.010855627246201038,
               -0.01101598609238863,
               0.004278537817299366
            ],
            [
               0.013657819479703903,
               0.002660965546965599,
               0.005877213552594185,
               0.0019481927156448364,
               0.013956576585769653,
               0.0014253165572881699,
               -0.006849354133009911,
               0.0005581621080636978
            ],
            [
               -0.013634596951305866,
               0.004755284637212753,
               -0.0017713401466608047,
               -0.00035195983946323395,
               0.006157258525490761,
               0.011983506381511688,
               0.007986066862940788,
               0.016584105789661407
            ],
            [
               -0.011669585481286049,
               -0.009289387613534927,
               0.013476010411977768,
               -0.01741555891931057,
               0.017137844115495682,
               0.01653674989938736,
               -0.010236004367470741,
               0.010477971285581589
            ],
            [
               -0.003078394802287221,
               -0.015936952084302902,
               0.0263101514428854,
               0.009015645831823349,
               0.013674096204340458,
               0.01636124774813652,
               0.010462012141942978,
               0.014931873418390751
            ],
            [
               -0.034615401178598404,
               0.022820692509412766,
               0.04288021847605705,
               -0.008905456401407719,
               -0.016777820885181427,
               0.006423460319638252,
               -0.01992367021739483,
               0.010768214240670204
            ],
            [
               0.02203051745891571,
               -0.0029287077486515045,
               0.013241160660982132,
               0.010273613035678864,
               0.006819222122430801,
               -0.0028005409985780716,
               -0.021411174908280373,
               0.018532928079366684
            ],
            [
               -0.0014081764966249466,
               0.018376916646957397,
               0.007830042392015457,
               0.021360017359256744,
               -0.022478122264146805,
               -0.017661215737462044,
               -0.018772277981042862,
               -0.011679297313094139
            ],
            [
               -0.020248372107744217,
               -0.018121851608157158,
               -0.008357664570212364,
               -0.014921256341040134,
               -0.020781874656677246,
               -0.010537165217101574,
               0.021314386278390884,
               -0.011575997807085514
            ],
            [
               -0.005994631443172693,
               -0.026717381551861763,
               -0.00922807864844799,
               0.02004227414727211,
               -0.003709678538143635,
               0.019609985873103142,
               -0.011725891381502151,
               0.02807263843715191
            ],
            [
               -0.0266408734023571,
               0.031240658834576607,
               0.04385032132267952,
               0.015288636088371277,
               -0.011890674941241741,
               0.028444629162549973,
               0.007323431316763163,
               -0.008679239079356194
            ],
            [
               -0.0045226383954286575,
               -0.011883731931447983,
               0.0018977262079715729,
               0.002408502623438835,
               -0.01311409194022417,
               0.009992387145757675,
               -0.011585650034248829,
               0.006821474060416222
            ],
            [
               0.019602205604314804,
               0.01067529246211052,
               0.0026492122560739517,
               0.00830063596367836,
               0.017036128789186478,
               0.007848918437957764,
               0.008457619696855545,
               -0.01481833215802908
            ],
            [
               -0.0002780091017484665,
               0.011717107146978378,
               0.006851976737380028,
               0.014407530426979065,
               -0.004875278100371361,
               0.010038871318101883,
               -0.007736574858427048,
               0.004661789163947105
            ],
            [
               -0.01172039844095707,
               -0.005693433806300163,
               -0.006826317403465509,
               0.01726587489247322,
               0.01820201240479946,
               -0.0006466915947385132,
               0.003486633999273181,
               0.00016443034110125154
            ],
            [
               -0.01311770174652338,
               0.03856708109378815,
               0.039535392075777054,
               -0.016140058636665344,
               -0.01665644161403179,
               -0.0024474349338561296,
               -0.0343598835170269,
               -0.00889622513204813
            ],
            [
               0.01141558587551117,
               -0.008138424716889858,
               -0.02233641780912876,
               0.021916449069976807,
               -0.019817184656858444,
               -0.008010519668459892,
               -0.019097909331321716,
               0.020166032016277313
            ],
            [
               -0.012506388127803802,
               -0.019940288737416267,
               -0.00034212134778499603,
               0.01762300729751587,
