[
   {
      "config": {
         "name": "conv2d_11",
         "trainable": true,
         "batch_input_shape": [
            null,
            96,
            96,
            1
         ],
         "dtype": "float32",
         "filters": 5,
         "kernel_size": [
            2,
            2
         ],
         "strides": [
            1,
            1
         ],
         "padding": "same",
         "data_format": "channels_last",
         "dilation_rate": [
            1,
            1
         ],
         "groups": 1,
         "activation": "relu",
         "use_bias": true,
         "kernel_initializer": {
            "class_name": "HeUniform",
            "config": {
               "seed": null
            }
         },
         "bias_initializer": {
            "class_name": "Zeros",
            "config": {}
         },
         "kernel_regularizer": null,
         "bias_regularizer": null,
         "activity_regularizer": null,
         "kernel_constraint": null,
         "bias_constraint": null
      },
      "weights_biases": [
         [
            [
               [
                  [
                     -0.7353817820549011,
                     -0.1752491146326065,
                     -0.7147015929222107,
                     -1.0988819599151611,
                     -0.5828387141227722
                  ]
               ],
               [
                  [
                     0.9185164570808411,
                     0.7079994678497314,
                     -1.0999281406402588,
                     -0.2807462513446808,
                     -0.8961945176124573
                  ]
               ]
            ],
            [
               [
                  [
                     1.1215840578079224,
                     -0.9835885763168335,
                     -0.8826185464859009,
                     1.1545398235321045,
                     -0.3236760199069977
                  ]
               ],
               [
                  [
                     -1.280432939529419,
                     0.3701479136943817,
                     -0.41836899518966675,
                     -0.03266608342528343,
                     0.5163903832435608
                  ]
               ]
            ]
         ],
         [
            -0.011925448663532734,
            0.03381877392530441,
            0.0,
            0.24857382476329803,
            0.3869122266769409
         ]
      ]
   },
   {
      "config": {
         "name": "max_pooling2d_11",
         "trainable": true,
         "dtype": "float32",
         "pool_size": [
            2,
            2
         ],
         "padding": "valid",
         "strides": [
            2,
            2
         ],
         "data_format": "channels_last"
      },
      "weights_biases": []
   },
   {
      "config": {
         "name": "flatten_11",
         "trainable": true,
         "dtype": "float32",
         "data_format": "channels_last"
      },
      "weights_biases": []
   },
   {
      "config": {
         "name": "dense_22",
         "trainable": true,
         "dtype": "float32",
         "units": 8,
         "activation": "relu",
         "use_bias": true,
         "kernel_initializer": {
            "class_name": "HeUniform",
            "config": {
               "seed": null
            }
         },
         "bias_initializer": {
            "class_name": "Zeros",
            "config": {}
         },
         "kernel_regularizer": null,
         "bias_regularizer": null,
         "activity_regularizer": null,
         "kernel_constraint": null,
         "bias_constraint": null
      },
      "weights_biases": [
         [
            [
               0.042900294065475464,
               0.0035703880712389946,
               0.02317592315375805,
               0.010225548408925533,
               -0.03013232909142971,
               -0.0029344044160097837,
               0.01141409482806921,
               -0.020696409046649933
            ],
            [
               0.0023664822801947594,
               7.305905455723405e-05,
               0.01095115952193737,
               -0.0066158100962638855,
               0.01890404149889946,
               -0.004243949893862009,
               -0.009569830261170864,
               0.008852317929267883
            ],
            [
               0.014316067099571228,
               0.0013021677732467651,
               0.005936136469244957,
               -0.003147212788462639,
               0.012269344180822372,
               -0.0020298361778259277,
               0.013415426015853882,
               -0.0026202816516160965
            ],
            [
               0.021449299529194832,
               -0.023574233055114746,
               -0.0075150830671191216,
               -0.017590535804629326,
               -0.006424417719244957,
               0.022240037098526955,
               0.04096027463674545,
               0.014923546463251114
            ],
            [
               -0.016244953498244286,
               0.0034032613039016724,
               -0.008008490316569805,
               0.00920899584889412,
               -0.014281406067311764,
               0.010746166110038757,
               -0.007899602875113487,
               -0.017223509028553963
            ],
            [
               0.05211583524942398,
               -0.005158614832907915,
               0.03312964737415314,
               0.012536365538835526,
               -0.02343657985329628,
               -0.0013353772228583694,
               0.0009964776691049337,
               -0.010648088529706001
            ],
            [
               0.011357467621564865,
               -0.010045519098639488,
               0.02424117736518383,
               -0.004817396402359009,
               0.018928177654743195,
               0.01867489516735077,
               -0.024301908910274506,
               0.0049630869179964066
            ],
            [
               -0.0012410245835781097,
               -0.0030992981046438217,
               -0.016374584287405014,
               0.002850305289030075,
               0.009173694998025894,
               0.021405860781669617,
               0.004474179819226265,
               -0.0005112756043672562
            ],
            [
               -0.01806698925793171,
               -0.011676489375531673,
               -0.032058339565992355,
               -0.01539215911179781,
               -0.007695418782532215,
               0.01658843457698822,
               0.006137443240731955,
               0.017277725040912628
            ],
            [
               0.017023690044879913,
               0.00794190727174282,
               0.0043047163635492325,
               -0.022575784474611282,
               -0.013658711686730385,
               -0.021270260214805603,
               -0.013555270619690418,
               0.010042686015367508
            ],
            [
               0.016495896503329277,
               -0.010717512108385563,
               0.011878395453095436,
               -0.01815894804894924,
               -0.033170104026794434,
               0.0035370751284062862,
               0.012618127278983593,
               0.00020427974232006818
            ],
            [
               -0.0062469495460391045,
               0.007632687222212553,
               0.01563870720565319,
               0.0020155981183052063,
               0.01637767255306244,
               -0.011759919114410877,
               -0.016778426244854927,
               -0.003007221966981888
            ],
            [
               -0.01717487722635269,
               0.01067487895488739,
               -0.004558751359581947,
               -0.002915402874350548,
               0.02032168209552765,
               -0.007568009197711945,
               -0.020098496228456497,
               0.0033236630260944366
            ],
            [
               -0.006442893762141466,
               -0.041983913630247116,
               -0.01850510761141777,
               0.004746982827782631,
               -0.008029499091207981,
               0.006292444653809071,
               0.016915293410420418,
               0.021477539092302322
            ],
            [
               0.015161603689193726,
               -0.0032942648977041245,
               0.014980494976043701,
               -0.005017068237066269,
               -0.003537967801094055,
               -0.016005070880055428,
               0.011590775102376938,
               -0.008038900792598724
            ],
            [
               0.02965114451944828,
               -0.017714008688926697,
               0.01040608063340187,
               0.013292322866618633,
               -0.013662741519510746,
               0.002675082068890333,
               0.0004449048428796232,
               0.0015704849502071738
            ],
            [
               0.007772332057356834,
               0.0015980858588591218,
               -0.003260251833125949,
               -0.006219631060957909,
               0.010135560296475887,
               0.02468528412282467,
               0.020036935806274414,
               0.017889346927404404
            ],
            [
               -0.003052525222301483,
               0.01621529832482338,
               0.02169930934906006,
               0.005018472671508789,
               0.012087948620319366,
               0.007451215758919716,
               -0.00519779697060585,
               -0.0008003748953342438
            ],
            [
               0.01814376749098301,
               -0.033591076731681824,
               0.011768496595323086,
               0.007111573591828346,
               0.0019302144646644592,
               -0.0019385726191103458,
               0.005469640716910362,
               -0.020989982411265373
            ],
            [
               -0.005767429247498512,
               -0.0008736830204725266,
               -0.015779301524162292,
               0.0054961927235126495,
               -0.016638614237308502,
               -0.004668602719902992,
               0.01148892194032669,
               0.014831263571977615
            ],
            [
               0.03197995573282242,
               0.011634016409516335,
               0.024858931079506874,
               0.011647026054561138,
               -0.009893043898046017,
               0.018454350531101227,
               0.0024977498687803745,
               -0.0280853770673275
            ],
            [
               0.02821417525410652,
               0.004888209979981184,
               0.03438900411128998,
               -0.015354501083493233,
               0.0048034824430942535,
               0.019380569458007812,
               -0.023878268897533417,
               0.013930059969425201
            ],
            [
               0.015085875988006592,
               -0.008671476505696774,
               -0.01987384259700775,
               0.017411325126886368,
               0.02087032049894333,
               -0.01813201606273651,
               -0.006718980148434639,
               -0.015775350853800774
            ],
            [
               0.016952792182564735,
               -0.009638822637498379,
               -0.005523976404219866,
               -0.008972985669970512,
               0.013288665562868118,
               0.008716095238924026,
               0.03869225084781647,
               -0.02202720381319523
            ],
            [
               -0.007330247201025486,
               -0.007433879189193249,
               -0.0012654941529035568,
               0.018679775297641754,
               -0.0023209042847156525,
               -0.005310339853167534,
               -0.008313536643981934,
               -0.008326132781803608
            ],
            [
               0.02508835680782795,
               0.018480362370610237,
               0.03842906653881073,
               -0.0007699026027694345,
               -0.013652169145643711,
               -0.007451603189110756,
               -0.011471292935311794,
               -0.02052621729671955
            ],
            [
               0.005347436759620905,
               -0.016516773030161858,
               0.01148188952356577,
               0.008266046643257141,
               0.03400447592139244,
               -0.01296884287148714,
               0.01998356729745865,
               -0.021757710725069046
            ],
            [
               -0.012884954921901226,
               -0.020574480295181274,
               0.015967383980751038,
               0.004020003601908684,
               0.004463519901037216,
               0.022749487310647964,
               0.01429041102528572,
               0.020662527531385422
            ],
            [
               0.016088100150227547,
               -0.003474980592727661,
               -0.019487053155899048,
               0.022444210946559906,
               -0.018793651834130287,
               0.020490989089012146,
               0.022912919521331787,
               0.02066614106297493
            ],
            [
               -0.009206824004650116,
               0.007091376930475235,
               0.016916319727897644,
               0.0120106041431427,
               -0.01680603250861168,
               -0.017775163054466248,
               0.009083136916160583,
               0.02090853825211525
            ],
            [
               0.03294388949871063,
               0.0016452211420983076,
               0.03547615930438042,
               -0.012688570655882359,
               -0.03507411852478981,
               0.028020326048135757,
               -0.011728781275451183,
               0.0010059075430035591
            ],
            [
               0.02108391746878624,
               -0.009324895218014717,
               -0.004034534562379122,
               -0.0018255505710840225,
               0.009124095551669598,
               -0.006072739604860544,
               0.015517906285822392,
               -0.013126443140208721
            ],
            [
               -0.007571828551590443,
               0.02229241654276848,
               0.004884941503405571,
               -0.021286845207214355,
               -0.019107474014163017,
               0.0004014521837234497,
               -0.00040729157626628876,
               0.0031036175787448883
            ],
            [
               0.02666155807673931,
               -0.015097801573574543,
               0.0032080356031656265,
               -0.018547430634498596,
               0.011187665164470673,
               0.004188982304185629,
               0.009613430127501488,
               0.014699704945087433
            ],
            [
               -0.014559012837707996,
               -0.021251244470477104,
               -0.012029804289340973,
               0.007811635732650757,
               -0.008633214049041271,
               0.0056137870997190475,
               -0.003252927213907242,
               -0.019893713295459747
            ],
            [
               0.04739958047866821,
               0.0027894913218915462,
               0.021724747493863106,
               0.0025252164341509342,
               0.003814581548795104,
               0.005956616252660751,
               0.0019160425290465355,
               -0.02866331860423088
            ],
            [
               -0.008045969530940056,
               0.013380023650825024,
               -0.010460344143211842,
               -0.005159953609108925,
               0.024318553507328033,
               0.025644509121775627,
               -0.017785685136914253,
               -0.013427365571260452
            ],
            [
               0.01187039166688919,
               0.003477504476904869,
               0.013633757829666138,
               -0.011967547237873077,
               0.0204472579061985,
               -0.008211390115320683,
               0.012411866337060928,
               0.006833259016275406
            ],
            [
               0.027085503563284874,
               -0.041217803955078125,
               0.007658046204596758,
               -0.009140502661466599,
               -0.021019963547587395,
               0.029548633843660355,
               0.031200503930449486,
               0.00582372210919857
            ],
            [
               0.01042107492685318,
               0.006886446848511696,
               0.011582281440496445,
               -0.015225845389068127,
               -0.021116603165864944,
               -0.014284382574260235,
               -0.021726222708821297,
               -0.016820043325424194
            ],
            [
               0.05114034563302994,
               0.017384463921189308,
               0.00777656864374876,
               -0.017186185345053673,
               -0.005136086139827967,
               -0.01343126967549324,
               0.02748178504407406,
               -0.008731159381568432
            ],
            [
               0.010389413684606552,
               -0.011154522188007832,
               0.0046712555922567844,
               0.0018805917352437973,
               0.008738785050809383,
               -0.006900169886648655,
               0.020906582474708557,
               -0.015342753380537033
            ],
            [
               -0.014268266037106514,
               -0.011666206642985344,
               0.0025224070996046066,
               0.008803363889455795,
               0.002826441079378128,
               0.02213585376739502,
               0.02211163565516472,
               0.012034520506858826
            ],
            [
               -0.0038452937733381987,
               -0.029101960361003876,
               -0.006008841563016176,
               0.01757846027612686,
               -0.006966155022382736,
               -0.004966817796230316,
               -0.001042647985741496,
               -0.00559663213789463
            ],
            [
               0.0018809344619512558,
               -0.016893988475203514,
               0.009326454252004623,
               0.019431989639997482,
               -0.021041205152869225,
               0.006433788686990738,
               -0.01469812635332346,
               0.01637815684080124
            ],
            [
               0.054715774953365326,
               -0.01371398288756609,
               0.030370773747563362,
               -0.01903974451124668,
               -0.011942517943680286,
               0.011769739910960197,
               -0.0014128065668046474,
               -0.018558213487267494
            ],
            [
               0.0058841523714363575,
               0.010100736282765865,
               -0.004551186226308346,
               0.022656630724668503,
               0.038728486746549606,
               0.017921339720487595,
               -0.020277919247746468,
               0.015128839761018753
            ],
            [
               -0.01790383644402027,
               -0.0006811972707509995,
               -0.019668586552143097,
               0.015360996127128601,
               -0.012341140769422054,
               0.015429086983203888,
               -0.001110415905714035,
               0.019838761538267136
            ],
            [
               0.010460559278726578,
               -0.01503730658441782,
               0.01085972972214222,
               -0.007081750780344009,
               -0.01362271886318922,
               -0.010706082917749882,
               0.028819490224123,
               0.022566094994544983
            ],
            [
               0.015286508947610855,
               -0.020020971074700356,
               -0.018586529418826103,
               -0.0020204726606607437,
               0.006640279665589333,
               0.020178481936454773,
               0.006965750828385353,
               -0.008492670021951199
            ],
            [
               0.014658661559224129,
               0.014796466566622257,
               0.027347223833203316,
               0.008044191636145115,
               -0.0030722336377948523,
               0.00840816181153059,
               0.0034487866796553135,
               0.01289686281234026
            ],
            [
               0.012443514540791512,
               0.010447273962199688,
               -0.0025048917159438133,
               0.019191302359104156,
               0.004826286807656288,
               0.008366952650249004,
               0.009648498147726059,
               -0.0023365747183561325
            ],
            [
               -0.01426452212035656,
               -0.013896549120545387,
               0.01562865450978279,
               0.0002295617014169693,
               0.011060111224651337,
               -0.01809336617588997,
               -0.005052980035543442,
               0.0039806365966796875
            ],
            [
               -0.012672338634729385,
               -0.015522542409598827,
               -0.013717524707317352,
               -0.012881173752248287,
               -0.013701272197067738,
               -0.004706710577011108,
               0.029890600591897964,
               -0.0201766025274992
            ],
            [
               -0.019013958051800728,
               0.0007758457213640213,
               0.018373683094978333,
               -0.005692178383469582,
               0.017024941742420197,
               0.019154082983732224,
               -0.008815829642117023,
               0.010167036205530167
            ],
            [
               0.03117312677204609,
               -0.016082854941487312,
               0.025923384353518486,
               -0.025933148339390755,
               0.005762462038546801,
               0.009191911667585373,
               -0.005845129024237394,
               0.010654062032699585
            ],
            [
               0.012293444946408272,
               0.010384942404925823,
               -0.007393054664134979,
               -0.011618411168456078,
               0.02118006721138954,
               0.018345028162002563,
               -0.023786678910255432,
               -0.02003205381333828
            ],
            [
               0.011195488274097443,
               0.019150562584400177,
               0.0031165778636932373,
               0.002520838752388954,
               0.0020594634115695953,
               -0.012334676459431648,
               0.01748785749077797,
               -0.012716900557279587
            ],
            [
               0.019182005897164345,
               -0.04645601660013199,
               0.011029436253011227,
               0.001942746341228485,
               -0.0183834508061409,
               0.007295702584087849,
               0.036185264587402344,
               -0.02205256000161171
            ],
            [
               0.00394858792424202,
               0.015257168561220169,
               0.020022481679916382,
               0.009411714971065521,
               0.020578060299158096,
               0.014771003276109695,
               -0.011817023158073425,
               -0.0017092842608690262
            ],
            [
               0.04727465659379959,
               -0.0019487803801894188,
               0.029501384124159813,
               0.0007130515296012163,
               -0.02764800749719143,
               0.006350032985210419,
               -0.009553136304020882,
               -0.006236580200493336
            ],
            [
               0.007113947067409754,
               -0.013136394321918488,
               0.024626074358820915,
               0.01699146255850792,
               0.011964901350438595,
               0.007746806833893061,
               -0.01412298996001482,
               0.011154428124427795
            ],
            [
               0.02259962633252144,
               0.008207352831959724,
               -0.0027921777218580246,
               0.00045845285058021545,
               -0.01250471267849207,
               -0.009238731116056442,
               0.016652528196573257,
               -0.017591144889593124
            ],
            [
               -0.009279223158955574,
               -0.019601115956902504,
               -0.019135937094688416,
               -0.0204292181879282,
               -0.007778918370604515,
               0.011687316000461578,
               0.04216993227601051,
               -0.013500978238880634
            ],
            [
               0.005916548892855644,
               0.0191936232149601,
               -0.012727831490337849,
               0.02118103578686714,
               -0.01881241239607334,
               -0.018433507531881332,
               -0.0039632078260183334,
               -0.02092719078063965
            ],
            [
               0.018409488722682,
               -0.00347314914688468,
               0.035670869052410126,
               0.008919947780668736,
               -0.001956283813342452,
               0.0007588731241412461,
               0.028708135709166527,
               0.013077611103653908
            ],
            [
               0.027609575539827347,
               -0.00880129262804985,
               0.018002929165959358,
               0.006756441667675972,
               0.03312310948967934,
               -0.004589224699884653,
               0.0038763482589274645,
               0.018745485693216324
            ],
            [
               -0.013052667491137981,
               -0.021182658150792122,
               0.01930820941925049,
               0.007545037195086479,
               -0.0012385211884975433,
               -0.0031413622200489044,
               -0.006046030670404434,
               -0.009263847023248672
            ],
            [
               -0.01233564130961895,
               -0.03919260576367378,
               0.004275508690625429,
               -0.01402420923113823,
               -0.012395502999424934,
               0.027454014867544174,
               0.006785768084228039,
               -0.003627810627222061
            ],
            [
               0.004746589809656143,
               0.00021188333630561829,
               -0.018593717366456985,
               0.015391401946544647,
               -0.022031720727682114,
               -0.008889562450349331,
               -0.016177672892808914,
               -0.008740986697375774
            ],
            [
               0.03279007226228714,
               -0.0023452527821063995,
               0.03688327968120575,
               0.0019147469429299235,
               -0.0007488554110750556,
               0.007556553930044174,
               0.007665538694709539,
               -0.015742000192403793
            ],
            [
               -0.0033308742567896843,
               0.012494904920458794,
               0.002070192014798522,
               0.010889533907175064,
               0.039132241159677505,
               -0.007673402316868305,
               -0.023881368339061737,
               -0.017161943018436432
            ],
            [
               -0.02034716121852398,
               0.014648061245679855,
               0.01801213249564171,
               0.0014439523220062256,
               0.004542851820588112,
               -0.01051802933216095,
               -0.0184988621622324,
               0.02227288857102394
            ],
            [
               -0.011617465876042843,
               -0.03249257057905197,
               -0.003594385227188468,
               -0.020127659663558006,
               0.022465374320745468,
               0.02291286177933216,
               0.019014015793800354,
               -0.022086430341005325
            ],
            [
               0.006223862990736961,
               0.022105447947978973,
               0.0038059595972299576,
               -0.014499448239803314,
               -0.00893037673085928,
               -0.017326053231954575,
               -0.00297454372048378,
               0.022806677967309952
            ],
            [
               0.054477594792842865,
               0.01446718629449606,
               0.02220853604376316,
               -0.006596484687179327,
               -0.011272422038018703,
               -0.012107137590646744,
               -0.005881867837160826,
               -0.022270262241363525
            ],
            [
               -0.00022029993124306202,
               -0.02106599695980549,
               0.034446123987436295,
               -0.018019726499915123,
               0.020776178687810898,
               -0.008554440923035145,
               -0.000683644087985158,
               0.015362750738859177
            ],
            [
               0.0003585219383239746,
               -0.005907163023948669,
               0.015665370970964432,
               0.016616225242614746,
               -0.006740918383002281,
               -0.012625669129192829,
               -0.01940803788602352,
               -0.014087696559727192
            ],
            [
               -0.01314287818968296,
               -0.005228552035987377,
               -0.0038448404520750046,
               0.020972993224859238,
               -0.013955759815871716,
               0.031412191689014435,
               0.0016517681069672108,
               -0.022793686017394066
            ],
            [
               0.019100386649370193,
               -0.01378975622355938,
               0.012331493198871613,
               0.011496562510728836,
               0.0128488689661026,
               -0.011793131940066814,
               -0.011647776700556278,
               -0.000333443284034729
            ],
            [
               0.029803501442074776,
               -0.007984104566276073,
               0.006828278303146362,
               -0.013433178886771202,
               -0.024078262969851494,
               0.016185635700821877,
               0.02885102666914463,
               -0.013696745038032532
            ],
            [
               0.021632421761751175,
               0.0031959223560988903,
               0.006522702518850565,
               0.016789190471172333,
               0.03436215594410896,
               0.02182305045425892,
               -0.010240753181278706,
               0.009502921253442764
            ],
            [
               0.004865288734436035,
               0.0011944007128477097,
               -0.004601715132594109,
               0.022009704262018204,
               0.005365725606679916,
               0.00553131103515625,
               0.017083335667848587,
               0.006946271285414696
            ],
            [
               0.026764577254652977,
               -0.020437492057681084,
               -0.01645362749695778,
               -0.014110619202256203,
               -0.011547844856977463,
               -0.005046047270298004,
               0.008763905614614487,
               0.010822959244251251
            ],
            [
               0.018812015652656555,
               -0.006006702780723572,
               0.0047428198158741,
               0.0039144884794950485,
               -0.008438476361334324,
               0.014222841709852219,
               -0.016814984381198883,
               0.012490585446357727
            ],
            [
               0.05278756469488144,
               0.024614663794636726,
               0.016055366024374962,
               0.014960287138819695,
               -0.02769937552511692,
               0.021761517971754074,
               0.004401423502713442,
               -0.013548772782087326
            ],
            [
               -0.0024651256389915943,
               0.0057685296051204205,
               -0.006473480258136988,
               0.020156268030405045,
               0.03107990138232708,
               -0.0017785491654649377,
               0.006573301739990711,
               0.015292525291442871
            ],
            [
               -0.014409969560801983,
               0.008865371346473694,
               0.008642669767141342,
               0.007172204554080963,
               0.010179683566093445,
               0.0027573872357606888,
               -0.022480135783553123,
               -0.021626943722367287
            ],
            [
               0.018989311531186104,
               -0.029328327625989914,
               0.0005995398969389498,
               0.011191803961992264,
               0.016615144908428192,
               0.011245503090322018,
               0.036745987832546234,
               -0.012577890418469906
            ],
            [
               -0.02143213339149952,
               -0.020435595884919167,
               -0.011466690339148045,
               -0.01626897044479847,
               -0.011832291260361671,
               -0.017964255064725876,
               -0.017395073547959328,
               -0.002371273934841156
            ],
            [
               0.023807784542441368,
               -0.010359253734350204,
               0.02536921761929989,
               -0.0024868024047464132,
               -0.03219039738178253,
               0.011906513944268227,
               0.014788500964641571,
               -0.010262827388942242
            ],
            [
               -0.00953103881329298,
               -0.01945236138999462,
               0.024113008752465248,
               -0.0003235563635826111,
               0.03691060468554497,
               -0.0031271434854716063,
               0.015897218137979507,
               0.016758210957050323
            ],
            [
               -0.013280177488923073,
               0.0006380490958690643,
               -0.001052815467119217,
               0.007732179015874863,
               0.01044527068734169,
               -0.00732465460896492,
               0.004626814275979996,
               -0.006523419171571732
            ],
            [
               0.024214310571551323,
               -0.01702865958213806,
               -0.01373472809791565,
               0.009526938199996948,
               0.01545950397849083,
               -0.009653081186115742,
               0.03167816624045372,
               -0.0008047390729188919
            ],
            [
               0.006864534690976143,
               -0.0038238558918237686,
               -0.012055149301886559,
               0.0086759552359581,
               0.017675280570983887,
               -0.009044493548572063,
               0.019422199577093124,
               0.01870017871260643
            ],
            [
               0.036276161670684814,
               -0.012369928881525993,
               0.013162331655621529,
               0.002839899156242609,
               -0.021446343511343002,
               -0.006445029284805059,
               0.02375696413218975,
               -0.02383057400584221
            ],
            [
               0.014629808254539967,
               0.0019559371285140514,
               0.006669129244983196,
               -0.01862950436770916,
               0.008475667797029018,
               0.023516081273555756,
               -0.007174273021519184,
               0.012234564870595932
            ],
            [
               0.014690585434436798,
               -0.00046398676931858063,
               0.015303108841180801,
               0.009889915585517883,
               -0.01887482777237892,
               -0.01600334607064724,
               -0.01437159813940525,
               0.021400857716798782
            ],
            [
               -0.002418630989268422,
               -0.0033769868314266205,
               0.0038953442126512527,
               0.020047739148139954,
               -0.021292617544531822,
               0.0010488471016287804,
               0.018896140158176422,
               0.012421000748872757
            ],
            [
               -0.01436992734670639,
               0.0037926174700260162,
               0.0021590590476989746,
               -0.021947160363197327,
               -0.014117312617599964,
               -0.011172434315085411,
               0.014863226562738419,
               -0.015537818893790245
            ],
            [
               0.016624588519334793,
               -0.01613364741206169,
               0.030946621671319008,
               -0.019490433856844902,
               -0.030610017478466034,
               -0.016898704692721367,
               0.009948638267815113,
               -0.014678945764899254
            ],
            [
               -0.007599146571010351,
               0.0031649316661059856,
               0.03134867921471596,
               -0.005925308912992477,
               -0.003504591528326273,
               0.0013583629624918103,
               0.012850969098508358,
               0.00900769978761673
            ],
            [
               -0.009457322768867016,
               0.00961916521191597,
               0.002098226919770241,
               -0.02080491930246353,
               -0.004244836047291756,
               0.011286560446023941,
               -0.008518635295331478,
               -0.01478070579469204
            ],
            [
               -0.01241508312523365,
               -0.020397568121552467,
               0.013249692507088184,
               0.017305877059698105,
               0.018915697932243347,
               0.02236432023346424,
               0.03506573289632797,
               -0.007006216794252396
            ],
            [
               -0.0225395355373621,
               -0.0014447029680013657,
               -0.00981900654733181,
               -0.01204704213887453,
               0.009356614202260971,
               -0.020310379564762115,
               -0.015172718092799187,
               -0.009741056710481644
            ],
            [
               0.04826156795024872,
               -0.007472523022443056,
               0.014832161366939545,
               0.010153478942811489,
               -0.008669876493513584,
               0.010374464094638824,
               -0.00822692085057497,
               0.01250577811151743
            ],
            [
               -0.003508288413286209,
               -0.02203710563480854,
               0.0068627772852778435,
               -0.008534539490938187,
               0.03712114319205284,
               -0.002080541802570224,
               -0.017761031165719032,
               0.0018136613070964813
            ],
            [
               -0.021329574286937714,
               -0.014413940720260143,
               -0.003058662638068199,
               -0.0021346770226955414,
               -0.016641341149806976,
               0.021661054342985153,
               -0.016459045931696892,
               -0.01983179897069931
            ],
            [
               -0.0027449068147689104,
               -0.04393778741359711,
               0.00456732464954257,
               -0.0025613438338041306,
               -0.0006941147148609161,
               0.009542694315314293,
               0.027102267369627953,
               -0.012395389378070831
            ],
            [
               0.011023368686437607,
               -0.022806162014603615,
               -0.012638476677238941,
               -0.008682265877723694,
               0.0008803270757198334,
               0.02228151261806488,
               -0.01793370209634304,
               0.018159888684749603
            ],
            [
               0.010049080476164818,
               -0.012494592927396297,
               0.013970857486128807,
               -0.015789048746228218,
               -0.018346788361668587,
               -0.009205752983689308,
               -0.0116741256788373,
               0.0031995614990592003
            ],
            [
               0.030053161084651947,
               -0.007952699437737465,
               0.02113570272922516,
               0.011019717901945114,
               0.0016703256405889988,
               -0.003988719079643488,
               0.006053094752132893,
               -0.011861080303788185
            ],
            [
               0.018193718045949936,
               -0.003741847351193428,
               -0.018403397873044014,
               0.006753705441951752,
               -0.0169475506991148,
               -0.01733064465224743,
               0.022599536925554276,
               -0.00775450374931097
            ],
            [
               0.006491112522780895,
               -0.022930001839995384,
               0.011304936371743679,
               -0.017045719549059868,
               0.014413200318813324,
               -0.007038497366011143,
               0.03535597771406174,
               0.0020136553794145584
            ],
            [
               -0.01527228020131588,
               -0.020571231842041016,
               0.003222653642296791,
               0.0137476846575737,
               0.016048409044742584,
               0.015254363417625427,
               -0.019141785800457,
               -0.013407369144260883
            ],
            [
               0.026455042883753777,
               -0.011662299744784832,
               0.019073372706770897,
               0.004419197328388691,
               0.005480501335114241,
               0.021912548691034317,
               0.013621918857097626,
               0.009394098073244095
            ],
            [
               -0.010335034690797329,
               -0.00980924442410469,
               0.008170911110937595,
               -0.0008531752973794937,
               0.0019415286369621754,
               0.0074473232962191105,
               -0.0037927173543721437,
               -0.009524586610496044
            ],
            [
               0.0029051732271909714,
               -0.002756452187895775,
               -0.003850087523460388,
               -0.019061394035816193,
               -0.0041490718722343445,
               -0.01393620390444994,
               -0.010698674246668816,
               0.00539107620716095
            ],
            [
               -0.018076369538903236,
               -0.023077307268977165,
               0.0010411168914288282,
               0.002866879105567932,
               0.021516162902116776,
               0.02241707779467106,
               0.024779997766017914,
               -0.004208527505397797
            ],
            [
               0.019537128508090973,
               -0.01379722636193037,
               0.004775771871209145,
               0.009622938930988312,
               0.02013373374938965,
               -0.009501701220870018,
               0.016681067645549774,
               -0.019596397876739502
            ],
            [
               0.03610246628522873,
               -0.020144913345575333,
               0.010192234069108963,
               0.0049680364318192005,
               -0.035287778824567795,
               0.005414686631411314,
               0.016390962526202202,
               -0.00340398121625185
            ],
            [
               0.012028582394123077,
               -0.003266250714659691,
               0.033083874732255936,
               0.02087884023785591,
               -0.0016267248429358006,
               -0.009088399820029736,
               -0.010556274093687534,
               -0.013006852939724922
            ],
            [
               -0.0189373679459095,
               0.014470893889665604,
               -0.022011473774909973,
               -0.0029877759516239166,
               0.016428109258413315,
               0.02118566632270813,
               -0.01894838735461235,
               -0.011889352463185787
            ],
            [
               0.0008399345097132027,
               -0.029521837830543518,
               -0.02051345445215702,
               0.01067197322845459,
               -0.011863109655678272,
               0.0008691424736753106,
               0.0060585867613554,
               0.009456593543291092
            ],
            [
               0.01394609734416008,
               0.010515239089727402,
               0.022563178092241287,
               0.01859280839562416,
               -0.00406569242477417,
               0.006908467039465904,
               -0.002782488241791725,
               -0.004425916820764542
            ],
            [
               0.03407154977321625,
               0.019473614171147346,
               -0.0001421694760210812,
               -0.015119793824851513,
               -0.03213262930512428,
               0.015110607258975506,
               0.010294661857187748,
               -0.015966467559337616
            ],
            [
               0.004536246880888939,
               0.0098873320966959,
               -0.0025651748292148113,
               -0.007788233458995819,
               0.019264258444309235,
               0.016494739800691605,
               -0.007209009490907192,
               0.00914754718542099
            ],
            [
               0.018674541264772415,
               0.017412737011909485,
               -0.004222549498081207,
               -0.01996469311416149,
               0.01646435633301735,
               -0.0038498416543006897,
               0.0017675478011369705,
               0.01824662834405899
            ],
            [
               -0.014591289684176445,
               -0.004390711430460215,
               -0.0034048089291900396,
               -0.012170952744781971,
               0.022352654486894608,
               0.011024555191397667,
               0.021191541105508804,
               0.015872567892074585
            ],
            [
               0.0021506361663341522,
               0.017291735857725143,
               -0.009607955813407898,
               -0.005405109375715256,
               -0.019561586901545525,
               0.006417633965611458,
               0.010284282267093658,
               0.004132591187953949
            ],
            [
               0.01738392747938633,
               0.007386928424239159,
               0.030686376616358757,
               -0.015496010892093182,
               -0.007590494584292173,
               -0.0020446362905204296,
               -0.0057199872098863125,
               -0.002509094076231122
            ],
            [
               0.011136905290186405,
               0.013947705738246441,
               0.03485153615474701,
               -0.012294412590563297,
               0.014447408728301525,
               -0.01186381746083498,
               -0.006433336064219475,
               -0.017991503700613976
            ],
            [
               -0.0011040940880775452,
               -0.0005463715642690659,
               0.000688210129737854,
               -0.014452557079494,
               0.004990695044398308,
               -0.014121980406343937,
               0.007452068850398064,
               -0.0049614328891038895
            ],
            [
               -0.002641723258420825,
               -0.0209194328635931,
               -0.020731749013066292,
               -0.0003290083259344101,
               -0.01761360466480255,
               0.02004689909517765,
               0.038336265832185745,
               -0.016291361302137375
            ],
            [
               -0.020951567217707634,
               -0.018662508577108383,
               -0.013035249896347523,
               -0.0054092928767204285,
               -0.014236848801374435,
               0.015194613486528397,
               0.008962240070104599,
               0.020517446100711823
            ],
            [
               0.036980822682380676,
               -0.017225779592990875,
               0.032943349331617355,
               0.013541040942072868,
               -0.018948907032608986,
               -0.0035343552008271217,
               -0.006844864692538977,
               -0.0010938108898699284
            ],
            [
               0.010305036790668964,
               -0.004791040904819965,
               0.029262401163578033,
               0.0014151744544506073,
               0.034043390303850174,
               0.008595517836511135,
               -0.022860586643218994,
               0.018289759755134583
            ],
            [
               -0.010061882436275482,
               0.0008508674800395966,
               -0.012976099736988544,
               0.02032867819070816,
               0.006652435287833214,
               -0.020206985995173454,
               0.014970790594816208,
               -0.021754499524831772
            ],
            [
               -0.0048616728745400906,
               -0.024119030684232712,
               0.007641682866960764,
               -0.01987278088927269,
               -0.01603686809539795,
               0.011642340570688248,
               0.00957421027123928,
               -0.014201274141669273
            ],
            [
               -0.00922661367803812,
               0.014397747814655304,
               0.007461749017238617,
               -0.005534520372748375,
               0.0032282471656799316,
               -0.015331322327256203,
               -0.003808543086051941,
               -0.013880949467420578
            ],
            [
               0.021967602893710136,
               -0.009730569086968899,
               0.002700700191780925,
               0.0019198019290342927,
               -0.015942009165883064,
               0.015331508591771126,
               0.014900567010045052,
               -0.01052275113761425
            ],
            [
               0.0010038973996415734,
               -0.008228320628404617,
               0.013522914610803127,
               -0.006946548819541931,
               0.008170419372618198,
               -0.0053040808998048306,
               0.005398889072239399,
               0.006314098834991455
            ],
            [
               -0.022313015535473824,
               0.021725688129663467,
               -0.018837805837392807,
               0.013071004301309586,
               -0.011520127765834332,
               -0.0009032227098941803,
               -0.018975049257278442,
               0.005369028076529503
            ],
            [
               0.021146060898900032,
               -0.010863515548408031,
               0.007831637747585773,
               -0.012058702297508717,
               -0.01932472735643387,
               0.031062353402376175,
               0.021546149626374245,
               0.013352185487747192
            ],
            [
               0.007177738472819328,
               0.009027022868394852,
               0.002609100192785263,
               0.020564615726470947,
               0.02005947381258011,
               0.004935218021273613,
               0.010198280215263367,
               -0.01505096722394228
            ],
            [
               0.012564204633235931,
               0.01726318709552288,
               0.014127697795629501,
               -0.015997834503650665,
               0.004745800513774157,
               -0.008117998950183392,
               0.02892237901687622,
               0.012146569788455963
            ],
            [
               0.031237054616212845,
               0.002684991341084242,
               0.013103031553328037,
               -0.0018333513289690018,
               -0.0009134794818237424,
               -0.010048631578683853,
               0.002203453565016389,
               0.015938878059387207
            ],
            [
               0.004893075674772263,
               -0.008882489055395126,
               0.002573525533080101,
               -0.013023002073168755,
               -0.014437463134527206,
               -0.021901486441493034,
               0.021833650767803192,
               0.013924237340688705
            ],
            [
               -0.00895222183316946,
               -0.032680694013834,
               -0.003660993417724967,
               0.021389689296483994,
               0.0018305890262126923,
               0.022281164303421974,
               0.021467875689268112,
               -0.005687694996595383
            ],
            [
               0.002961510792374611,
               -0.02169443480670452,
               -0.019379090517759323,
               0.006981927901506424,
               0.02195325866341591,
               0.006663104519248009,
               0.003953991457819939,
               0.0029074158519506454
            ],
            [
               0.016845745965838432,
               0.0005089739570394158,
               0.038445182144641876,
               -0.006047609727829695,
               -0.018211714923381805,
               -0.014176210388541222,
               -0.01244329009205103,
               -0.003000612137839198
            ],
            [
               -0.0027413987554609776,
               -0.01843956671655178,
               0.022803956642746925,
               -0.014245429076254368,
               0.018208924680948257,
               0.017113570123910904,
               0.0019696825183928013,
               -0.005718991160392761
            ],
            [
               -0.008635587058961391,
               0.0036183763295412064,
               0.007017442956566811,
               0.02009715884923935,
               -0.004927650094032288,
               -0.012290679849684238,
               0.021152127534151077,
               0.0031881071627140045
            ],
            [
               -0.006051217671483755,
               -0.01052227895706892,
               -0.005310640204697847,
               0.0010578706860542297,
               0.01767372339963913,
               0.018860621377825737,
               0.03837663680315018,
               -0.01695198006927967
            ],
            [
               0.022152312099933624,
               0.018365681171417236,
               0.005133112892508507,
               0.004474364221096039,
               0.004756122827529907,
               -4.100985825061798e-05,
               0.013803668320178986,
               -0.018978431820869446
            ],
            [
               0.010959183797240257,
               -0.006820150185376406,
               0.021132132038474083,
               -0.025315837934613228,
               -0.009624314494431019,
               0.012158340774476528,
               0.007781680673360825,
               -0.0214926116168499
            ],
            [
               0.012002209201455116,
               0.004286311101168394,
               0.029348932206630707,
               0.02191914990544319,
               0.007505121640861034,
               0.0035223844461143017,
               0.0049477750435471535,
               -0.018133381381630898
            ],
            [
               -0.008544850163161755,
               -0.003793509677052498,
               -0.011879884637892246,
               -0.022279808297753334,
               -0.008108079433441162,
               -0.02103235200047493,
               0.021711844950914383,
               -0.015539957210421562
            ],
            [
               0.0001352769322693348,
               -0.014305897988379002,
               -0.0070664105005562305,
               -0.003256235271692276,
               -0.01248427014797926,
               -0.008873898535966873,
               0.016016962006688118,
               -0.0065154749900102615
            ],
            [
               -0.008709526620805264,
               0.006312999874353409,
               0.015707574784755707,
               0.0002071000635623932,
               -0.012552903965115547,
               -0.010157722048461437,
               0.012697849422693253,
               0.014544110745191574
            ],
            [
               0.010929599404335022,
               0.023316966369748116,
               -0.004146398976445198,
               -0.011576528660953045,
               0.010099099017679691,
               0.024812370538711548,
               0.01066757645457983,
               -0.008444031700491905
            ],
            [
               0.03143013268709183,
               0.010554934851825237,
               0.005915249232202768,
               0.022746402770280838,
               0.004868661984801292,
               -0.011829090304672718,
               -0.020656412467360497,
               -0.015110025182366371
            ],
            [
               0.014967113733291626,
               -0.0196586512029171,
               0.007115665823221207,
               0.008788187056779861,
               -0.007497274316847324,
               0.018695231527090073,
               0.02239827811717987,
               0.02034633979201317
            ],
            [
               0.025802111253142357,
               -0.017507867887616158,
               -0.007365851663053036,
               -0.006998077034950256,
               -0.017206232994794846,
               -0.00022274511866271496,
               0.03352447599172592,
               0.005214609205722809
            ],
            [
               0.003742646425962448,
               -0.0011870544403791428,
               0.009250544011592865,
               0.014550454914569855,
               -0.00891706719994545,
               0.004936637356877327,
               -0.011033489368855953,
               0.009744882583618164
            ],
            [
               0.050145529210567474,
               0.009263728745281696,
               0.017586996778845787,
               0.010213772766292095,
               0.0018044711323454976,
               -0.005777459125965834,
               0.014553127810359001,
               0.005718784406781197
            ],
            [
               0.0188448429107666,
               0.0035194712691009045,
               0.017166009172797203,
               -0.012416070327162743,
               0.03923261538147926,
               0.023598164319992065,
               0.007847628556191921,
               -0.011753498576581478
            ],
            [
               -0.007189741358160973,
               0.017370708286762238,
               0.00344228558242321,
               0.014277596026659012,
               -0.0008404869586229324,
               0.0052735209465026855,
               0.006791651248931885,
               -0.020616307854652405
            ],
            [
               -0.013597583398222923,
               -0.0483040027320385,
               -0.014878607355058193,
               0.011286601424217224,
               0.006332734599709511,
               0.009225374087691307,
               0.020509814843535423,
               -0.020641494542360306
            ],
            [
               -0.017466019839048386,
               0.00020404718816280365,
               0.003567621111869812,
               0.0004323907196521759,
               -0.009311441332101822,
               -0.002634570002555847,
               0.020053181797266006,
               0.009448040276765823
            ],
            [
               0.039164282381534576,
               -0.012756218202412128,
               0.03099571354687214,
               -0.005636309739202261,
               -0.02688068337738514,
               0.02451164275407791,
               0.008410494774580002,
               0.004528285935521126
            ],
            [
               0.023859895765781403,
               -0.018999982625246048,
               -0.009699785150587559,
               -0.021241378039121628,
               0.014281250536441803,
               0.00016468859394080937,
               0.019880712032318115,
               -0.01645924709737301
            ],
            [
               0.01055271178483963,
               -0.014706021174788475,
               -0.020369980484247208,
               -0.013956330716609955,
               -0.01868831180036068,
               -0.00054190494120121,
               0.004601050168275833,
               -0.012371072545647621
            ],
            [
               -0.015843279659748077,
               -0.007815568707883358,
               -0.028547659516334534,
               -0.0030154287815093994,
               0.01297014206647873,
               -0.0037603082600980997,
               0.03262396156787872,
               -0.009966493584215641
            ],
            [
               0.017467129975557327,
               0.01812451332807541,
               -0.012688497081398964,
               -0.008297822438180447,
               -0.014794995076954365,
               0.01862022653222084,
               0.00558839924633503,
               0.014603190124034882
            ],
            [
               0.028998060151934624,
               -0.008739900775253773,
               0.01459750160574913,
               0.00326176593080163,
               -0.0028760198038071394,
               0.006245238706469536,
               0.012622513808310032,
               0.0020175548270344734
            ],
            [
               -0.004433901980519295,
               0.00830484926700592,
               0.0029646526090800762,
               0.015335287898778915,
               0.0002073678479064256,
               0.01319845113903284,
               -0.004842925816774368,
               0.004117768257856369
            ],
            [
               0.00952281802892685,
               0.015063013881444931,
               -0.004175422713160515,
               -0.008007990196347237,
               0.011531952768564224,
               0.01887156441807747,
               -0.012862712144851685,
               -0.0008452367037534714
            ],
            [
               0.017862075939774513,
               -0.01836501993238926,
               -0.008680146187543869,
               -0.010156258940696716,
               0.005899360403418541,
               0.029086604714393616,
               0.020566659048199654,
               -0.0017625465989112854
            ],
            [
               0.007321508601307869,
               -0.00018275156617164612,
               0.009883560240268707,
               -0.00017543882131576538,
               -0.007590730674564838,
               0.0034005139023065567,
               0.019934266805648804,
               0.007407991215586662
            ],
            [
               0.044243551790714264,
               0.02394283376634121,
               0.0001448850380256772,
               0.006420587655156851,
               -0.019674494862556458,
               0.01051495224237442,
               0.003645759541541338,
               0.007069671992212534
            ],
            [
               -0.009968333877623081,
               -0.009929848834872246,
               0.016862541437149048,
               -0.006637042388319969,
               0.021556854248046875,
               -0.002767300931736827,
               -0.0029896548949182034,
               0.020063210278749466
            ],
            [
               0.0023563113063573837,
               0.017130166292190552,
               0.015817686915397644,
               0.014835476875305176,
               0.022794581949710846,
               -0.0022399742156267166,
               -0.0001292545348405838,
               -0.01577717997133732
            ],
            [
               0.015133828856050968,
               -0.005103913135826588,
               -0.02693033777177334,
               -0.013637208379805088,
               0.002002859488129616,
               0.008332619443535805,
               0.008317061699926853,
               0.002465883269906044
            ],
            [
               0.015647344291210175,
               0.005877077579498291,
               0.006976628676056862,
               0.019035451114177704,
               0.012867297977209091,
               0.0080648772418499,
               -0.015009620226919651,
               -0.01812228560447693
            ],
            [
               0.012812180444598198,
               -0.008705963380634785,
               0.036293309181928635,
               -0.018185025081038475,
               -0.025513291358947754,
               0.0009602278005331755,
               0.005116711836308241,
               -0.00029752429691143334
            ],
            [
               0.024054046720266342,
               -0.020279517397284508,
               0.009257005527615547,
               0.012002676725387573,
               0.005165481939911842,
               0.026341093704104424,
               -0.0218618493527174,
               0.014889802783727646
            ],
            [
               -0.013986436650156975,
               0.01323329284787178,
               0.00757933221757412,
               0.02235500141978264,
               -0.010188034735620022,
               -0.008491113781929016,
               -0.01843990758061409,
               -0.010227140039205551
            ],
            [
               0.023089000955224037,
               -0.00978049449622631,
               -0.014828215353190899,
               -0.016185276210308075,
               0.021679922938346863,
               0.010992512106895447,
               0.04143653064966202,
               0.015028528869152069
            ],
            [
               -0.020125849172472954,
               0.008370853960514069,
               -0.017370592802762985,
               0.0009320713579654694,
               -0.006722886115312576,
               0.008325725793838501,
               0.014399174600839615,
               0.0014417320489883423
            ],
            [
               0.018531935289502144,
               -0.010973614640533924,
               0.03416087478399277,
               -8.381975931115448e-05,
               -0.025940341874957085,
               0.012138765305280685,
               0.020665237680077553,
               -0.027572017163038254
            ],
            [
               0.01902322843670845,
               0.003724567126482725,
               -0.0009094930719584227,
               0.003453042358160019,
               0.025450918823480606,
               0.009770712815225124,
               0.003084093565121293,
               0.0022929981350898743
            ],
            [
               -0.01783096231520176,
               0.009440995752811432,
               -0.016340434551239014,
               0.011577565222978592,
               0.011089514940977097,
               -0.0154508575797081,
               -0.014313350431621075,
               -0.014314977452158928
            ],
            [
               -0.004982329439371824,
               -0.010271919891238213,
               -0.0017197075067088008,
               0.007289612665772438,
               0.016050156205892563,
               0.01100546307861805,
               0.006588411517441273,
               -0.002473495900630951
            ],
            [
               0.007973814383149147,
               -0.016538284718990326,
               -0.012857281602919102,
               0.001246737316250801,
               0.0188123919069767,
               0.005959060043096542,
               0.017570633441209793,
               -0.007362067699432373
            ],
            [
               0.027836209163069725,
               -0.014598474837839603,
               0.009678170084953308,
               -0.00023592691286467016,
               -0.005152296740561724,
               -0.0164235420525074,
               0.01164033729583025,
               -0.010599460452795029
            ],
            [
               0.0264701247215271,
               0.0031332294456660748,
               -0.0014027990400791168,
               -0.015182550996541977,
               0.01713251695036888,
               -0.004062816966325045,
               -0.0175579022616148,
               -0.013258086517453194
            ],
            [
               -0.015517713502049446,
               -0.0010177865624427795,
               0.012726057320833206,
               -0.017927460372447968,
               -0.02042277716100216,
               0.018924608826637268,
               -0.006261739879846573,
               0.02083306387066841
            ],
            [
               0.0019287444883957505,
               -0.00589714664965868,
               -0.00017814883904065937,
               -0.021626301109790802,
               0.017541460692882538,
               0.029591094702482224,
               0.03588752821087837,
               -0.0031310953199863434
            ],
            [
               -0.01242214348167181,
               0.016937006264925003,
               -0.004983698949217796,
               -0.0014979559928178787,
               0.01298467069864273,
               -0.0064429230988025665,
               -0.01937353052198887,
               -0.01885911449790001
            ],
            [
               0.0307402815669775,
               -0.015034927986562252,
               0.026690976694226265,
               -0.016356587409973145,
               0.0024236871395260096,
               0.018708687275648117,
               -0.009542692452669144,
               -0.025577541440725327
            ],
            [
               0.0236344113945961,
               0.012068444862961769,
               -0.004373210482299328,
               0.01804165542125702,
               0.005108801648020744,
               -0.014725246466696262,
               0.019645966589450836,
               -0.0069296229630708694
            ],
            [
               -0.019522253423929214,
               0.010233353823423386,
               0.0196525901556015,
               -0.011543878354132175,
               -0.008290710859000683,
               0.02024039998650551,
               -0.01981722190976143,
               -0.02158360928297043
            ],
            [
               -0.00943149346858263,
               -0.013060555793344975,
               -0.019500408321619034,
               0.005389073863625526,
               -0.019573230296373367,
               0.029721759259700775,
               0.006640260107815266,
               0.018713094294071198
            ],
            [
               -0.02026081643998623,
               0.017173677682876587,
               0.005558935925364494,
               -0.013323281891644001,
               -0.014239585027098656,
               0.015596136450767517,
               0.004690039902925491,
               0.008109640330076218
            ],
            [
               0.029819773510098457,
               -0.015134979970753193,
               0.015350881963968277,
               0.015814466401934624,
               0.004388161934912205,
               0.027070797979831696,
               0.0011205448536202312,
               -0.015023564919829369
            ],
            [
               0.002374964766204357,
               0.010581775568425655,
               0.0322631299495697,
               -0.0020394958555698395,
               0.012301533482968807,
               0.012462888844311237,
               0.010046117007732391,
               0.01569020375609398
            ],
            [
               0.022074997425079346,
               -0.007314153015613556,
               -0.018227746710181236,
               0.01748664304614067,
               -0.006131831556558609,
               -0.004443665966391563,
               -0.019432691857218742,
               -0.015117371454834938
            ],
            [
               0.01833195425570011,
               -0.044550858438014984,
               -0.02412078157067299,
               -0.001088075339794159,
               -0.021377695724368095,
               0.027213212102651596,
               0.021863186731934547,
               -0.006038570776581764
            ],
            [
               0.01978757232427597,
               0.00013608857989311218,
               0.00365300290286541,
               -0.0005559325218200684,
               0.0206112340092659,
               -0.004483124241232872,
               -0.012672685086727142,
               0.017862685024738312
            ],
            [
               0.02879147417843342,
               0.013995878398418427,
               0.017543522641062737,
               5.858500298927538e-05,
               -0.032517705112695694,
               -0.0005002146353945136,
               0.022167356684803963,
               -0.006796211935579777
            ],
            [
               -0.005712069105356932,
               0.01761043630540371,
               0.008358672261238098,
               -0.011670803651213646,
               0.017804961651563644,
               0.026555022224783897,
               0.0012116513680666685,
               0.008869882673025131
            ],
            [
               0.01621200144290924,
               0.004310080781579018,
               0.01440843939781189,
               -0.021994857117533684,
               0.0018927473574876785,
               -0.017318401485681534,
               -0.009178878739476204,
               -0.02232188545167446
            ],
            [
               -0.0010472844587638974,
               -0.0047342670150101185,
               -0.014976540580391884,
               -0.02119462378323078,
               -0.014595304615795612,
               -0.007323545403778553,
               0.020947113633155823,
               0.02114683762192726
            ],
            [
               0.010091766715049744,
               0.01376790925860405,
               -0.009556950069963932,
               0.017966143786907196,
               0.006076125428080559,
               0.0026527103036642075,
               -0.006082944571971893,
               0.016776613891124725
            ],
            [
               0.05068099498748779,
               0.004580265376716852,
               0.03915146738290787,
               -0.011240457184612751,
               -0.00037349353078752756,
               0.013562812469899654,
               0.0004353741533122957,
               0.01613904908299446
            ],
            [
               0.02553359791636467,
               -0.01202691812068224,
               0.01671723462641239,
               -0.0012528058141469955,
               -0.004419601522386074,
               0.011415102519094944,
               -0.00686242152005434,
               0.011532396078109741
            ],
            [
               0.009835943579673767,
               0.016928795725107193,
               -0.0069348569959402084,
               0.01210467517375946,
               -0.01956864818930626,
               0.022731143981218338,
               0.004298055544495583,
               -0.019718263298273087
            ],
            [
               -0.012214098125696182,
               -0.010174708440899849,
               -0.012984327040612698,
               -0.015288766473531723,
               0.015484489500522614,
               0.022288834676146507,
               0.027469508349895477,
               -0.019209587946534157
            ],
            [
               0.009401954710483551,
               7.4826180934906e-05,
               -0.0004977826029062271,
               -0.00020430423319339752,
               -0.012897355481982231,
               -0.0016024690121412277,
               -0.008972115814685822,
               -0.015010256320238113
            ],
            [
               0.0243219081312418,
               -0.013797893188893795,
               -0.00017061532707884908,
               -0.009707162156701088,
               -0.009637073613703251,
               0.014904399402439594,
               0.02767653577029705,
               -0.00048746727406978607
            ],
            [
               0.0037269480526447296,
               0.006454419810324907,
               0.010562804527580738,
               0.010986048728227615,
               0.013617846183478832,
               -0.011201002635061741,
               0.016220569610595703,
               0.019503209739923477
            ],
            [
               0.010811492800712585,
               0.012599285691976547,
               0.020351089537143707,
               -0.008701195940375328,
               -0.01693168468773365,
               0.007603442296385765,
               -0.010020132176578045,
               -0.009215589612722397
            ],
            [
               -0.003166602225974202,
               -0.012158128432929516,
               -0.016894016414880753,
               -0.014890187419950962,
               -0.01752353273332119,
               0.01728125661611557,
               0.004971602000296116,
               -0.008959334343671799
            ],
            [
               0.012662973254919052,
               0.022588815540075302,
               0.000529726967215538,
               -0.019616400822997093,
               -0.003724668174982071,
               -0.012491636909544468,
               0.021646451205015182,
               -0.005959298461675644
            ],
            [
               0.021839430555701256,
               0.005145559553056955,
               -0.0005353568121790886,
               0.008176111616194248,
               -0.0018773244228214025,
               -0.014636145904660225,
               0.026795798912644386,
               -0.015257485210895538
            ],
            [
               0.008708324283361435,
               -0.01292986236512661,
               -0.010160109028220177,
               0.012712448835372925,
               0.031005585566163063,
               0.009279011748731136,
               -0.015484343282878399,
               -0.007082697004079819
            ],
            [
               -0.011351958848536015,
               -0.010817590169608593,
               -0.008885171264410019,
               -0.0020840968936681747,
               -0.007494760677218437,
               0.005661185830831528,
               -0.009401747025549412,
               0.009538490325212479
            ],
            [
               0.014626561664044857,
               -0.03924420475959778,
               0.007204131688922644,
               -0.017186639830470085,
               -0.01128881424665451,
               0.022374944761395454,
               -0.0010267260950058699,
               0.0015377849340438843
            ],
            [
               0.01987968012690544,
               0.010714106261730194,
               0.02033870667219162,
               0.002754056826233864,
               0.016840726137161255,
               -0.014022598043084145,
               0.014096196740865707,
               -0.0139785036444664
            ],
            [
               0.016125671565532684,
               -0.011374041438102722,
               0.016081051900982857,
               -0.004730860702693462,
               -0.008542600087821484,
               -0.0026489875745028257,
               0.004639738705009222,
               0.003743700683116913
            ],
            [
               0.02099742740392685,
               -0.00016140699153766036,
               0.030092380940914154,
               0.007250681519508362,
               -0.00526552926748991,
               -0.01064042467623949,
               -0.005124503746628761,
               0.003915168344974518
            ],
            [
               0.017824046313762665,
               0.0019531119614839554,
               -0.01603836566209793,
               -0.022162536159157753,
               0.004011116921901703,
               -0.017624787986278534,
               -0.018722377717494965,
               -0.012631523422896862
            ],
            [
               -0.016035623848438263,
               -0.029143113642930984,
               -0.01597316563129425,
               0.00014315545558929443,
               -0.013409665785729885,
               0.012584726326167583,
               0.003296078182756901,
               -0.0016136616468429565
            ],
            [
               0.014338266104459763,
               0.008501537144184113,
               0.018549539148807526,
               -0.006359560415148735,
               -0.009884849190711975,
               0.016524437814950943,
               0.0032802484929561615,
               -0.003026135265827179
            ],
            [
               0.06542473286390305,
               0.019299091771245003,
               0.012591694481670856,
               0.011873995885252953,
               -0.014679130166769028,
               0.0007699407869949937,
               0.04471886157989502,
               -0.00653437152504921
            ],
            [
               0.019132602959871292,
               -0.027734296396374702,
               0.009733092039823532,
               -0.012139987200498581,
               0.032938215881586075,
               -0.0031737058889120817,
               0.00036261873901821673,
               0.013562284409999847
            ],
            [
               0.016500677913427353,
               0.006346920505166054,
               -0.015249650925397873,
               0.0033050645142793655,
               -0.00969596579670906,
               0.003376137465238571,
               0.006152166053652763,
               -0.014640368521213531
            ],
            [
               0.07980016618967056,
               0.06691963970661163,
               0.015320788137614727,
               0.017655719071626663,
               -0.016242073848843575,
               0.0022282153367996216,
               0.061292439699172974,
               -0.013207179494202137
            ],
            [
               -0.017641030251979828,
               -0.011105208657681942,
               -0.017112456262111664,
               -0.01419627945870161,
               0.014489348977804184,
               0.0035062022507190704,
               0.006020816043019295,
               -0.018861910328269005
            ],
            [
               0.03937327861785889,
               -0.014747335575520992,
               0.026932520791888237,
               -0.005921234842389822,
               0.00999369565397501,
               -0.012878460809588432,
               0.01326768659055233,
               -0.024349842220544815
            ],
            [
               0.0276980921626091,
               0.005481224041432142,
               0.007849715650081635,
               -0.002034233883023262,
               0.01985124498605728,
               0.024150483310222626,
               -0.023650072515010834,
               0.013137996196746826
            ],
            [
               0.011528421193361282,
               0.014913495630025864,
               0.015608515590429306,
               0.015128493309020996,
               -0.008716093376278877,
               -0.004262622445821762,
               -0.004285998642444611,
               0.008667293936014175
            ],
            [
               -0.012546028941869736,
               -0.014572312124073505,
               -0.02987886592745781,
               -0.010026835836470127,
               0.015956386923789978,
               0.008962888270616531,
               0.033162664622068405,
               -0.016504142433404922
            ],
            [
               0.013926219195127487,
               -0.012485554441809654,
               0.008520934730768204,
               0.01883295178413391,
               0.0022221915423870087,
               0.019518569111824036,
               -0.004898795858025551,
               -0.02250583842396736
            ],
            [
               0.04431033134460449,
               0.002238344866782427,
               0.01284426636993885,
               0.0013423506170511246,
               -0.022955993190407753,
               0.02814461663365364,
               0.02173435501754284,
               -0.01751389168202877
            ],
            [
               0.0018057344714179635,
               -0.00040654645999893546,
               0.03494821488857269,
               -0.00872507132589817,
               0.007195602171123028,
               -0.013946476392447948,
               0.006960485130548477,
               0.020693663507699966
            ],
            [
               0.021909203380346298,
               0.019761625677347183,
               -0.009277303703129292,
               -0.00208173505961895,
               -0.021922096610069275,
               0.013803571462631226,
               0.02108006924390793,
               -0.008182204328477383
            ],
            [
               -0.014404334127902985,
               -0.03919094428420067,
               -0.010460350662469864,
               0.01407301053404808,
               -0.0020391959697008133,
               -0.012421050108969212,
               0.00832702312618494,
               -0.0011326055973768234
            ],
            [
               -0.0024319104850292206,
               0.02190280705690384,
               0.018407311290502548,
               -0.018201764672994614,
               -0.015278123319149017,
               -0.015833184123039246,
               -0.020459242165088654,
               0.012794900685548782
            ],
            [
               0.015704598277807236,
               -0.015129431150853634,
               0.02993968315422535,
               0.012025035917758942,
               -0.02382378652691841,
               0.00041335454443469644,
               0.02719978801906109,
               0.012736533768475056
            ],
            [
               -0.0026907608844339848,
               0.01140989176928997,
               0.00240054028108716,
               -0.0011818800121545792,
               -0.003324760589748621,
               -0.00735764903947711,
               -0.009216715581715107,
               -0.0006545297801494598
            ],
            [
               -0.013896510936319828,
               -0.009230400435626507,
               0.014926224946975708,
               0.00404771976172924,
               -0.00930016115307808,
               -0.02079848200082779,
               0.007145842537283897,
               -0.022166285663843155
            ],
            [
               -0.009244324639439583,
               -0.02558821253478527,
               -0.0070131500251591206,
               -0.02260817587375641,
               0.0018699541687965393,
               0.006231662817299366,
               0.032624874264001846,
               0.011683020740747452
            ],
            [
               0.012704234570264816,
               -0.019862769171595573,
               0.01504271849989891,
               0.02267768234014511,
               -0.005499642342329025,
               0.009090151637792587,
               0.001958971843123436,
               -0.010274200700223446
            ],
            [
               0.022152462974190712,
               0.02056722901761532,
               0.018595950677990913,
               0.0031226857099682093,
               -0.004592238459736109,
               0.012158292345702648,
               0.021046897396445274,
               -0.02682626061141491
            ],
            [
               0.022598274052143097,
               -0.020686311647295952,
               0.02954067289829254,
               -0.004248687997460365,
               0.01566140726208687,
               0.0009144387440755963,
               -0.016642989590764046,
               -0.021414864808321
            ],
            [
               -0.011997772380709648,
               -0.019982382655143738,
               0.022498469799757004,
               -0.012731918133795261,
               -0.01452419999986887,
               -0.003648655489087105,
               -0.007524849846959114,
               0.011857569217681885
            ],
            [
               0.009437492117285728,
               -0.04858596250414848,
               -0.020480411127209663,
               -0.014371358789503574,
               0.010609827935695648,
               -0.009892618283629417,
               0.006556036416441202,
               0.016308441758155823
            ],
            [
               0.018119629472494125,
               -0.021809890866279602,
               0.003714080899953842,
               0.0033180583268404007,
               -0.02036622166633606,
               -0.01368902437388897,
               -0.018701985478401184,
               -0.015207797288894653
            ],
            [
               0.017169523984193802,
               0.010764564387500286,
               0.020877869799733162,
               0.006169630214571953,
               -0.01599138416349888,
               0.003423369722440839,
               0.005498676095157862,
               0.015012347139418125
            ],
            [
               0.031957607716321945,
               0.006340507883578539,
               0.021673396229743958,
               0.00025326386094093323,
               0.02825225330889225,
               0.016239307820796967,
               -0.004618897568434477,
               0.011320613324642181
            ],
            [
               0.011141858994960785,
               -0.012628590688109398,
               -0.019095182418823242,
               -0.0005696658045053482,
               -0.003199959173798561,
               0.002744905650615692,
               0.007432769984006882,
               -0.014687684364616871
            ],
            [
               0.02109593339264393,
               -0.03552527725696564,
               -0.01128945592790842,
               -0.017070140689611435,
               -0.010245662182569504,
               0.023523880168795586,
               0.016507526859641075,
               0.015992049127817154
            ],
            [
               -0.015362080186605453,
               0.00026552192866802216,
               0.01023048534989357,
               -0.011244622059166431,
               0.00824681855738163,
               -0.0037461072206497192,
               -0.018051106482744217,
               -0.00019493885338306427
            ],
            [
               0.01822075806558132,
               0.002943015657365322,
               0.03927628695964813,
               -0.012544125318527222,
               -0.013206575997173786,
               0.009758887812495232,
               -0.009974290616810322,
               0.002487692516297102
            ],
            [
               0.006053122226148844,
               0.008549440652132034,
               0.01076724473387003,
               0.016347579658031464,
               0.029309509322047234,
               0.01775292679667473,
               -0.003800285281613469,
               -0.004674490541219711
            ],
            [
               -0.020780693739652634,
               -0.007222818210721016,
               -0.002226550132036209,
               0.014461535960435867,
               -0.013292262330651283,
               0.010511200875043869,
               0.006871433928608894,
               -0.005000969395041466
            ],
            [
               0.014598830603063107,
               -0.04615239426493645,
               0.01155522745102644,
               -0.003141341730952263,
               -0.01766117289662361,
               0.010414508171379566,
               0.008166149258613586,
               -0.00967593677341938
            ],
            [
               -0.008415558375418186,
               -0.01994684524834156,
               -0.012801891192793846,
               -0.006415054202079773,
               0.011012688279151917,
               -0.015311582013964653,
               -0.02246522158384323,
               -0.0067155566066503525
            ],
            [
               0.03552687168121338,
               0.000741686555556953,
               0.002976223360747099,
               -0.014852199703454971,
               -0.006707065273076296,
               -0.008348248898983002,
               0.026997344568371773,
               -0.001595972804352641
            ],
            [
               0.026852045208215714,
               -0.005033272318542004,
               -0.009006647393107414,
               -0.00595107302069664,
               0.020535554736852646,
               0.007670889142900705,
               -0.0016833612462505698,
               0.011916067451238632
            ],
            [
               -0.01732286997139454,
               0.014775853604078293,
               -0.021646318957209587,
               -0.01954040490090847,
               -0.01142322737723589,
               0.005581418052315712,
               0.006301591172814369,
               -0.018964650109410286
            ],
            [
               -0.003983155358582735,
               -0.02479388751089573,
               -0.009859281592071056,
               -0.014059771783649921,
               -0.0035420432686805725,
               0.02278437651693821,
               0.005326604470610619,
               0.016320496797561646
            ],
            [
               -0.01942026987671852,
               -0.0066473037004470825,
               -0.0032774899154901505,
               0.007878229022026062,
               0.0057505276054143906,
               0.016907721757888794,
               0.012291930615901947,
               0.008709114044904709
            ],
            [
               0.05517376959323883,
               0.015086728148162365,
               0.022118935361504555,
               0.014006578363478184,
               0.00860027875751257,
               0.01570095866918564,
               0.02067979983985424,
               0.011097989976406097
            ],
            [
               -0.006793285720050335,
               -0.00037881912430748343,
               -0.008731121197342873,
               0.003011053428053856,
               0.025736764073371887,
               0.012720507569611073,
               0.0017281831242144108,
               -0.0127864433452487
            ],
            [
               -0.003475513309240341,
               -0.01579458639025688,
               -0.020877448841929436,
               0.005496939644217491,
               -0.00965254008769989,
               -0.02048053964972496,
               0.01160632073879242,
               -0.010845677927136421
            ],
            [
               0.0001104329276131466,
               -0.007834336720407009,
               -0.0213006641715765,
               0.007770005613565445,
               -0.009824496693909168,
               -1.5727035133750178e-05,
               0.005119854584336281,
               -0.0172494575381279
            ],
            [
               -0.014154214411973953,
               -0.0048475563526153564,
               0.02220165729522705,
               -0.005957726389169693,
               -0.0069863032549619675,
               0.018269523978233337,
               0.012641098350286484,
               0.009706363081932068
            ],
            [
               0.01395898126065731,
               -0.019379112869501114,
               0.011734586209058762,
               -0.01520515512675047,
               -0.022157618775963783,
               -0.008838705718517303,
               0.020243847742676735,
               -0.02032296359539032
            ],
            [
               0.030277039855718613,
               -0.009841999039053917,
               0.02872166782617569,
               0.014707032591104507,
               0.010179455392062664,
               -0.005389401223510504,
               -0.020962536334991455,
               -0.006265558302402496
            ],
            [
               -0.0016038715839385986,
               -0.013126530684530735,
               0.010100655257701874,
               0.0037449486553668976,
               -0.013982448726892471,
               -0.0016758907586336136,
               0.019772175699472427,
               0.014397192746400833
            ],
            [
               -0.010481367819011211,
               -0.04697354882955551,
               0.011468089185655117,
               0.020399276167154312,
               -0.0010265186429023743,
               0.02876470610499382,
               0.013276003301143646,
               -0.009387519210577011
            ],
            [
               0.014475326985120773,
               0.02180228754878044,
               -0.012775120325386524,
               -0.018991263583302498,
               -0.01132652722299099,
               -0.0034842900931835175,
               -0.003967544063925743,
               -0.009859651327133179
            ],
            [
               0.04152236878871918,
               0.010386013425886631,
               -0.005125553347170353,
               -0.005239247810095549,
               0.006334763485938311,
               0.0011069118045270443,
               -0.0016107545234262943,
               -0.012309614568948746
            ],
            [
               0.01925469934940338,
               -0.004681204445660114,
               -0.006508814636617899,
               0.019207477569580078,
               -0.002449179533869028,
               -0.0007739634020254016,
               0.015284867025911808,
               0.015195179730653763
            ],
            [
               0.006385721266269684,
               0.02141077071428299,
               0.015823662281036377,
               -0.02205032855272293,
               -0.0026635825634002686,
               -0.0006802994757890701,
               -0.000408390536904335,
               -0.005115313455462456
            ],
            [
               0.02105669118463993,
               -0.014484991319477558,
               -0.02395825833082199,
               -0.01934647187590599,
               -0.021289853379130363,
               0.006543082185089588,
               0.042070209980010986,
               -0.009156515821814537
            ],
            [
               0.018559828400611877,
               -0.009987790137529373,
               -0.01576298289000988,
               -0.020735211670398712,
               -0.011283379048109055,
               -0.018441839143633842,
               0.0018017180263996124,
               -0.001406695693731308
            ],
            [
               0.05514998733997345,
               -0.015065724961459637,
               0.03357833996415138,
               -0.0197692159563303,
               -0.001546584884636104,
               0.0037189102731645107,
               0.017682185396552086,
               0.006878396961838007
            ],
            [
               0.01688244752585888,
               -0.026936659589409828,
               0.005392672494053841,
               0.01435338705778122,
               0.0049686431884765625,
               0.007834292016923428,
               -0.0076149748638272285,
               0.00028060004115104675
            ],
            [
               -0.016674067825078964,
               -0.008889012970030308,
               0.009597670286893845,
               0.018296565860509872,
               0.0028018634766340256,
               0.018622104078531265,
               0.017805155366659164,
               0.01474389061331749
            ],
            [
               -0.008896476589143276,
               -0.014400252141058445,
               -0.020116975530982018,
               -0.0013704579323530197,
               0.021812137216329575,
               0.01765638403594494,
               0.01703345775604248,
               0.012537773698568344
            ],
            [
               0.01410340890288353,
               0.019491609185934067,
               0.004127753898501396,
               -0.014951297082006931,
